net
{
    node_size = (120 40);
    HR_Desc = "";
    HR_OOBN_CheckConsistency = "1";
    HR_OOBN_FitExpand = "1";
    HR_Zoom_ZoomFactor = "100";
    HR_Color_Interface = "21";
    HR_Color_Instance = "0";
    HR_Color_DiscreteFunction = "5";
    HR_Color_Function = "4";
    HR_Color_ContinuousChance = "48";
    HR_Monitor_Utility_Arrange = "0";
    HR_Monitor_Mean_Variance = "1";
    HR_Monitor_Chance_Utility = "1";
    HR_Compile_MaxMinimalSeparators = "100000";
    HR_Compile_SaveToMemory = "0";
    HR_Monitor_InitSD = "2";
    HR_Monitor_InitStates = "5";
    HR_Monitor_OpenGraph = "0";
    HR_Monitor_GraphPrecision = "100";
    HR_Monitor_AutoUpdGraph = "0";
    HR_Compile_ApproxEpsilon = "0.00001";
    HR_Compile_Approximate = "0";
    HR_Compile_Compress = "0";
    HR_Compile_TriangMethod = "0";
    HR_Propagate_AutoNormal = "1";
    HR_Propagate_AutoSum = "1";
    HR_Propagate_Auto = "0";
    HR_Font_Italic = "0";
    HR_Font_Weight = "400";
    HR_Font_Size = "-12";
    HR_Font_Name = "Arial";
    HR_Grid_GridShow = "0";
    HR_Grid_GridSnap = "1";
    HR_Grid_Y = "10";
    HR_Grid_X = "10";
    HRUNTIME_Grid_X = "10";
    HRUNTIME_Grid_Y = "10";
    HRUNTIME_Grid_GridSnap = "1";
    HRUNTIME_Grid_GridShow = "0";
    HRUNTIME_Font_Name = "Arial";
    HRUNTIME_Font_Size = "-12";
    HRUNTIME_Font_Weight = "400";
    HRUNTIME_Font_Italic = "0";
    HRUNTIME_Propagate_Auto = "0";
    HRUNTIME_Propagate_AutoSum = "1";
    HRUNTIME_Propagate_AutoNormal = "1";
    HRUNTIME_Compile_TriangMethod = "0";
    HRUNTIME_Compile_Compress = "0";
    HRUNTIME_Compile_Approximate = "0";
    HRUNTIME_Compile_ApproxEpsilon = "0.00001";
    HRUNTIME_Monitor_AutoUpdGraph = "0";
    HRUNTIME_Monitor_GraphPrecision = "100";
    HRUNTIME_Monitor_OpenGraph = "0";
    HR_Groups_GroupColors = "";
    HR_Groups_GroupNames = "";
    HR_Groups_UserGroupsNo = "0";
    HR_Color_Decision = "17";
    HR_Color_Utility = "36";
    HR_Color_ContinuosChance = "48";
    HR_Color_DiscreteChance = "16";
}

node Oil
{
    label = "";
    position = (60 210);
    states = ("dr" "wt" "sk");
    HR_Group = "0";
    HR_Desc = "";
    HR_State_2 = "";
    HR_State_1 = "";
    HR_State_0 = "";
    HR_LinkMode = "[Seismic:0][Drillpay:0][Pay:0]";
}

node Seismic
{
    label = "";
    position = (60 130);
    states = ("cl" "op" "di");
    HR_Group = "0";
    HR_Desc = "";
    HR_State_2 = "";
    HR_State_1 = "";
    HR_State_0 = "";
    HR_LinkMode = "[Drill:0]";
}

utility Pay
{
    label = "";
    position = (220 210);
    HR_Group = "0";
    HR_Desc = "";
}

decision Drill
{
    position = (220 130);
    states = ("Drill" "No Drill");
    HR_LinkMode = "[Drillpay:0][Pay:0]";
}

utility Cost
{
    label = "";
    position = (220 20);
    HR_Group = "0";
    HR_Desc = "";
}

decision Test
{
    label = "Test";
    position = (60 20);
    states = ("Test" "No test");
    HR_Group = "0";
    HR_Desc = "";
    HR_State_1 = "";
    HR_State_0 = "";
    HR_LinkMode = "[Seismic:0][Testpay:0][Drill:0][Cost:0]";
}

potential (Oil)
{
    data = ( 0.5 0.3 0.2 );
}

potential (Seismic | Oil Test)
{
    data
     = ((( 0.1 0.3 0.6 )	%  Oil=dr  Test=Test
	 ( 0.333333 0.333333 0.333333 ))	%  Oil=dr  Test=No test
	(( 0.3 0.4 0.3 )	%  Oil=wt  Test=Test
	 ( 0.333333 0.333333 0.333333 ))	%  Oil=wt  Test=No test
	(( 0.5 0.4 0.1 )	%  Oil=sk  Test=Test
	 ( 0.333333 0.333333 0.333333 )));	%  Oil=sk  Test=No test
}

potential (Pay | Oil Drill)
{
    data
     = (( -70	%  Oil=dr  Drill=Drill
	  0 )	%  Oil=dr  Drill=No Drill
	( 50	%  Oil=wt  Drill=Drill
	  0 )	%  Oil=wt  Drill=No Drill
	( 200	%  Oil=sk  Drill=Drill
	  0 ));	%  Oil=sk  Drill=No Drill
}

potential (Drill | Test Seismic)
{
    data
     = ((( 1 1 )	%  Test=Test  Seismic=cl
	 ( 1 1 )	%  Test=Test  Seismic=op
	 ( 1 1 ))	%  Test=Test  Seismic=di
	(( 1 1 )	%  Test=No test  Seismic=cl
	 ( 1 1 )	%  Test=No test  Seismic=op
	 ( 1 1 )));	%  Test=No test  Seismic=di
}

potential (Cost | Test)
{
    data
     = ( -10	%  Test=Test
	 0 );	%  Test=No test
}

potential (Test)
{
    data = ( 1 1 );
}
