net
{
    node_size = (161 40);
    HR_Grid_X = "10";
    HR_Grid_Y = "10";
    HR_Grid_GridSnap = "1";
    HR_Grid_GridShow = "0";
    HR_Font_Name = "Arial";
    HR_Font_Size = "-12";
    HR_Font_Weight = "400";
    HR_Font_Italic = "0";
    HR_Propagate_Auto = "0";
    HR_Propagate_AutoSum = "1";
    HR_Propagate_AutoNormal = "1";
    HR_Compile_TriangMethod = "0";
    HR_Compile_Compress = "0";
    HR_Compile_Approximate = "0";
    HR_Compile_ApproxEpsilon = "0.00001";
    HR_Monitor_AutoUpdGraph = "0";
    HR_Monitor_GraphPrecision = "100";
    HR_Monitor_OpenGraph = "0";
    HR_Monitor_InitStates = "5";
    HR_Monitor_InitSD = "2";
    HR_Color_DiscreteChance = "16";
    HR_Color_ContinuosChance = "48";
    HR_Color_Utility = "36";
    HR_Color_Decision = "17";
    HR_Groups_UserGroupsNo = "0";
    HR_Groups_GroupNames = "";
    HR_Groups_GroupColors = "";
    label = "weed9611";
    name = "weed9611";
}

node saatid
{
    label = "Sowing time";
    position = (480 381);
    states = ("<26/3" "26/3-10/4" "10/4-20/4" ">20/4");
}

node jordtype
{
    label = "Soil type";
    position = (7 537);
    states = ("1" "2" "3" "4" "5" "6" "7" "8" "9");
}

node weed
{
    label = "Weed  - dry weight";
    position = (452 0);
    states = ("0-2.5" "2.5-5.0" "5-10" "10-20" "20-50" "50-100" "100-150" ">150");
}

node blindh
{
    label = "Pre emerg. harrow";
    position = (230 327);
    states = ("No" "Yes");
}

node almh
{
    label = "Post emerg. weed harrow";
    position = (235 249);
    states = ("No" "Yes");
}

node selh
{
    label = "Selective harrow";
    position = (233 181);
    states = ("No" "Yes 1 time");
}

node rkafst
{
    label = "Row distance";
    position = (3 142);
    states = ("app 12" "app 20");
}

node iweed2
{
    label = "Weed index";
    position = (490 280);
    states = ("<1" "1-4" "5-9" "9-16" "16-25" "25-36" "36-49" "49-64" "64-81" "81-100" ">100");
}

node nplac
{
    label = "Placement of N";
    position = (0 77);
    states = ("Top dressed" "Invorked" "Placed");
}

node blindsum
{
    label = "Day-degrees to pre emerg. harrow";
    position = (232 402);
    states = ("<70" "70-80" "80-90" "90-100" "100-110" "110-120" "120-130" "130-140" "140-150" "150-160" "160-170" ">170");
}

node saadybde
{
    label = "Depth of sowing";
    position = (478 440);
    states = ("<2.5" "2.5-3.5" "3.5-4.5" "4.5-5.5" ">5.5");
}

node frspsum
{
    label = "Day-degrees to 50 % emerg.";
    position = (227 468);
    states = ("<70" "70-80" "80-90" "90-100" "100-110" "110-120" "120-130" "130-140" "140-150" "150-160" "160-170" ">170");
}

node akorsbl1
{
    label = "Galeopsis or crusiferae";
    position = (5 470);
    states = ("<5/m2" ">5/m2");
}

node mm25cm
{
    label = "Field capacity to 25 cm";
    position = (477 499);
    states = ("4.5-5.5" "5.5-6.5" "6.5-7.5" "7.5-8.5" "8.5-9.5" "9.5-10.5" "10.5-11.5");
}

node udbr
{
    label = "Yield reduction";
    position = (150 0);
    states = ("<0" "0-1 %" "1-3 %" "3-5 %" "5-8 %" "8-12 %" "12-20 %" "20-35 %" ">35 %");
}

potential (saatid)
{
 data = ( 1 1 1 1 );
}

potential (jordtype)
{
 data = ( 1 1 1 1 1 1 1 1 1 );
}

potential (weed | blindh almh selh rkafst iweed2 saatid nplac)
{
 data = (((((((( 1 0.0001 0.0001 0.0001 0.0001 0.0001 0.0001 0.0001 )	%  No  No  No  app 12  <1  <26/3  Top dressed
	       ( 1 0.0001 0.0001 0.0001 0.0001 0.0001 0.0001 0.0001 )	%  No  No  No  app 12  <1  <26/3  Invorked
	       ( 1 0.0001 0.0001 0.0001 0.0001 0.0001 0.0001 0.0001 ))	%  No  No  No  app 12  <1  <26/3  Placed
	      (( 1 0.0001 0.0001 0.0001 0.0001 0.0001 0.0001 0.0001 )	%  No  No  No  app 12  <1  26/3-10/4  Top dressed
	       ( 1 0.0001 0.0001 0.0001 0.0001 0.0001 0.0001 0.0001 )	%  No  No  No  app 12  <1  26/3-10/4  Invorked
	       ( 1 0.0001 0.0001 0.0001 0.0001 0.0001 0.0001 0.0001 ))	%  No  No  No  app 12  <1  26/3-10/4  Placed
	      (( 0.8721 0.1277 0.0002 0.0001 0.0001 0.0001 0.0001 0.0001 )	%  No  No  No  app 12  <1  10/4-20/4  Top dressed
	       ( 0.8721 0.1277 0.0002 0.0001 0.0001 0.0001 0.0001 0.0001 )	%  No  No  No  app 12  <1  10/4-20/4  Invorked
	       ( 0.9999 0.0001 0.0001 0.0001 0.0001 0.0001 0.0001 0.0001 ))	%  No  No  No  app 12  <1  10/4-20/4  Placed
	      (( 0.4009 0.3672 0.2285 0.0035 0.0001 0.0001 0.0001 0.0001 )	%  No  No  No  app 12  <1  >20/4  Top dressed
	       ( 0.4009 0.3672 0.2285 0.0035 0.0001 0.0001 0.0001 0.0001 )	%  No  No  No  app 12  <1  >20/4  Invorked
	       ( 0.8045 0.1939 0.0016 0.0001 0.0001 0.0001 0.0001 0.0001 )))	%  No  No  No  app 12  <1  >20/4  Placed
	     ((( 0.9996 0.0004 0.0001 0.0001 0.0001 0.0001 0.0001 0.0001 )	%  No  No  No  app 12  1-4  <26/3  Top dressed
	       ( 0.9996 0.0004 0.0001 0.0001 0.0001 0.0001 0.0001 0.0001 )	%  No  No  No  app 12  1-4  <26/3  Invorked
	       ( 1 0.0001 0.0001 0.0001 0.0001 0.0001 0.0001 0.0001 ))	%  No  No  No  app 12  1-4  <26/3  Placed
	      (( 0.4468 0.3864 0.166 0.0008 0.0001 0.0001 0.0001 0.0001 )	%  No  No  No  app 12  1-4  26/3-10/4  Top dressed
	       ( 0.4468 0.3864 0.166 0.0008 0.0001 0.0001 0.0001 0.0001 )	%  No  No  No  app 12  1-4  26/3-10/4  Invorked
	       ( 0.866 0.1337 0.0003 0.0001 0.0001 0.0001 0.0001 0.0001 ))	%  No  No  No  app 12  1-4  26/3-10/4  Placed
	      (( 0.1657 0.0738 0.1887 0.3804 0.1913 0.0001 0.0001 0.0001 )	%  No  No  No  app 12  1-4  10/4-20/4  Top dressed
	       ( 0.1657 0.0738 0.1887 0.3804 0.1913 0.0001 0.0001 0.0001 )	%  No  No  No  app 12  1-4  10/4-20/4  Invorked
	       ( 0.2501 0.2047 0.3883 0.1563 0.0006 0.0001 0.0001 0.0001 ))	%  No  No  No  app 12  1-4  10/4-20/4  Placed
	      (( 0.1302 0.0246 0.0578 0.1467 0.4699 0.17 0.0009 0.0001 )	%  No  No  No  app 12  1-4  >20/4  Top dressed
	       ( 0.1302 0.0246 0.0578 0.1467 0.4699 0.17 0.0009 0.0001 )	%  No  No  No  app 12  1-4  >20/4  Invorked
	       ( 0.1582 0.0626 0.1596 0.3538 0.2655 0.0003 0.0001 0.0001 )))	%  No  No  No  app 12  1-4  >20/4  Placed
	     ((( 0.6633 0.3178 0.0189 0.0001 0.0001 0.0001 0.0001 0.0001 )	%  No  No  No  app 12  5-9  <26/3  Top dressed
	       ( 0.6633 0.3178 0.0189 0.0001 0.0001 0.0001 0.0001 0.0001 )	%  No  No  No  app 12  5-9  <26/3  Invorked
	       ( 0.989 0.011 0.0001 0.0001 0.0001 0.0001 0.0001 0.0001 ))	%  No  No  No  app 12  5-9  <26/3  Placed
	      (( 0.2009 0.1283 0.3078 0.3365 0.0264 0.0001 0.0001 0.0001 )	%  No  No  No  app 12  5-9  26/3-10/4  Top dressed
	       ( 0.2009 0.1283 0.3078 0.3365 0.0264 0.0001 0.0001 0.0001 )	%  No  No  No  app 12  5-9  26/3-10/4  Invorked
	       ( 0.3478 0.3265 0.3094 0.0162 0.0001 0.0001 0.0001 0.0001 ))	%  No  No  No  app 12  5-9  26/3-10/4  Placed
	      (( 0.1272 0.0208 0.0482 0.1209 0.429 0.2487 0.0052 0.0001 )	%  No  No  No  app 12  5-9  10/4-20/4  Top dressed
	       ( 0.1272 0.0208 0.0482 0.1209 0.429 0.2487 0.0052 0.0001 )	%  No  No  No  app 12  5-9  10/4-20/4  Invorked
	       ( 0.1509 0.0521 0.1315 0.3134 0.3495 0.0025 0.0001 0.0001 ))	%  No  No  No  app 12  5-9  10/4-20/4  Placed
	      (( 0.116 0.0079 0.0168 0.0381 0.1483 0.3055 0.2372 0.1301 )	%  No  No  No  app 12  5-9  >20/4  Top dressed
	       ( 0.116 0.0079 0.0168 0.0381 0.1483 0.3055 0.2372 0.1301 )	%  No  No  No  app 12  5-9  >20/4  Invorked
	       ( 0.1249 0.0181 0.0412 0.1019 0.3838 0.3129 0.0172 0.0001 )))	%  No  No  No  app 12  5-9  >20/4  Placed
	     ((( 0.3484 0.3271 0.3085 0.016 0.0001 0.0001 0.0001 0.0001 )	%  No  No  No  app 12  9-16  <26/3  Top dressed
	       ( 0.3484 0.3271 0.3085 0.016 0.0001 0.0001 0.0001 0.0001 )	%  No  No  No  app 12  9-16  <26/3  Invorked
	       ( 0.7133 0.2776 0.0091 0.0001 0.0001 0.0001 0.0001 0.0001 ))	%  No  No  No  app 12  9-16  <26/3  Placed
	      (( 0.1509 0.0523 0.1319 0.314 0.3484 0.0025 0.0001 0.0001 )	%  No  No  No  app 12  9-16  26/3-10/4  Top dressed
	       ( 0.1509 0.0523 0.1319 0.314 0.3484 0.0025 0.0001 0.0001 )	%  No  No  No  app 12  9-16  26/3-10/4  Invorked
	       ( 0.2106 0.1436 0.3325 0.2997 0.0137 0.0001 0.0001 0.0001 ))	%  No  No  No  app 12  9-16  26/3-10/4  Placed
	      (( 0.1178 0.0098 0.0213 0.0494 0.1964 0.3635 0.1941 0.0476 )	%  No  No  No  app 12  9-16  10/4-20/4  Top dressed
	       ( 0.1178 0.0098 0.0213 0.0494 0.1964 0.3635 0.1941 0.0476 )	%  No  No  No  app 12  9-16  10/4-20/4  Invorked
	       ( 0.1289 0.0229 0.0535 0.1352 0.4546 0.2029 0.002 0.0001 ))	%  No  No  No  app 12  9-16  10/4-20/4  Placed
	      (( 0.1123 0.0039 0.008 0.0172 0.061 0.1306 0.1549 0.5121 )	%  No  No  No  app 12  9-16  >20/4  Top dressed
	       ( 0.1123 0.0039 0.008 0.0172 0.061 0.1306 0.1549 0.5121 )	%  No  No  No  app 12  9-16  >20/4  Invorked
	       ( 0.1167 0.0086 0.0185 0.0422 0.1658 0.3303 0.2258 0.0922 )))	%  No  No  No  app 12  9-16  >20/4  Placed
	     ((( 0.2347 0.1812 0.3751 0.2068 0.0022 0.0001 0.0001 0.0001 )	%  No  No  No  app 12  16-25  <26/3  Top dressed
	       ( 0.2347 0.1812 0.3751 0.2068 0.0022 0.0001 0.0001 0.0001 )	%  No  No  No  app 12  16-25  <26/3  Invorked
	       ( 0.4415 0.385 0.1726 0.0009 0.0001 0.0001 0.0001 0.0001 ))	%  No  No  No  app 12  16-25  <26/3  Placed
	      (( 0.133 0.0281 0.0669 0.1709 0.4882 0.1127 0.0001 0.0001 )	%  No  No  No  app 12  16-25  26/3-10/4  Top dressed
	       ( 0.133 0.0281 0.0669 0.1709 0.4882 0.1127 0.0001 0.0001 )	%  No  No  No  app 12  16-25  26/3-10/4  Invorked
	       ( 0.1649 0.0726 0.1857 0.3784 0.1983 0.0001 0.0001 0.0001 ))	%  No  No  No  app 12  16-25  26/3-10/4  Placed
	      (( 0.114 0.0057 0.0121 0.0267 0.0996 0.2165 0.2245 0.3009 )	%  No  No  No  app 12  16-25  10/4-20/4  Top dressed
	       ( 0.114 0.0057 0.0121 0.0267 0.0996 0.2165 0.2245 0.3009 )	%  No  No  No  app 12  16-25  10/4-20/4  Invorked
	       ( 0.1205 0.013 0.0287 0.0686 0.2736 0.3912 0.0983 0.0062 ))	%  No  No  No  app 12  16-25  10/4-20/4  Placed
	      (( 0.1108 0.0023 0.0047 0.0099 0.033 0.0663 0.0794 0.6936 )	%  No  No  No  app 12  16-25  >20/4  Top dressed
	       ( 0.1108 0.0023 0.0047 0.0099 0.033 0.0663 0.0794 0.6936 )	%  No  No  No  app 12  16-25  >20/4  Invorked
	       ( 0.1134 0.005 0.0106 0.023 0.0844 0.1838 0.2035 0.3762 )))	%  No  No  No  app 12  16-25  >20/4  Placed
	     ((( 0.1861 0.105 0.2623 0.3802 0.0665 0.0001 0.0001 0.0001 )	%  No  No  No  app 12  25-36  <26/3  Top dressed
	       ( 0.1861 0.105 0.2623 0.3802 0.0665 0.0001 0.0001 0.0001 )	%  No  No  No  app 12  25-36  <26/3  Invorked
	       ( 0.3062 0.2814 0.3657 0.0467 0.0001 0.0001 0.0001 0.0001 ))	%  No  No  No  app 12  25-36  <26/3  Placed
	      (( 0.1245 0.0176 0.0401 0.0989 0.3754 0.3228 0.0205 0.0001 )	%  No  No  No  app 12  25-36  26/3-10/4  Top dressed
	       ( 0.1245 0.0176 0.0401 0.0989 0.3754 0.3228 0.0205 0.0001 )	%  No  No  No  app 12  25-36  26/3-10/4  Invorked
	       ( 0.1445 0.0433 0.1076 0.2678 0.4245 0.0122 0.0001 0.0001 ))	%  No  No  No  app 12  25-36  26/3-10/4  Placed
	      (( 0.1122 0.0038 0.0078 0.0168 0.0591 0.1264 0.1504 0.5235 )	%  No  No  No  app 12  25-36  10/4-20/4  Top dressed
	       ( 0.1122 0.0038 0.0078 0.0168 0.0591 0.1264 0.1504 0.5235 )	%  No  No  No  app 12  25-36  10/4-20/4  Invorked
	       ( 0.1165 0.0084 0.018 0.041 0.1605 0.3232 0.2299 0.1026 ))	%  No  No  No  app 12  25-36  10/4-20/4  Placed
	      (( 0.11 0.0015 0.0031 0.0064 0.0208 0.0397 0.046 0.7724 )	%  No  No  No  app 12  25-36  >20/4  Top dressed
	       ( 0.11 0.0015 0.0031 0.0064 0.0208 0.0397 0.046 0.7724 )	%  No  No  No  app 12  25-36  >20/4  Invorked
	       ( 0.1117 0.0033 0.0069 0.0146 0.0506 0.1065 0.1283 0.5781 )))	%  No  No  No  app 12  25-36  >20/4  Placed
	     ((( 0.1612 0.0671 0.1712 0.3664 0.234 0.0001 0.0001 0.0001 )	%  No  No  No  app 12  36-49  <26/3  Top dressed
	       ( 0.1612 0.0671 0.1712 0.3664 0.234 0.0001 0.0001 0.0001 )	%  No  No  No  app 12  36-49  <26/3  Invorked
	       ( 0.2378 0.186 0.3786 0.1959 0.0017 0.0001 0.0001 0.0001 ))	%  No  No  No  app 12  36-49  <26/3  Placed
	      (( 0.1198 0.0121 0.0267 0.0633 0.2533 0.3913 0.1222 0.0112 )	%  No  No  No  app 12  36-49  26/3-10/4  Top dressed
	       ( 0.1198 0.0121 0.0267 0.0633 0.2533 0.3913 0.1222 0.0112 )	%  No  No  No  app 12  36-49  26/3-10/4  Invorked
	       ( 0.1335 0.0288 0.0687 0.1755 0.4897 0.1037 0.0001 0.0001 ))	%  No  No  No  app 12  36-49  26/3-10/4  Placed
	      (( 0.1111 0.0027 0.0055 0.0116 0.0392 0.0803 0.0969 0.6528 )	%  No  No  No  app 12  36-49  10/4-20/4  Top dressed
	       ( 0.1111 0.0027 0.0055 0.0116 0.0392 0.0803 0.0969 0.6528 )	%  No  No  No  app 12  36-49  10/4-20/4  Invorked
	       ( 0.1142 0.0059 0.0124 0.0273 0.1022 0.2219 0.2272 0.289 ))	%  No  No  No  app 12  36-49  10/4-20/4  Placed
	      (( 0.1096 0.0011 0.0022 0.0045 0.0143 0.0265 0.0297 0.812 )	%  No  No  No  app 12  36-49  >20/4  Top dressed
	       ( 0.1096 0.0011 0.0022 0.0045 0.0143 0.0265 0.0297 0.812 )	%  No  No  No  app 12  36-49  >20/4  Invorked
	       ( 0.1108 0.0024 0.0048 0.0101 0.0338 0.068 0.0816 0.6885 )))	%  No  No  No  app 12  36-49  >20/4  Placed
	     ((( 0.1467 0.0464 0.116 0.2848 0.3989 0.0072 0.0001 0.0001 )	%  No  No  No  app 12  49-64  <26/3  Top dressed
	       ( 0.1467 0.0464 0.116 0.2848 0.3989 0.0072 0.0001 0.0001 )	%  No  No  No  app 12  49-64  <26/3  Invorked
	       ( 0.1996 0.1262 0.3041 0.3413 0.0289 0.0001 0.0001 0.0001 ))	%  No  No  No  app 12  49-64  <26/3  Placed
	      (( 0.1169 0.0089 0.0191 0.0439 0.1729 0.3391 0.2195 0.0796 )	%  No  No  No  app 12  49-64  26/3-10/4  Top dressed
	       ( 0.1169 0.0089 0.0191 0.0439 0.1729 0.3391 0.2195 0.0796 )	%  No  No  No  app 12  49-64  26/3-10/4  Invorked
	       ( 0.127 0.0205 0.0474 0.1189 0.4248 0.2554 0.006 0.0001 ))	%  No  No  No  app 12  49-64  26/3-10/4  Placed
	      (( 0.1105 0.002 0.0041 0.0085 0.0279 0.0551 0.0654 0.7265 )	%  No  No  No  app 12  49-64  10/4-20/4  Top dressed
	       ( 0.1105 0.002 0.0041 0.0085 0.0279 0.0551 0.0654 0.7265 )	%  No  No  No  app 12  49-64  10/4-20/4  Invorked
	       ( 0.1127 0.0043 0.0091 0.0195 0.0702 0.1519 0.1763 0.4559 ))	%  No  No  No  app 12  49-64  10/4-20/4  Placed
	      (( 0.1093 0.0008 0.0017 0.0034 0.0105 0.019 0.0208 0.8346 )	%  No  No  No  app 12  49-64  >20/4  Top dressed
	       ( 0.1093 0.0008 0.0017 0.0034 0.0105 0.019 0.0208 0.8346 )	%  No  No  No  app 12  49-64  >20/4  Invorked
	       ( 0.1102 0.0018 0.0036 0.0074 0.0242 0.047 0.0552 0.7507 )))	%  No  No  No  app 12  49-64  >20/4  Placed
	     ((( 0.1376 0.034 0.0826 0.2106 0.4838 0.0515 0.0001 0.0001 )	%  No  No  No  app 12  64-81  <26/3  Top dressed
	       ( 0.1376 0.034 0.0826 0.2106 0.4838 0.0515 0.0001 0.0001 )	%  No  No  No  app 12  64-81  <26/3  Invorked
	       ( 0.1762 0.0898 0.2279 0.3918 0.1143 0.0001 0.0001 0.0001 ))	%  No  No  No  app 12  64-81  <26/3  Placed
	      (( 0.115 0.0068 0.0144 0.0322 0.1231 0.2628 0.2402 0.2054 )	%  No  No  No  app 12  64-81  26/3-10/4  Top dressed
	       ( 0.115 0.0068 0.0144 0.0322 0.1231 0.2628 0.2402 0.2054 )	%  No  No  No  app 12  64-81  26/3-10/4  Invorked
	       ( 0.1227 0.0155 0.0347 0.0846 0.3312 0.3651 0.0453 0.0008 ))	%  No  No  No  app 12  64-81  26/3-10/4  Placed
	      (( 0.11 0.0016 0.0031 0.0065 0.021 0.0402 0.0466 0.7711 )	%  No  No  No  app 12  64-81  10/4-20/4  Top dressed
	       ( 0.11 0.0016 0.0031 0.0065 0.021 0.0402 0.0466 0.7711 )	%  No  No  No  app 12  64-81  10/4-20/4  Invorked
	       ( 0.1118 0.0034 0.0069 0.0147 0.0512 0.1079 0.1299 0.5743 ))	%  No  No  No  app 12  64-81  10/4-20/4  Placed
	      (( 0.1091 0.0006 0.0013 0.0026 0.0081 0.0143 0.0154 0.8486 )	%  No  No  No  app 12  64-81  >20/4  Top dressed
	       ( 0.1091 0.0006 0.0013 0.0026 0.0081 0.0143 0.0154 0.8486 )	%  No  No  No  app 12  64-81  >20/4  Invorked
	       ( 0.1098 0.0014 0.0028 0.0057 0.0182 0.0344 0.0395 0.7882 )))	%  No  No  No  app 12  64-81  >20/4  Placed
	     ((( 0.1314 0.026 0.0615 0.1567 0.4796 0.1444 0.0004 0.0001 )	%  No  No  No  app 12  81-100  <26/3  Top dressed
	       ( 0.1314 0.026 0.0615 0.1567 0.4796 0.1444 0.0004 0.0001 )	%  No  No  No  app 12  81-100  <26/3  Invorked
	       ( 0.161 0.0667 0.1703 0.3655 0.2364 0.0001 0.0001 0.0001 ))	%  No  No  No  app 12  81-100  <26/3  Placed
	      (( 0.1137 0.0054 0.0113 0.0247 0.0914 0.1991 0.2143 0.3401 )	%  No  No  No  app 12  81-100  26/3-10/4  Top dressed
	       ( 0.1137 0.0054 0.0113 0.0247 0.0914 0.1991 0.2143 0.3401 )	%  No  No  No  app 12  81-100  26/3-10/4  Invorked
	       ( 0.1198 0.0121 0.0266 0.063 0.252 0.3912 0.1238 0.0116 ))	%  No  No  No  app 12  81-100  26/3-10/4  Placed
	      (( 0.1097 0.0012 0.0025 0.0051 0.0164 0.0306 0.0348 0.7997 )	%  No  No  No  app 12  81-100  10/4-20/4  Top dressed
	       ( 0.1097 0.0012 0.0025 0.0051 0.0164 0.0306 0.0348 0.7997 )	%  No  No  No  app 12  81-100  10/4-20/4  Invorked
	       ( 0.1111 0.0027 0.0055 0.0115 0.039 0.0799 0.0964 0.654 ))	%  No  No  No  app 12  81-100  10/4-20/4  Placed
	      (( 0.109 0.0005 0.001 0.0021 0.0064 0.0112 0.0119 0.8579 )	%  No  No  No  app 12  81-100  >20/4  Top dressed
	       ( 0.109 0.0005 0.001 0.0021 0.0064 0.0112 0.0119 0.8579 )	%  No  No  No  app 12  81-100  >20/4  Invorked
	       ( 0.1096 0.0011 0.0022 0.0045 0.0143 0.0264 0.0296 0.8124 )))	%  No  No  No  app 12  81-100  >20/4  Placed
	     ((( 0.1184 0.0106 0.0231 0.0539 0.215 0.3774 0.171 0.0307 )	%  No  No  No  app 12  >100  <26/3  Top dressed
	       ( 0.1184 0.0106 0.0231 0.0539 0.215 0.3774 0.171 0.0307 )	%  No  No  No  app 12  >100  <26/3  Invorked
	       ( 0.1304 0.0248 0.0584 0.1482 0.4716 0.1659 0.0008 0.0001 ))	%  No  No  No  app 12  >100  <26/3  Placed
	      (( 0.1108 0.0024 0.0048 0.0101 0.0338 0.068 0.0816 0.6885 )	%  No  No  No  app 12  >100  26/3-10/4  Top dressed
	       ( 0.1108 0.0024 0.0048 0.0101 0.0338 0.068 0.0816 0.6885 )	%  No  No  No  app 12  >100  26/3-10/4  Invorked
	       ( 0.1135 0.0051 0.0108 0.0236 0.0866 0.1887 0.2071 0.3645 ))	%  No  No  No  app 12  >100  26/3-10/4  Placed
	      (( 0.109 0.0006 0.0011 0.0023 0.007 0.0123 0.0131 0.8547 )	%  No  No  No  app 12  >100  10/4-20/4  Top dressed
	       ( 0.109 0.0006 0.0011 0.0023 0.007 0.0123 0.0131 0.8547 )	%  No  No  No  app 12  >100  10/4-20/4  Invorked
	       ( 0.1097 0.0012 0.0024 0.0049 0.0157 0.0291 0.033 0.8041 ))	%  No  No  No  app 12  >100  10/4-20/4  Placed
	      (( 0.1087 0.0002 0.0005 0.0009 0.0028 0.0048 0.0049 0.8771 )	%  No  No  No  app 12  >100  >20/4  Top dressed
	       ( 0.1087 0.0002 0.0005 0.0009 0.0028 0.0048 0.0049 0.8771 )	%  No  No  No  app 12  >100  >20/4  Invorked
	       ( 0.109 0.0005 0.001 0.002 0.0061 0.0107 0.0113 0.8594 ))))	%  No  No  No  app 12  >100  >20/4  Placed
	    (((( 1 0.0001 0.0001 0.0001 0.0001 0.0001 0.0001 0.0001 )	%  No  No  No  app 20  <1  <26/3  Top dressed
	       ( 1 0.0001 0.0001 0.0001 0.0001 0.0001 0.0001 0.0001 )	%  No  No  No  app 20  <1  <26/3  Invorked
	       ( 1 0.0001 0.0001 0.0001 0.0001 0.0001 0.0001 0.0001 ))	%  No  No  No  app 20  <1  <26/3  Placed
	      (( 1 0.0001 0.0001 0.0001 0.0001 0.0001 0.0001 0.0001 )	%  No  No  No  app 20  <1  26/3-10/4  Top dressed
	       ( 1 0.0001 0.0001 0.0001 0.0001 0.0001 0.0001 0.0001 )	%  No  No  No  app 20  <1  26/3-10/4  Invorked
	       ( 1 0.0001 0.0001 0.0001 0.0001 0.0001 0.0001 0.0001 ))	%  No  No  No  app 20  <1  26/3-10/4  Placed
	      (( 0.8721 0.1277 0.0002 0.0001 0.0001 0.0001 0.0001 0.0001 )	%  No  No  No  app 20  <1  10/4-20/4  Top dressed
	       ( 0.8721 0.1277 0.0002 0.0001 0.0001 0.0001 0.0001 0.0001 )	%  No  No  No  app 20  <1  10/4-20/4  Invorked
	       ( 0.9999 0.0001 0.0001 0.0001 0.0001 0.0001 0.0001 0.0001 ))	%  No  No  No  app 20  <1  10/4-20/4  Placed
	      (( 0.4009 0.3672 0.2285 0.0035 0.0001 0.0001 0.0001 0.0001 )	%  No  No  No  app 20  <1  >20/4  Top dressed
	       ( 0.4009 0.3672 0.2285 0.0035 0.0001 0.0001 0.0001 0.0001 )	%  No  No  No  app 20  <1  >20/4  Invorked
	       ( 0.8045 0.1939 0.0016 0.0001 0.0001 0.0001 0.0001 0.0001 )))	%  No  No  No  app 20  <1  >20/4  Placed
	     ((( 0.9996 0.0004 0.0001 0.0001 0.0001 0.0001 0.0001 0.0001 )	%  No  No  No  app 20  1-4  <26/3  Top dressed
	       ( 0.9996 0.0004 0.0001 0.0001 0.0001 0.0001 0.0001 0.0001 )	%  No  No  No  app 20  1-4  <26/3  Invorked
	       ( 1 0.0001 0.0001 0.0001 0.0001 0.0001 0.0001 0.0001 ))	%  No  No  No  app 20  1-4  <26/3  Placed
	      (( 0.4468 0.3864 0.166 0.0008 0.0001 0.0001 0.0001 0.0001 )	%  No  No  No  app 20  1-4  26/3-10/4  Top dressed
	       ( 0.4468 0.3864 0.166 0.0008 0.0001 0.0001 0.0001 0.0001 )	%  No  No  No  app 20  1-4  26/3-10/4  Invorked
	       ( 0.866 0.1337 0.0003 0.0001 0.0001 0.0001 0.0001 0.0001 ))	%  No  No  No  app 20  1-4  26/3-10/4  Placed
	      (( 0.1657 0.0738 0.1887 0.3804 0.1913 0.0001 0.0001 0.0001 )	%  No  No  No  app 20  1-4  10/4-20/4  Top dressed
	       ( 0.1657 0.0738 0.1887 0.3804 0.1913 0.0001 0.0001 0.0001 )	%  No  No  No  app 20  1-4  10/4-20/4  Invorked
	       ( 0.2501 0.2047 0.3883 0.1563 0.0006 0.0001 0.0001 0.0001 ))	%  No  No  No  app 20  1-4  10/4-20/4  Placed
	      (( 0.1302 0.0246 0.0578 0.1467 0.4699 0.17 0.0009 0.0001 )	%  No  No  No  app 20  1-4  >20/4  Top dressed
	       ( 0.1302 0.0246 0.0578 0.1467 0.4699 0.17 0.0009 0.0001 )	%  No  No  No  app 20  1-4  >20/4  Invorked
	       ( 0.1582 0.0626 0.1596 0.3538 0.2655 0.0003 0.0001 0.0001 )))	%  No  No  No  app 20  1-4  >20/4  Placed
	     ((( 0.6633 0.3178 0.0189 0.0001 0.0001 0.0001 0.0001 0.0001 )	%  No  No  No  app 20  5-9  <26/3  Top dressed
	       ( 0.6633 0.3178 0.0189 0.0001 0.0001 0.0001 0.0001 0.0001 )	%  No  No  No  app 20  5-9  <26/3  Invorked
	       ( 0.989 0.011 0.0001 0.0001 0.0001 0.0001 0.0001 0.0001 ))	%  No  No  No  app 20  5-9  <26/3  Placed
	      (( 0.2009 0.1283 0.3078 0.3365 0.0264 0.0001 0.0001 0.0001 )	%  No  No  No  app 20  5-9  26/3-10/4  Top dressed
	       ( 0.2009 0.1283 0.3078 0.3365 0.0264 0.0001 0.0001 0.0001 )	%  No  No  No  app 20  5-9  26/3-10/4  Invorked
	       ( 0.3478 0.3265 0.3094 0.0162 0.0001 0.0001 0.0001 0.0001 ))	%  No  No  No  app 20  5-9  26/3-10/4  Placed
	      (( 0.1272 0.0208 0.0482 0.1209 0.429 0.2487 0.0052 0.0001 )	%  No  No  No  app 20  5-9  10/4-20/4  Top dressed
	       ( 0.1272 0.0208 0.0482 0.1209 0.429 0.2487 0.0052 0.0001 )	%  No  No  No  app 20  5-9  10/4-20/4  Invorked
	       ( 0.1509 0.0521 0.1315 0.3134 0.3495 0.0025 0.0001 0.0001 ))	%  No  No  No  app 20  5-9  10/4-20/4  Placed
	      (( 0.116 0.0079 0.0168 0.0381 0.1483 0.3055 0.2372 0.1301 )	%  No  No  No  app 20  5-9  >20/4  Top dressed
	       ( 0.116 0.0079 0.0168 0.0381 0.1483 0.3055 0.2372 0.1301 )	%  No  No  No  app 20  5-9  >20/4  Invorked
	       ( 0.1249 0.0181 0.0412 0.1019 0.3838 0.3129 0.0172 0.0001 )))	%  No  No  No  app 20  5-9  >20/4  Placed
	     ((( 0.3484 0.3271 0.3085 0.016 0.0001 0.0001 0.0001 0.0001 )	%  No  No  No  app 20  9-16  <26/3  Top dressed
	       ( 0.3484 0.3271 0.3085 0.016 0.0001 0.0001 0.0001 0.0001 )	%  No  No  No  app 20  9-16  <26/3  Invorked
	       ( 0.7133 0.2776 0.0091 0.0001 0.0001 0.0001 0.0001 0.0001 ))	%  No  No  No  app 20  9-16  <26/3  Placed
	      (( 0.1509 0.0523 0.1319 0.314 0.3484 0.0025 0.0001 0.0001 )	%  No  No  No  app 20  9-16  26/3-10/4  Top dressed
	       ( 0.1509 0.0523 0.1319 0.314 0.3484 0.0025 0.0001 0.0001 )	%  No  No  No  app 20  9-16  26/3-10/4  Invorked
	       ( 0.2106 0.1436 0.3325 0.2997 0.0137 0.0001 0.0001 0.0001 ))	%  No  No  No  app 20  9-16  26/3-10/4  Placed
	      (( 0.1178 0.0098 0.0213 0.0494 0.1964 0.3635 0.1941 0.0476 )	%  No  No  No  app 20  9-16  10/4-20/4  Top dressed
	       ( 0.1178 0.0098 0.0213 0.0494 0.1964 0.3635 0.1941 0.0476 )	%  No  No  No  app 20  9-16  10/4-20/4  Invorked
	       ( 0.1289 0.0229 0.0535 0.1352 0.4546 0.2029 0.002 0.0001 ))	%  No  No  No  app 20  9-16  10/4-20/4  Placed
	      (( 0.1123 0.0039 0.008 0.0172 0.061 0.1306 0.1549 0.5121 )	%  No  No  No  app 20  9-16  >20/4  Top dressed
	       ( 0.1123 0.0039 0.008 0.0172 0.061 0.1306 0.1549 0.5121 )	%  No  No  No  app 20  9-16  >20/4  Invorked
	       ( 0.1167 0.0086 0.0185 0.0422 0.1658 0.3303 0.2258 0.0922 )))	%  No  No  No  app 20  9-16  >20/4  Placed
	     ((( 0.2347 0.1812 0.3751 0.2068 0.0022 0.0001 0.0001 0.0001 )	%  No  No  No  app 20  16-25  <26/3  Top dressed
	       ( 0.2347 0.1812 0.3751 0.2068 0.0022 0.0001 0.0001 0.0001 )	%  No  No  No  app 20  16-25  <26/3  Invorked
	       ( 0.4415 0.385 0.1726 0.0009 0.0001 0.0001 0.0001 0.0001 ))	%  No  No  No  app 20  16-25  <26/3  Placed
	      (( 0.133 0.0281 0.0669 0.1709 0.4882 0.1127 0.0001 0.0001 )	%  No  No  No  app 20  16-25  26/3-10/4  Top dressed
	       ( 0.133 0.0281 0.0669 0.1709 0.4882 0.1127 0.0001 0.0001 )	%  No  No  No  app 20  16-25  26/3-10/4  Invorked
	       ( 0.1649 0.0726 0.1857 0.3784 0.1983 0.0001 0.0001 0.0001 ))	%  No  No  No  app 20  16-25  26/3-10/4  Placed
	      (( 0.114 0.0057 0.0121 0.0267 0.0996 0.2165 0.2245 0.3009 )	%  No  No  No  app 20  16-25  10/4-20/4  Top dressed
	       ( 0.114 0.0057 0.0121 0.0267 0.0996 0.2165 0.2245 0.3009 )	%  No  No  No  app 20  16-25  10/4-20/4  Invorked
	       ( 0.1205 0.013 0.0287 0.0686 0.2736 0.3912 0.0983 0.0062 ))	%  No  No  No  app 20  16-25  10/4-20/4  Placed
	      (( 0.1108 0.0023 0.0047 0.0099 0.033 0.0663 0.0794 0.6936 )	%  No  No  No  app 20  16-25  >20/4  Top dressed
	       ( 0.1108 0.0023 0.0047 0.0099 0.033 0.0663 0.0794 0.6936 )	%  No  No  No  app 20  16-25  >20/4  Invorked
	       ( 0.1134 0.005 0.0106 0.023 0.0844 0.1838 0.2035 0.3762 )))	%  No  No  No  app 20  16-25  >20/4  Placed
	     ((( 0.1861 0.105 0.2623 0.3802 0.0665 0.0001 0.0001 0.0001 )	%  No  No  No  app 20  25-36  <26/3  Top dressed
	       ( 0.1861 0.105 0.2623 0.3802 0.0665 0.0001 0.0001 0.0001 )	%  No  No  No  app 20  25-36  <26/3  Invorked
	       ( 0.3062 0.2814 0.3657 0.0467 0.0001 0.0001 0.0001 0.0001 ))	%  No  No  No  app 20  25-36  <26/3  Placed
	      (( 0.1245 0.0176 0.0401 0.0989 0.3754 0.3228 0.0205 0.0001 )	%  No  No  No  app 20  25-36  26/3-10/4  Top dressed
	       ( 0.1245 0.0176 0.0401 0.0989 0.3754 0.3228 0.0205 0.0001 )	%  No  No  No  app 20  25-36  26/3-10/4  Invorked
	       ( 0.1445 0.0433 0.1076 0.2678 0.4245 0.0122 0.0001 0.0001 ))	%  No  No  No  app 20  25-36  26/3-10/4  Placed
	      (( 0.1122 0.0038 0.0078 0.0168 0.0591 0.1264 0.1504 0.5235 )	%  No  No  No  app 20  25-36  10/4-20/4  Top dressed
	       ( 0.1122 0.0038 0.0078 0.0168 0.0591 0.1264 0.1504 0.5235 )	%  No  No  No  app 20  25-36  10/4-20/4  Invorked
	       ( 0.1165 0.0084 0.018 0.041 0.1605 0.3232 0.2299 0.1026 ))	%  No  No  No  app 20  25-36  10/4-20/4  Placed
	      (( 0.11 0.0015 0.0031 0.0064 0.0208 0.0397 0.046 0.7724 )	%  No  No  No  app 20  25-36  >20/4  Top dressed
	       ( 0.11 0.0015 0.0031 0.0064 0.0208 0.0397 0.046 0.7724 )	%  No  No  No  app 20  25-36  >20/4  Invorked
	       ( 0.1117 0.0033 0.0069 0.0146 0.0506 0.1065 0.1283 0.5781 )))	%  No  No  No  app 20  25-36  >20/4  Placed
	     ((( 0.1612 0.0671 0.1712 0.3664 0.234 0.0001 0.0001 0.0001 )	%  No  No  No  app 20  36-49  <26/3  Top dressed
	       ( 0.1612 0.0671 0.1712 0.3664 0.234 0.0001 0.0001 0.0001 )	%  No  No  No  app 20  36-49  <26/3  Invorked
	       ( 0.2378 0.186 0.3786 0.1959 0.0017 0.0001 0.0001 0.0001 ))	%  No  No  No  app 20  36-49  <26/3  Placed
	      (( 0.1198 0.0121 0.0267 0.0633 0.2533 0.3913 0.1222 0.0112 )	%  No  No  No  app 20  36-49  26/3-10/4  Top dressed
	       ( 0.1198 0.0121 0.0267 0.0633 0.2533 0.3913 0.1222 0.0112 )	%  No  No  No  app 20  36-49  26/3-10/4  Invorked
	       ( 0.1335 0.0288 0.0687 0.1755 0.4897 0.1037 0.0001 0.0001 ))	%  No  No  No  app 20  36-49  26/3-10/4  Placed
	      (( 0.1111 0.0027 0.0055 0.0116 0.0392 0.0803 0.0969 0.6528 )	%  No  No  No  app 20  36-49  10/4-20/4  Top dressed
	       ( 0.1111 0.0027 0.0055 0.0116 0.0392 0.0803 0.0969 0.6528 )	%  No  No  No  app 20  36-49  10/4-20/4  Invorked
	       ( 0.1142 0.0059 0.0124 0.0273 0.1022 0.2219 0.2272 0.289 ))	%  No  No  No  app 20  36-49  10/4-20/4  Placed
	      (( 0.1096 0.0011 0.0022 0.0045 0.0143 0.0265 0.0297 0.812 )	%  No  No  No  app 20  36-49  >20/4  Top dressed
	       ( 0.1096 0.0011 0.0022 0.0045 0.0143 0.0265 0.0297 0.812 )	%  No  No  No  app 20  36-49  >20/4  Invorked
	       ( 0.1108 0.0024 0.0048 0.0101 0.0338 0.068 0.0816 0.6885 )))	%  No  No  No  app 20  36-49  >20/4  Placed
	     ((( 0.1467 0.0464 0.116 0.2848 0.3989 0.0072 0.0001 0.0001 )	%  No  No  No  app 20  49-64  <26/3  Top dressed
	       ( 0.1467 0.0464 0.116 0.2848 0.3989 0.0072 0.0001 0.0001 )	%  No  No  No  app 20  49-64  <26/3  Invorked
	       ( 0.1996 0.1262 0.3041 0.3413 0.0289 0.0001 0.0001 0.0001 ))	%  No  No  No  app 20  49-64  <26/3  Placed
	      (( 0.1169 0.0089 0.0191 0.0439 0.1729 0.3391 0.2195 0.0796 )	%  No  No  No  app 20  49-64  26/3-10/4  Top dressed
	       ( 0.1169 0.0089 0.0191 0.0439 0.1729 0.3391 0.2195 0.0796 )	%  No  No  No  app 20  49-64  26/3-10/4  Invorked
	       ( 0.127 0.0205 0.0474 0.1189 0.4248 0.2554 0.006 0.0001 ))	%  No  No  No  app 20  49-64  26/3-10/4  Placed
	      (( 0.1105 0.002 0.0041 0.0085 0.0279 0.0551 0.0654 0.7265 )	%  No  No  No  app 20  49-64  10/4-20/4  Top dressed
	       ( 0.1105 0.002 0.0041 0.0085 0.0279 0.0551 0.0654 0.7265 )	%  No  No  No  app 20  49-64  10/4-20/4  Invorked
	       ( 0.1127 0.0043 0.0091 0.0195 0.0702 0.1519 0.1763 0.4559 ))	%  No  No  No  app 20  49-64  10/4-20/4  Placed
	      (( 0.1093 0.0008 0.0017 0.0034 0.0105 0.019 0.0208 0.8346 )	%  No  No  No  app 20  49-64  >20/4  Top dressed
	       ( 0.1093 0.0008 0.0017 0.0034 0.0105 0.019 0.0208 0.8346 )	%  No  No  No  app 20  49-64  >20/4  Invorked
	       ( 0.1102 0.0018 0.0036 0.0074 0.0242 0.047 0.0552 0.7507 )))	%  No  No  No  app 20  49-64  >20/4  Placed
	     ((( 0.1376 0.034 0.0826 0.2106 0.4838 0.0515 0.0001 0.0001 )	%  No  No  No  app 20  64-81  <26/3  Top dressed
	       ( 0.1376 0.034 0.0826 0.2106 0.4838 0.0515 0.0001 0.0001 )	%  No  No  No  app 20  64-81  <26/3  Invorked
	       ( 0.1762 0.0898 0.2279 0.3918 0.1143 0.0001 0.0001 0.0001 ))	%  No  No  No  app 20  64-81  <26/3  Placed
	      (( 0.115 0.0068 0.0144 0.0322 0.1231 0.2628 0.2402 0.2054 )	%  No  No  No  app 20  64-81  26/3-10/4  Top dressed
	       ( 0.115 0.0068 0.0144 0.0322 0.1231 0.2628 0.2402 0.2054 )	%  No  No  No  app 20  64-81  26/3-10/4  Invorked
	       ( 0.1227 0.0155 0.0347 0.0846 0.3312 0.3651 0.0453 0.0008 ))	%  No  No  No  app 20  64-81  26/3-10/4  Placed
	      (( 0.11 0.0016 0.0031 0.0065 0.021 0.0402 0.0466 0.7711 )	%  No  No  No  app 20  64-81  10/4-20/4  Top dressed
	       ( 0.11 0.0016 0.0031 0.0065 0.021 0.0402 0.0466 0.7711 )	%  No  No  No  app 20  64-81  10/4-20/4  Invorked
	       ( 0.1118 0.0034 0.0069 0.0147 0.0512 0.1079 0.1299 0.5743 ))	%  No  No  No  app 20  64-81  10/4-20/4  Placed
	      (( 0.1091 0.0006 0.0013 0.0026 0.0081 0.0143 0.0154 0.8486 )	%  No  No  No  app 20  64-81  >20/4  Top dressed
	       ( 0.1091 0.0006 0.0013 0.0026 0.0081 0.0143 0.0154 0.8486 )	%  No  No  No  app 20  64-81  >20/4  Invorked
	       ( 0.1098 0.0014 0.0028 0.0057 0.0182 0.0344 0.0395 0.7882 )))	%  No  No  No  app 20  64-81  >20/4  Placed
	     ((( 0.1314 0.026 0.0615 0.1567 0.4796 0.1444 0.0004 0.0001 )	%  No  No  No  app 20  81-100  <26/3  Top dressed
	       ( 0.1314 0.026 0.0615 0.1567 0.4796 0.1444 0.0004 0.0001 )	%  No  No  No  app 20  81-100  <26/3  Invorked
	       ( 0.161 0.0667 0.1703 0.3655 0.2364 0.0001 0.0001 0.0001 ))	%  No  No  No  app 20  81-100  <26/3  Placed
	      (( 0.1137 0.0054 0.0113 0.0247 0.0914 0.1991 0.2143 0.3401 )	%  No  No  No  app 20  81-100  26/3-10/4  Top dressed
	       ( 0.1137 0.0054 0.0113 0.0247 0.0914 0.1991 0.2143 0.3401 )	%  No  No  No  app 20  81-100  26/3-10/4  Invorked
	       ( 0.1198 0.0121 0.0266 0.063 0.252 0.3912 0.1238 0.0116 ))	%  No  No  No  app 20  81-100  26/3-10/4  Placed
	      (( 0.1097 0.0012 0.0025 0.0051 0.0164 0.0306 0.0348 0.7997 )	%  No  No  No  app 20  81-100  10/4-20/4  Top dressed
	       ( 0.1097 0.0012 0.0025 0.0051 0.0164 0.0306 0.0348 0.7997 )	%  No  No  No  app 20  81-100  10/4-20/4  Invorked
	       ( 0.1111 0.0027 0.0055 0.0115 0.039 0.0799 0.0964 0.654 ))	%  No  No  No  app 20  81-100  10/4-20/4  Placed
	      (( 0.109 0.0005 0.001 0.0021 0.0064 0.0112 0.0119 0.8579 )	%  No  No  No  app 20  81-100  >20/4  Top dressed
	       ( 0.109 0.0005 0.001 0.0021 0.0064 0.0112 0.0119 0.8579 )	%  No  No  No  app 20  81-100  >20/4  Invorked
	       ( 0.1096 0.0011 0.0022 0.0045 0.0143 0.0264 0.0296 0.8124 )))	%  No  No  No  app 20  81-100  >20/4  Placed
	     ((( 0.1184 0.0106 0.0231 0.0539 0.215 0.3774 0.171 0.0307 )	%  No  No  No  app 20  >100  <26/3  Top dressed
	       ( 0.1184 0.0106 0.0231 0.0539 0.215 0.3774 0.171 0.0307 )	%  No  No  No  app 20  >100  <26/3  Invorked
	       ( 0.1304 0.0248 0.0584 0.1482 0.4716 0.1659 0.0008 0.0001 ))	%  No  No  No  app 20  >100  <26/3  Placed
	      (( 0.1108 0.0024 0.0048 0.0101 0.0338 0.068 0.0816 0.6885 )	%  No  No  No  app 20  >100  26/3-10/4  Top dressed
	       ( 0.1108 0.0024 0.0048 0.0101 0.0338 0.068 0.0816 0.6885 )	%  No  No  No  app 20  >100  26/3-10/4  Invorked
	       ( 0.1135 0.0051 0.0108 0.0236 0.0866 0.1887 0.2071 0.3645 ))	%  No  No  No  app 20  >100  26/3-10/4  Placed
	      (( 0.109 0.0006 0.0011 0.0023 0.007 0.0123 0.0131 0.8547 )	%  No  No  No  app 20  >100  10/4-20/4  Top dressed
	       ( 0.109 0.0006 0.0011 0.0023 0.007 0.0123 0.0131 0.8547 )	%  No  No  No  app 20  >100  10/4-20/4  Invorked
	       ( 0.1097 0.0012 0.0024 0.0049 0.0157 0.0291 0.033 0.8041 ))	%  No  No  No  app 20  >100  10/4-20/4  Placed
	      (( 0.1087 0.0002 0.0005 0.0009 0.0028 0.0048 0.0049 0.8771 )	%  No  No  No  app 20  >100  >20/4  Top dressed
	       ( 0.1087 0.0002 0.0005 0.0009 0.0028 0.0048 0.0049 0.8771 )	%  No  No  No  app 20  >100  >20/4  Invorked
	       ( 0.109 0.0005 0.001 0.002 0.0061 0.0107 0.0113 0.8594 )))))	%  No  No  No  app 20  >100  >20/4  Placed
	   ((((( 1 0.0001 0.0001 0.0001 0.0001 0.0001 0.0001 0.0001 )	%  No  No  Yes 1 time  app 12  <1  <26/3  Top dressed
	       ( 1 0.0001 0.0001 0.0001 0.0001 0.0001 0.0001 0.0001 )	%  No  No  Yes 1 time  app 12  <1  <26/3  Invorked
	       ( 1 0.0001 0.0001 0.0001 0.0001 0.0001 0.0001 0.0001 ))	%  No  No  Yes 1 time  app 12  <1  <26/3  Placed
	      (( 1 0.0001 0.0001 0.0001 0.0001 0.0001 0.0001 0.0001 )	%  No  No  Yes 1 time  app 12  <1  26/3-10/4  Top dressed
	       ( 1 0.0001 0.0001 0.0001 0.0001 0.0001 0.0001 0.0001 )	%  No  No  Yes 1 time  app 12  <1  26/3-10/4  Invorked
	       ( 1 0.0001 0.0001 0.0001 0.0001 0.0001 0.0001 0.0001 ))	%  No  No  Yes 1 time  app 12  <1  26/3-10/4  Placed
	      (( 0.9594 0.0406 0.0001 0.0001 0.0001 0.0001 0.0001 0.0001 )	%  No  No  Yes 1 time  app 12  <1  10/4-20/4  Top dressed
	       ( 0.9594 0.0406 0.0001 0.0001 0.0001 0.0001 0.0001 0.0001 )	%  No  No  Yes 1 time  app 12  <1  10/4-20/4  Invorked
	       ( 1 0.0001 0.0001 0.0001 0.0001 0.0001 0.0001 0.0001 ))	%  No  No  Yes 1 time  app 12  <1  10/4-20/4  Placed
	      (( 0.5004 0.3915 0.1081 0.0001 0.0001 0.0001 0.0001 0.0001 )	%  No  No  Yes 1 time  app 12  <1  >20/4  Top dressed
	       ( 0.5004 0.3915 0.1081 0.0001 0.0001 0.0001 0.0001 0.0001 )	%  No  No  Yes 1 time  app 12  <1  >20/4  Invorked
	       ( 0.9184 0.0816 0.0001 0.0001 0.0001 0.0001 0.0001 0.0001 )))	%  No  No  Yes 1 time  app 12  <1  >20/4  Placed
	     ((( 1 0.0001 0.0001 0.0001 0.0001 0.0001 0.0001 0.0001 )	%  No  No  Yes 1 time  app 12  1-4  <26/3  Top dressed
	       ( 1 0.0001 0.0001 0.0001 0.0001 0.0001 0.0001 0.0001 )	%  No  No  Yes 1 time  app 12  1-4  <26/3  Invorked
	       ( 1 0.0001 0.0001 0.0001 0.0001 0.0001 0.0001 0.0001 ))	%  No  No  Yes 1 time  app 12  1-4  <26/3  Placed
	      (( 0.559 0.3782 0.0628 0.0001 0.0001 0.0001 0.0001 0.0001 )	%  No  No  Yes 1 time  app 12  1-4  26/3-10/4  Top dressed
	       ( 0.559 0.3782 0.0628 0.0001 0.0001 0.0001 0.0001 0.0001 )	%  No  No  Yes 1 time  app 12  1-4  26/3-10/4  Invorked
	       ( 0.9562 0.0438 0.0001 0.0001 0.0001 0.0001 0.0001 0.0001 ))	%  No  No  Yes 1 time  app 12  1-4  26/3-10/4  Placed
	      (( 0.1831 0.1003 0.2521 0.3856 0.0788 0.0001 0.0001 0.0001 )	%  No  No  Yes 1 time  app 12  1-4  10/4-20/4  Top dressed
	       ( 0.1831 0.1003 0.2521 0.3856 0.0788 0.0001 0.0001 0.0001 )	%  No  No  Yes 1 time  app 12  1-4  10/4-20/4  Invorked
	       ( 0.2979 0.2711 0.3742 0.0568 0.0001 0.0001 0.0001 0.0001 ))	%  No  No  Yes 1 time  app 12  1-4  10/4-20/4  Placed
	      (( 0.1363 0.0323 0.078 0.1992 0.4888 0.0654 0.0001 0.0001 )	%  No  No  Yes 1 time  app 12  1-4  >20/4  Top dressed
	       ( 0.1363 0.0323 0.078 0.1992 0.4888 0.0654 0.0001 0.0001 )	%  No  No  Yes 1 time  app 12  1-4  >20/4  Invorked
	       ( 0.173 0.0847 0.2159 0.3912 0.1352 0.0001 0.0001 0.0001 )))	%  No  No  Yes 1 time  app 12  1-4  >20/4  Placed
	     ((( 0.8012 0.1971 0.0017 0.0001 0.0001 0.0001 0.0001 0.0001 )	%  No  No  Yes 1 time  app 12  5-9  <26/3  Top dressed
	       ( 0.8012 0.1971 0.0017 0.0001 0.0001 0.0001 0.0001 0.0001 )	%  No  No  Yes 1 time  app 12  5-9  <26/3  Invorked
	       ( 0.9993 0.0007 0.0001 0.0001 0.0001 0.0001 0.0001 0.0001 ))	%  No  No  Yes 1 time  app 12  5-9  <26/3  Placed
	      (( 0.2307 0.175 0.3698 0.2216 0.003 0.0001 0.0001 0.0001 )	%  No  No  Yes 1 time  app 12  5-9  26/3-10/4  Top dressed
	       ( 0.2307 0.175 0.3698 0.2216 0.003 0.0001 0.0001 0.0001 )	%  No  No  Yes 1 time  app 12  5-9  26/3-10/4  Invorked
	       ( 0.4304 0.3812 0.187 0.0013 0.0001 0.0001 0.0001 0.0001 ))	%  No  No  Yes 1 time  app 12  5-9  26/3-10/4  Placed
	      (( 0.1323 0.0272 0.0647 0.165 0.4854 0.1252 0.0002 0.0001 )	%  No  No  Yes 1 time  app 12  5-9  10/4-20/4  Top dressed
	       ( 0.1323 0.0272 0.0647 0.165 0.4854 0.1252 0.0002 0.0001 )	%  No  No  Yes 1 time  app 12  5-9  10/4-20/4  Invorked
	       ( 0.1633 0.0702 0.1793 0.3735 0.2137 0.0001 0.0001 0.0001 ))	%  No  No  Yes 1 time  app 12  5-9  10/4-20/4  Placed
	      (( 0.118 0.0101 0.0219 0.0508 0.2021 0.3682 0.1872 0.0418 )	%  No  No  Yes 1 time  app 12  5-9  >20/4  Top dressed
	       ( 0.118 0.0101 0.0219 0.0508 0.2021 0.3682 0.1872 0.0418 )	%  No  No  Yes 1 time  app 12  5-9  >20/4  Invorked
	       ( 0.1294 0.0235 0.055 0.1392 0.4604 0.1911 0.0015 0.0001 )))	%  No  No  Yes 1 time  app 12  5-9  >20/4  Placed
	     ((( 0.4313 0.3815 0.1859 0.0013 0.0001 0.0001 0.0001 0.0001 )	%  No  No  Yes 1 time  app 12  9-16  <26/3  Top dressed
	       ( 0.4313 0.3815 0.1859 0.0013 0.0001 0.0001 0.0001 0.0001 )	%  No  No  Yes 1 time  app 12  9-16  <26/3  Invorked
	       ( 0.847 0.1524 0.0005 0.0001 0.0001 0.0001 0.0001 0.0001 ))	%  No  No  Yes 1 time  app 12  9-16  <26/3  Placed
	      (( 0.1634 0.0703 0.1798 0.3739 0.2125 0.0001 0.0001 0.0001 )	%  No  No  Yes 1 time  app 12  9-16  26/3-10/4  Top dressed
	       ( 0.1634 0.0703 0.1798 0.3739 0.2125 0.0001 0.0001 0.0001 )	%  No  No  Yes 1 time  app 12  9-16  26/3-10/4  Invorked
	       ( 0.2438 0.1951 0.3842 0.1759 0.001 0.0001 0.0001 0.0001 ))	%  No  No  Yes 1 time  app 12  9-16  26/3-10/4  Placed
	      (( 0.1202 0.0126 0.0279 0.0664 0.2653 0.3918 0.1077 0.0079 )	%  No  No  Yes 1 time  app 12  9-16  10/4-20/4  Top dressed
	       ( 0.1202 0.0126 0.0279 0.0664 0.2653 0.3918 0.1077 0.0079 )	%  No  No  Yes 1 time  app 12  9-16  10/4-20/4  Invorked
	       ( 0.1345 0.03 0.0721 0.1842 0.491 0.0881 0.0001 0.0001 ))	%  No  No  Yes 1 time  app 12  9-16  10/4-20/4  Placed
	      (( 0.1133 0.0049 0.0103 0.0224 0.0818 0.178 0.199 0.3904 )	%  No  No  Yes 1 time  app 12  9-16  >20/4  Top dressed
	       ( 0.1133 0.0049 0.0103 0.0224 0.0818 0.178 0.199 0.3904 )	%  No  No  Yes 1 time  app 12  9-16  >20/4  Invorked
	       ( 0.1188 0.011 0.0241 0.0564 0.2255 0.3831 0.1575 0.0236 )))	%  No  No  Yes 1 time  app 12  9-16  >20/4  Placed
	     ((( 0.2768 0.243 0.3891 0.0911 0.0001 0.0001 0.0001 0.0001 )	%  No  No  Yes 1 time  app 12  16-25  <26/3  Top dressed
	       ( 0.2768 0.243 0.3891 0.0911 0.0001 0.0001 0.0001 0.0001 )	%  No  No  Yes 1 time  app 12  16-25  <26/3  Invorked
	       ( 0.5524 0.3805 0.0671 0.0001 0.0001 0.0001 0.0001 0.0001 ))	%  No  No  Yes 1 time  app 12  16-25  <26/3  Placed
	      (( 0.1399 0.037 0.0908 0.2302 0.4691 0.033 0.0001 0.0001 )	%  No  No  Yes 1 time  app 12  16-25  26/3-10/4  Top dressed
	       ( 0.1399 0.037 0.0908 0.2302 0.4691 0.033 0.0001 0.0001 )	%  No  No  Yes 1 time  app 12  16-25  26/3-10/4  Invorked
	       ( 0.182 0.0987 0.2485 0.3872 0.0836 0.0001 0.0001 0.0001 ))	%  No  No  Yes 1 time  app 12  16-25  26/3-10/4  Placed
	      (( 0.1155 0.0073 0.0156 0.0351 0.1353 0.2846 0.241 0.1656 )	%  No  No  Yes 1 time  app 12  16-25  10/4-20/4  Top dressed
	       ( 0.1155 0.0073 0.0156 0.0351 0.1353 0.2846 0.241 0.1656 )	%  No  No  Yes 1 time  app 12  16-25  10/4-20/4  Invorked
	       ( 0.1238 0.0167 0.0379 0.093 0.358 0.3416 0.0288 0.0003 ))	%  No  No  Yes 1 time  app 12  16-25  10/4-20/4  Placed
	      (( 0.1114 0.0029 0.006 0.0127 0.0434 0.0899 0.1085 0.6253 )	%  No  No  Yes 1 time  app 12  16-25  >20/4  Top dressed
	       ( 0.1114 0.0029 0.006 0.0127 0.0434 0.0899 0.1085 0.6253 )	%  No  No  Yes 1 time  app 12  16-25  >20/4  Invorked
	       ( 0.1147 0.0064 0.0136 0.0302 0.1143 0.2462 0.2366 0.238 )))	%  No  No  Yes 1 time  app 12  16-25  >20/4  Placed
	     ((( 0.2105 0.1434 0.3322 0.3001 0.0138 0.0001 0.0001 0.0001 )	%  No  No  Yes 1 time  app 12  25-36  <26/3  Top dressed
	       ( 0.2105 0.1434 0.3322 0.3001 0.0138 0.0001 0.0001 0.0001 )	%  No  No  Yes 1 time  app 12  25-36  <26/3  Invorked
	       ( 0.3745 0.3494 0.2684 0.0077 0.0001 0.0001 0.0001 0.0001 ))	%  No  No  Yes 1 time  app 12  25-36  <26/3  Placed
	      (( 0.1289 0.0229 0.0534 0.1351 0.4544 0.2033 0.002 0.0001 )	%  No  No  Yes 1 time  app 12  25-36  26/3-10/4  Top dressed
	       ( 0.1289 0.0229 0.0534 0.1351 0.4544 0.2033 0.002 0.0001 )	%  No  No  Yes 1 time  app 12  25-36  26/3-10/4  Invorked
	       ( 0.1549 0.0579 0.147 0.3374 0.302 0.0008 0.0001 0.0001 ))	%  No  No  Yes 1 time  app 12  25-36  26/3-10/4  Placed
	      (( 0.1131 0.0048 0.01 0.0218 0.0793 0.1724 0.1944 0.4042 )	%  No  No  Yes 1 time  app 12  25-36  10/4-20/4  Top dressed
	       ( 0.1131 0.0048 0.01 0.0218 0.0793 0.1724 0.1944 0.4042 )	%  No  No  Yes 1 time  app 12  25-36  10/4-20/4  Invorked
	       ( 0.1186 0.0107 0.0234 0.0547 0.2184 0.3794 0.1666 0.0282 ))	%  No  No  Yes 1 time  app 12  25-36  10/4-20/4  Placed
	      (( 0.1104 0.0019 0.0039 0.0082 0.0269 0.0529 0.0626 0.733 )	%  No  No  Yes 1 time  app 12  25-36  >20/4  Top dressed
	       ( 0.1104 0.0019 0.0039 0.0082 0.0269 0.0529 0.0626 0.733 )	%  No  No  Yes 1 time  app 12  25-36  >20/4  Invorked
	       ( 0.1126 0.0042 0.0087 0.0188 0.0674 0.1455 0.1701 0.4725 )))	%  No  No  Yes 1 time  app 12  25-36  >20/4  Placed
	     ((( 0.177 0.0909 0.2306 0.3916 0.1098 0.0001 0.0001 0.0001 )	%  No  No  Yes 1 time  app 12  36-49  <26/3  Top dressed
	       ( 0.177 0.0909 0.2306 0.3916 0.1098 0.0001 0.0001 0.0001 )	%  No  No  Yes 1 time  app 12  36-49  <26/3  Invorked
	       ( 0.281 0.2489 0.387 0.083 0.0001 0.0001 0.0001 0.0001 ))	%  No  No  Yes 1 time  app 12  36-49  <26/3  Placed
	      (( 0.1228 0.0156 0.0352 0.0857 0.3349 0.3623 0.0428 0.0007 )	%  No  No  Yes 1 time  app 12  36-49  26/3-10/4  Top dressed
	       ( 0.1228 0.0156 0.0352 0.0857 0.3349 0.3623 0.0428 0.0007 )	%  No  No  Yes 1 time  app 12  36-49  26/3-10/4  Invorked
	       ( 0.1405 0.0379 0.0932 0.2359 0.4637 0.0288 0.0001 0.0001 ))	%  No  No  Yes 1 time  app 12  36-49  26/3-10/4  Placed
	      (( 0.1118 0.0034 0.007 0.0149 0.0518 0.1093 0.1315 0.5703 )	%  No  No  Yes 1 time  app 12  36-49  10/4-20/4  Top dressed
	       ( 0.1118 0.0034 0.007 0.0149 0.0518 0.1093 0.1315 0.5703 )	%  No  No  Yes 1 time  app 12  36-49  10/4-20/4  Invorked
	       ( 0.1156 0.0075 0.0159 0.0359 0.139 0.2907 0.2404 0.1549 ))	%  No  No  Yes 1 time  app 12  36-49  10/4-20/4  Placed
	      (( 0.1099 0.0014 0.0028 0.0057 0.0184 0.0348 0.04 0.787 )	%  No  No  Yes 1 time  app 12  36-49  >20/4  Top dressed
	       ( 0.1099 0.0014 0.0028 0.0057 0.0184 0.0348 0.04 0.787 )	%  No  No  Yes 1 time  app 12  36-49  >20/4  Invorked
	       ( 0.1114 0.003 0.0061 0.0129 0.0444 0.0923 0.1115 0.6184 )))	%  No  No  Yes 1 time  app 12  36-49  >20/4  Placed
	     ((( 0.1578 0.0622 0.1583 0.3523 0.269 0.0004 0.0001 0.0001 )	%  No  No  Yes 1 time  app 12  49-64  <26/3  Top dressed
	       ( 0.1578 0.0622 0.1583 0.3523 0.269 0.0004 0.0001 0.0001 )	%  No  No  Yes 1 time  app 12  49-64  <26/3  Invorked
	       ( 0.2288 0.1721 0.3672 0.2284 0.0035 0.0001 0.0001 0.0001 ))	%  No  No  Yes 1 time  app 12  49-64  <26/3  Placed
	      (( 0.1191 0.0114 0.0249 0.0587 0.2348 0.387 0.1454 0.0186 )	%  No  No  Yes 1 time  app 12  49-64  26/3-10/4  Top dressed
	       ( 0.1191 0.0114 0.0249 0.0587 0.2348 0.387 0.1454 0.0186 )	%  No  No  Yes 1 time  app 12  49-64  26/3-10/4  Invorked
	       ( 0.132 0.0268 0.0636 0.1623 0.4837 0.1312 0.0003 0.0001 ))	%  No  No  Yes 1 time  app 12  49-64  26/3-10/4  Placed
	      (( 0.111 0.0025 0.0052 0.0108 0.0366 0.0743 0.0895 0.6701 )	%  No  No  Yes 1 time  app 12  49-64  10/4-20/4  Top dressed
	       ( 0.111 0.0025 0.0052 0.0108 0.0366 0.0743 0.0895 0.6701 )	%  No  No  Yes 1 time  app 12  49-64  10/4-20/4  Invorked
	       ( 0.1138 0.0055 0.0116 0.0255 0.0946 0.206 0.2186 0.3244 ))	%  No  No  Yes 1 time  app 12  49-64  10/4-20/4  Placed
	      (( 0.1095 0.001 0.0021 0.0043 0.0135 0.0247 0.0276 0.8173 )	%  No  No  Yes 1 time  app 12  49-64  >20/4  Top dressed
	       ( 0.1095 0.001 0.0021 0.0043 0.0135 0.0247 0.0276 0.8173 )	%  No  No  Yes 1 time  app 12  49-64  >20/4  Invorked
	       ( 0.1107 0.0022 0.0045 0.0095 0.0315 0.063 0.0753 0.7032 )))	%  No  No  Yes 1 time  app 12  49-64  >20/4  Placed
	     ((( 0.1458 0.0451 0.1125 0.2779 0.4097 0.009 0.0001 0.0001 )	%  No  No  Yes 1 time  app 12  64-81  <26/3  Top dressed
	       ( 0.1458 0.0451 0.1125 0.2779 0.4097 0.009 0.0001 0.0001 )	%  No  No  Yes 1 time  app 12  64-81  <26/3  Invorked
	       ( 0.1972 0.1224 0.2972 0.3495 0.0337 0.0001 0.0001 0.0001 ))	%  No  No  Yes 1 time  app 12  64-81  <26/3  Placed
	      (( 0.1167 0.0087 0.0187 0.0427 0.1678 0.3328 0.2241 0.0886 )	%  No  No  Yes 1 time  app 12  64-81  26/3-10/4  Top dressed
	       ( 0.1167 0.0087 0.0187 0.0427 0.1678 0.3328 0.2241 0.0886 )	%  No  No  Yes 1 time  app 12  64-81  26/3-10/4  Invorked
	       ( 0.1265 0.02 0.0461 0.1153 0.4171 0.2673 0.0075 0.0001 ))	%  No  No  Yes 1 time  app 12  64-81  26/3-10/4  Placed
	      (( 0.1104 0.002 0.004 0.0083 0.0272 0.0536 0.0634 0.7311 )	%  No  No  Yes 1 time  app 12  64-81  10/4-20/4  Top dressed
	       ( 0.1104 0.002 0.004 0.0083 0.0272 0.0536 0.0634 0.7311 )	%  No  No  Yes 1 time  app 12  64-81  10/4-20/4  Invorked
	       ( 0.1126 0.0042 0.0088 0.019 0.0683 0.1474 0.172 0.4677 ))	%  No  No  Yes 1 time  app 12  64-81  10/4-20/4  Placed
	      (( 0.1093 0.0008 0.0016 0.0033 0.0103 0.0185 0.0203 0.836 )	%  No  No  Yes 1 time  app 12  64-81  >20/4  Top dressed
	       ( 0.1093 0.0008 0.0016 0.0033 0.0103 0.0185 0.0203 0.836 )	%  No  No  Yes 1 time  app 12  64-81  >20/4  Invorked
	       ( 0.1102 0.0017 0.0035 0.0072 0.0236 0.0457 0.0535 0.7545 )))	%  No  No  Yes 1 time  app 12  64-81  >20/4  Placed
	     ((( 0.1377 0.0342 0.0832 0.2122 0.4829 0.0498 0.0001 0.0001 )	%  No  No  Yes 1 time  app 12  81-100  <26/3  Top dressed
	       ( 0.1377 0.0342 0.0832 0.2122 0.4829 0.0498 0.0001 0.0001 )	%  No  No  Yes 1 time  app 12  81-100  <26/3  Invorked
	       ( 0.1767 0.0904 0.2295 0.3917 0.1117 0.0001 0.0001 0.0001 ))	%  No  No  Yes 1 time  app 12  81-100  <26/3  Placed
	      (( 0.1151 0.0068 0.0145 0.0324 0.124 0.2646 0.2404 0.2021 )	%  No  No  Yes 1 time  app 12  81-100  26/3-10/4  Top dressed
	       ( 0.1151 0.0068 0.0145 0.0324 0.124 0.2646 0.2404 0.2021 )	%  No  No  Yes 1 time  app 12  81-100  26/3-10/4  Invorked
	       ( 0.1228 0.0156 0.035 0.0853 0.3334 0.3634 0.0438 0.0008 ))	%  No  No  Yes 1 time  app 12  81-100  26/3-10/4  Placed
	      (( 0.11 0.0016 0.0032 0.0065 0.0211 0.0404 0.0469 0.7702 )	%  No  No  Yes 1 time  app 12  81-100  10/4-20/4  Top dressed
	       ( 0.11 0.0016 0.0032 0.0065 0.0211 0.0404 0.0469 0.7702 )	%  No  No  Yes 1 time  app 12  81-100  10/4-20/4  Invorked
	       ( 0.1118 0.0034 0.007 0.0148 0.0515 0.1087 0.1308 0.5719 ))	%  No  No  Yes 1 time  app 12  81-100  10/4-20/4  Placed
	      (( 0.1091 0.0006 0.0013 0.0026 0.0081 0.0144 0.0155 0.8483 )	%  No  No  Yes 1 time  app 12  81-100  >20/4  Top dressed
	       ( 0.1091 0.0006 0.0013 0.0026 0.0081 0.0144 0.0155 0.8483 )	%  No  No  Yes 1 time  app 12  81-100  >20/4  Invorked
	       ( 0.1099 0.0014 0.0028 0.0057 0.0184 0.0347 0.0398 0.7875 )))	%  No  No  Yes 1 time  app 12  81-100  >20/4  Placed
	     ((( 0.1211 0.0136 0.0302 0.0726 0.2887 0.3878 0.0821 0.0038 )	%  No  No  Yes 1 time  app 12  >100  <26/3  Top dressed
	       ( 0.1211 0.0136 0.0302 0.0726 0.2887 0.3878 0.0821 0.0038 )	%  No  No  Yes 1 time  app 12  >100  <26/3  Invorked
	       ( 0.1365 0.0326 0.0788 0.2012 0.4881 0.0628 0.0001 0.0001 ))	%  No  No  Yes 1 time  app 12  >100  <26/3  Placed
	      (( 0.1114 0.003 0.0061 0.0129 0.0444 0.0923 0.1115 0.6183 )	%  No  No  Yes 1 time  app 12  >100  26/3-10/4  Top dressed
	       ( 0.1114 0.003 0.0061 0.0129 0.0444 0.0923 0.1115 0.6183 )	%  No  No  Yes 1 time  app 12  >100  26/3-10/4  Invorked
	       ( 0.1148 0.0065 0.0139 0.0309 0.1174 0.2522 0.2382 0.2261 ))	%  No  No  Yes 1 time  app 12  >100  26/3-10/4  Placed
	      (( 0.1092 0.0007 0.0014 0.0028 0.0089 0.0158 0.0171 0.844 )	%  No  No  Yes 1 time  app 12  >100  10/4-20/4  Top dressed
	       ( 0.1092 0.0007 0.0014 0.0028 0.0089 0.0158 0.0171 0.844 )	%  No  No  Yes 1 time  app 12  >100  10/4-20/4  Invorked
	       ( 0.11 0.0015 0.003 0.0062 0.0202 0.0385 0.0445 0.7762 ))	%  No  No  Yes 1 time  app 12  >100  10/4-20/4  Placed
	      (( 0.1088 0.0003 0.0006 0.0012 0.0035 0.0061 0.0063 0.8733 )	%  No  No  Yes 1 time  app 12  >100  >20/4  Top dressed
	       ( 0.1088 0.0003 0.0006 0.0012 0.0035 0.0061 0.0063 0.8733 )	%  No  No  Yes 1 time  app 12  >100  >20/4  Invorked
	       ( 0.1091 0.0006 0.0012 0.0025 0.0078 0.0138 0.0148 0.8502 ))))	%  No  No  Yes 1 time  app 12  >100  >20/4  Placed
	    (((( 1 0.0001 0.0001 0.0001 0.0001 0.0001 0.0001 0.0001 )	%  No  No  Yes 1 time  app 20  <1  <26/3  Top dressed
	       ( 1 0.0001 0.0001 0.0001 0.0001 0.0001 0.0001 0.0001 )	%  No  No  Yes 1 time  app 20  <1  <26/3  Invorked
	       ( 1 0.0001 0.0001 0.0001 0.0001 0.0001 0.0001 0.0001 ))	%  No  No  Yes 1 time  app 20  <1  <26/3  Placed
	      (( 1 0.0001 0.0001 0.0001 0.0001 0.0001 0.0001 0.0001 )	%  No  No  Yes 1 time  app 20  <1  26/3-10/4  Top dressed
	       ( 1 0.0001 0.0001 0.0001 0.0001 0.0001 0.0001 0.0001 )	%  No  No  Yes 1 time  app 20  <1  26/3-10/4  Invorked
	       ( 1 0.0001 0.0001 0.0001 0.0001 0.0001 0.0001 0.0001 ))	%  No  No  Yes 1 time  app 20  <1  26/3-10/4  Placed
	      (( 0.9778 0.0222 0.0001 0.0001 0.0001 0.0001 0.0001 0.0001 )	%  No  No  Yes 1 time  app 20  <1  10/4-20/4  Top dressed
	       ( 0.9778 0.0222 0.0001 0.0001 0.0001 0.0001 0.0001 0.0001 )	%  No  No  Yes 1 time  app 20  <1  10/4-20/4  Invorked
	       ( 1 0.0001 0.0001 0.0001 0.0001 0.0001 0.0001 0.0001 ))	%  No  No  Yes 1 time  app 20  <1  10/4-20/4  Placed
	      (( 0.5443 0.3832 0.0725 0.0001 0.0001 0.0001 0.0001 0.0001 )	%  No  No  Yes 1 time  app 20  <1  >20/4  Top dressed
	       ( 0.5443 0.3832 0.0725 0.0001 0.0001 0.0001 0.0001 0.0001 )	%  No  No  Yes 1 time  app 20  <1  >20/4  Invorked
	       ( 0.9483 0.0517 0.0001 0.0001 0.0001 0.0001 0.0001 0.0001 )))	%  No  No  Yes 1 time  app 20  <1  >20/4  Placed
	     ((( 1 0.0001 0.0001 0.0001 0.0001 0.0001 0.0001 0.0001 )	%  No  No  Yes 1 time  app 20  1-4  <26/3  Top dressed
	       ( 1 0.0001 0.0001 0.0001 0.0001 0.0001 0.0001 0.0001 )	%  No  No  Yes 1 time  app 20  1-4  <26/3  Invorked
	       ( 1 0.0001 0.0001 0.0001 0.0001 0.0001 0.0001 0.0001 ))	%  No  No  Yes 1 time  app 20  1-4  <26/3  Placed
	      (( 0.6072 0.3552 0.0377 0.0001 0.0001 0.0001 0.0001 0.0001 )	%  No  No  Yes 1 time  app 20  1-4  26/3-10/4  Top dressed
	       ( 0.6072 0.3552 0.0377 0.0001 0.0001 0.0001 0.0001 0.0001 )	%  No  No  Yes 1 time  app 20  1-4  26/3-10/4  Invorked
	       ( 0.9756 0.0244 0.0001 0.0001 0.0001 0.0001 0.0001 0.0001 ))	%  No  No  Yes 1 time  app 20  1-4  26/3-10/4  Placed
	      (( 0.191 0.1127 0.2784 0.3683 0.0495 0.0001 0.0001 0.0001 )	%  No  No  Yes 1 time  app 20  1-4  10/4-20/4  Top dressed
	       ( 0.191 0.1127 0.2784 0.3683 0.0495 0.0001 0.0001 0.0001 )	%  No  No  Yes 1 time  app 20  1-4  10/4-20/4  Invorked
	       ( 0.3201 0.2977 0.3489 0.0333 0.0001 0.0001 0.0001 0.0001 ))	%  No  No  Yes 1 time  app 20  1-4  10/4-20/4  Placed
	      (( 0.139 0.0358 0.0875 0.2225 0.4757 0.0395 0.0001 0.0001 )	%  No  No  Yes 1 time  app 20  1-4  >20/4  Top dressed
	       ( 0.139 0.0358 0.0875 0.2225 0.4757 0.0395 0.0001 0.0001 )	%  No  No  Yes 1 time  app 20  1-4  >20/4  Invorked
	       ( 0.1797 0.0951 0.2404 0.3898 0.095 0.0001 0.0001 0.0001 )))	%  No  No  Yes 1 time  app 20  1-4  >20/4  Placed
	     ((( 0.8489 0.1506 0.0005 0.0001 0.0001 0.0001 0.0001 0.0001 )	%  No  No  Yes 1 time  app 20  5-9  <26/3  Top dressed
	       ( 0.8489 0.1506 0.0005 0.0001 0.0001 0.0001 0.0001 0.0001 )	%  No  No  Yes 1 time  app 20  5-9  <26/3  Invorked
	       ( 0.9998 0.0002 0.0001 0.0001 0.0001 0.0001 0.0001 0.0001 ))	%  No  No  Yes 1 time  app 20  5-9  <26/3  Placed
	      (( 0.2444 0.196 0.3846 0.174 0.001 0.0001 0.0001 0.0001 )	%  No  No  Yes 1 time  app 20  5-9  26/3-10/4  Top dressed
	       ( 0.2444 0.196 0.3846 0.174 0.001 0.0001 0.0001 0.0001 )	%  No  No  Yes 1 time  app 20  5-9  26/3-10/4  Invorked
	       ( 0.4679 0.3906 0.1412 0.0004 0.0001 0.0001 0.0001 0.0001 ))	%  No  No  Yes 1 time  app 20  5-9  26/3-10/4  Placed
	      (( 0.1346 0.0302 0.0724 0.185 0.4911 0.0867 0.0001 0.0001 )	%  No  No  Yes 1 time  app 20  5-9  10/4-20/4  Top dressed
	       ( 0.1346 0.0302 0.0724 0.185 0.4911 0.0867 0.0001 0.0001 )	%  No  No  Yes 1 time  app 20  5-9  10/4-20/4  Invorked
	       ( 0.1689 0.0786 0.2008 0.3868 0.1649 0.0001 0.0001 0.0001 ))	%  No  No  Yes 1 time  app 20  5-9  10/4-20/4  Placed
	      (( 0.1189 0.011 0.0242 0.0567 0.2265 0.3836 0.1561 0.023 )	%  No  No  Yes 1 time  app 20  5-9  >20/4  Top dressed
	       ( 0.1189 0.011 0.0242 0.0567 0.2265 0.3836 0.1561 0.023 )	%  No  No  Yes 1 time  app 20  5-9  >20/4  Invorked
	       ( 0.1314 0.026 0.0614 0.1564 0.4794 0.145 0.0004 0.0001 )))	%  No  No  Yes 1 time  app 20  5-9  >20/4  Placed
	     ((( 0.4688 0.3907 0.1402 0.0003 0.0001 0.0001 0.0001 0.0001 )	%  No  No  Yes 1 time  app 20  9-16  <26/3  Top dressed
	       ( 0.4688 0.3907 0.1402 0.0003 0.0001 0.0001 0.0001 0.0001 )	%  No  No  Yes 1 time  app 20  9-16  <26/3  Invorked
	       ( 0.8898 0.1101 0.0001 0.0001 0.0001 0.0001 0.0001 0.0001 ))	%  No  No  Yes 1 time  app 20  9-16  <26/3  Placed
	      (( 0.1691 0.0788 0.2013 0.3871 0.1638 0.0001 0.0001 0.0001 )	%  No  No  Yes 1 time  app 20  9-16  26/3-10/4  Top dressed
	       ( 0.1691 0.0788 0.2013 0.3871 0.1638 0.0001 0.0001 0.0001 )	%  No  No  Yes 1 time  app 20  9-16  26/3-10/4  Invorked
	       ( 0.2592 0.218 0.3915 0.131 0.0003 0.0001 0.0001 0.0001 ))	%  No  No  Yes 1 time  app 20  9-16  26/3-10/4  Placed
	      (( 0.1213 0.0139 0.0309 0.0744 0.2953 0.3856 0.0756 0.0031 )	%  No  No  Yes 1 time  app 20  9-16  10/4-20/4  Top dressed
	       ( 0.1213 0.0139 0.0309 0.0744 0.2953 0.3856 0.0756 0.0031 )	%  No  No  Yes 1 time  app 20  9-16  10/4-20/4  Invorked
	       ( 0.137 0.0333 0.0808 0.2061 0.4861 0.0567 0.0001 0.0001 ))	%  No  No  Yes 1 time  app 20  9-16  10/4-20/4  Placed
	      (( 0.1137 0.0054 0.0113 0.0247 0.0915 0.1993 0.2144 0.3397 )	%  No  No  Yes 1 time  app 20  9-16  >20/4  Top dressed
	       ( 0.1137 0.0054 0.0113 0.0247 0.0915 0.1993 0.2144 0.3397 )	%  No  No  Yes 1 time  app 20  9-16  >20/4  Invorked
	       ( 0.1198 0.0121 0.0266 0.0631 0.2522 0.3912 0.1235 0.0116 )))	%  No  No  Yes 1 time  app 20  9-16  >20/4  Placed
	     ((( 0.2963 0.269 0.3757 0.059 0.0001 0.0001 0.0001 0.0001 )	%  No  No  Yes 1 time  app 20  16-25  <26/3  Top dressed
	       ( 0.2963 0.269 0.3757 0.059 0.0001 0.0001 0.0001 0.0001 )	%  No  No  Yes 1 time  app 20  16-25  <26/3  Invorked
	       ( 0.6001 0.3591 0.0408 0.0001 0.0001 0.0001 0.0001 0.0001 ))	%  No  No  Yes 1 time  app 20  16-25  <26/3  Placed
	      (( 0.1429 0.0412 0.1019 0.2556 0.4411 0.0173 0.0001 0.0001 )	%  No  No  Yes 1 time  app 20  16-25  26/3-10/4  Top dressed
	       ( 0.1429 0.0412 0.1019 0.2556 0.4411 0.0173 0.0001 0.0001 )	%  No  No  Yes 1 time  app 20  16-25  26/3-10/4  Invorked
	       ( 0.1899 0.1109 0.2746 0.3714 0.0532 0.0001 0.0001 0.0001 ))	%  No  No  Yes 1 time  app 20  16-25  26/3-10/4  Placed
	      (( 0.1161 0.008 0.0172 0.039 0.152 0.3111 0.2353 0.1212 )	%  No  No  Yes 1 time  app 20  16-25  10/4-20/4  Top dressed
	       ( 0.1161 0.008 0.0172 0.039 0.152 0.3111 0.2353 0.1212 )	%  No  No  Yes 1 time  app 20  16-25  10/4-20/4  Invorked
	       ( 0.1252 0.0184 0.0421 0.1045 0.3906 0.3043 0.0148 0.0001 ))	%  No  No  Yes 1 time  app 20  16-25  10/4-20/4  Placed
	      (( 0.1116 0.0032 0.0066 0.0139 0.0482 0.1009 0.1217 0.5939 )	%  No  No  Yes 1 time  app 20  16-25  >20/4  Top dressed
	       ( 0.1116 0.0032 0.0066 0.0139 0.0482 0.1009 0.1217 0.5939 )	%  No  No  Yes 1 time  app 20  16-25  >20/4  Invorked
	       ( 0.1152 0.007 0.0149 0.0334 0.1283 0.2723 0.2411 0.1877 )))	%  No  No  Yes 1 time  app 20  16-25  >20/4  Placed
	     ((( 0.2217 0.1611 0.3556 0.2556 0.006 0.0001 0.0001 0.0001 )	%  No  No  Yes 1 time  app 20  25-36  <26/3  Top dressed
	       ( 0.2217 0.1611 0.3556 0.2556 0.006 0.0001 0.0001 0.0001 )	%  No  No  Yes 1 time  app 20  25-36  <26/3  Invorked
	       ( 0.4058 0.3699 0.2213 0.003 0.0001 0.0001 0.0001 0.0001 ))	%  No  No  Yes 1 time  app 20  25-36  <26/3  Placed
	      (( 0.1308 0.0253 0.0597 0.1518 0.4753 0.1565 0.0006 0.0001 )	%  No  No  Yes 1 time  app 20  25-36  26/3-10/4  Top dressed
	       ( 0.1308 0.0253 0.0597 0.1518 0.4753 0.1565 0.0006 0.0001 )	%  No  No  Yes 1 time  app 20  25-36  26/3-10/4  Invorked
	       ( 0.1596 0.0647 0.1651 0.3601 0.2504 0.0002 0.0001 0.0001 ))	%  No  No  Yes 1 time  app 20  25-36  26/3-10/4  Placed
	      (( 0.1136 0.0052 0.011 0.024 0.0887 0.1932 0.2103 0.3541 )	%  No  No  Yes 1 time  app 20  25-36  10/4-20/4  Top dressed
	       ( 0.1136 0.0052 0.011 0.024 0.0887 0.1932 0.2103 0.3541 )	%  No  No  Yes 1 time  app 20  25-36  10/4-20/4  Invorked
	       ( 0.1195 0.0118 0.0259 0.0611 0.2445 0.3898 0.1331 0.0143 ))	%  No  No  Yes 1 time  app 20  25-36  10/4-20/4  Placed
	      (( 0.1106 0.0021 0.0043 0.009 0.0298 0.0591 0.0704 0.7147 )	%  No  No  Yes 1 time  app 20  25-36  >20/4  Top dressed
	       ( 0.1106 0.0021 0.0043 0.009 0.0298 0.0591 0.0704 0.7147 )	%  No  No  Yes 1 time  app 20  25-36  >20/4  Invorked
	       ( 0.113 0.0046 0.0096 0.0208 0.0753 0.1634 0.1868 0.4265 )))	%  No  No  Yes 1 time  app 20  25-36  >20/4  Placed
	     ((( 0.1842 0.1021 0.256 0.3837 0.0739 0.0001 0.0001 0.0001 )	%  No  No  Yes 1 time  app 20  36-49  <26/3  Top dressed
	       ( 0.1842 0.1021 0.256 0.3837 0.0739 0.0001 0.0001 0.0001 )	%  No  No  Yes 1 time  app 20  36-49  <26/3  Invorked
	       ( 0.3011 0.2751 0.3711 0.0528 0.0001 0.0001 0.0001 0.0001 ))	%  No  No  Yes 1 time  app 20  36-49  <26/3  Placed
	      (( 0.1242 0.0172 0.0391 0.0962 0.3676 0.3315 0.024 0.0002 )	%  No  No  Yes 1 time  app 20  36-49  26/3-10/4  Top dressed
	       ( 0.1242 0.0172 0.0391 0.0962 0.3676 0.3315 0.024 0.0002 )	%  No  No  Yes 1 time  app 20  36-49  26/3-10/4  Invorked
	       ( 0.1437 0.0422 0.1047 0.2616 0.4332 0.0147 0.0001 0.0001 ))	%  No  No  Yes 1 time  app 20  36-49  26/3-10/4  Placed
	      (( 0.1121 0.0037 0.0077 0.0164 0.0576 0.1229 0.1467 0.5329 )	%  No  No  Yes 1 time  app 20  36-49  10/4-20/4  Top dressed
	       ( 0.1121 0.0037 0.0077 0.0164 0.0576 0.1229 0.1467 0.5329 )	%  No  No  Yes 1 time  app 20  36-49  10/4-20/4  Invorked
	       ( 0.1163 0.0082 0.0176 0.04 0.1561 0.3171 0.2329 0.1119 ))	%  No  No  Yes 1 time  app 20  36-49  10/4-20/4  Placed
	      (( 0.11 0.0015 0.0031 0.0063 0.0203 0.0387 0.0448 0.7754 )	%  No  No  Yes 1 time  app 20  36-49  >20/4  Top dressed
	       ( 0.11 0.0015 0.0031 0.0063 0.0203 0.0387 0.0448 0.7754 )	%  No  No  Yes 1 time  app 20  36-49  >20/4  Invorked
	       ( 0.1117 0.0033 0.0067 0.0142 0.0493 0.1036 0.1249 0.5863 )))	%  No  No  Yes 1 time  app 20  36-49  >20/4  Placed
	     ((( 0.1629 0.0695 0.1777 0.3722 0.2176 0.0001 0.0001 0.0001 )	%  No  No  Yes 1 time  app 20  49-64  <26/3  Top dressed
	       ( 0.1629 0.0695 0.1777 0.3722 0.2176 0.0001 0.0001 0.0001 )	%  No  No  Yes 1 time  app 20  49-64  <26/3  Invorked
	       ( 0.2423 0.1929 0.3829 0.1807 0.0011 0.0001 0.0001 0.0001 ))	%  No  No  Yes 1 time  app 20  49-64  <26/3  Placed
	      (( 0.1201 0.0125 0.0276 0.0657 0.2624 0.3919 0.1112 0.0086 )	%  No  No  Yes 1 time  app 20  49-64  26/3-10/4  Top dressed
	       ( 0.1201 0.0125 0.0276 0.0657 0.2624 0.3919 0.1112 0.0086 )	%  No  No  Yes 1 time  app 20  49-64  26/3-10/4  Invorked
	       ( 0.1343 0.0297 0.0712 0.182 0.4909 0.0918 0.0001 0.0001 ))	%  No  No  Yes 1 time  app 20  49-64  26/3-10/4  Placed
	      (( 0.1112 0.0028 0.0057 0.0119 0.0405 0.0833 0.1006 0.6441 )	%  No  No  Yes 1 time  app 20  49-64  10/4-20/4  Top dressed
	       ( 0.1112 0.0028 0.0057 0.0119 0.0405 0.0833 0.1006 0.6441 )	%  No  No  Yes 1 time  app 20  49-64  10/4-20/4  Invorked
	       ( 0.1143 0.006 0.0127 0.0282 0.106 0.2298 0.2308 0.2721 ))	%  No  No  Yes 1 time  app 20  49-64  10/4-20/4  Placed
	      (( 0.1096 0.0011 0.0023 0.0047 0.0148 0.0274 0.0308 0.8094 )	%  No  No  Yes 1 time  app 20  49-64  >20/4  Top dressed
	       ( 0.1096 0.0011 0.0023 0.0047 0.0148 0.0274 0.0308 0.8094 )	%  No  No  Yes 1 time  app 20  49-64  >20/4  Invorked
	       ( 0.1109 0.0024 0.005 0.0104 0.0349 0.0705 0.0848 0.6812 )))	%  No  No  Yes 1 time  app 20  49-64  >20/4  Placed
	     ((( 0.1495 0.0502 0.1265 0.3045 0.3657 0.0036 0.0001 0.0001 )	%  No  No  Yes 1 time  app 20  64-81  <26/3  Top dressed
	       ( 0.1495 0.0502 0.1265 0.3045 0.3657 0.0036 0.0001 0.0001 )	%  No  No  Yes 1 time  app 20  64-81  <26/3  Invorked
	       ( 0.2068 0.1376 0.3234 0.3144 0.0178 0.0001 0.0001 0.0001 ))	%  No  No  Yes 1 time  app 20  64-81  <26/3  Placed
	      (( 0.1175 0.0095 0.0206 0.0475 0.1884 0.3561 0.2034 0.057 )	%  No  No  Yes 1 time  app 20  64-81  26/3-10/4  Top dressed
	       ( 0.1175 0.0095 0.0206 0.0475 0.1884 0.3561 0.2034 0.057 )	%  No  No  Yes 1 time  app 20  64-81  26/3-10/4  Invorked
	       ( 0.1282 0.0221 0.0514 0.1296 0.4455 0.2202 0.0029 0.0001 ))	%  No  No  Yes 1 time  app 20  64-81  26/3-10/4  Placed
	      (( 0.1106 0.0021 0.0044 0.0091 0.0301 0.0598 0.0713 0.7126 )	%  No  No  Yes 1 time  app 20  64-81  10/4-20/4  Top dressed
	       ( 0.1106 0.0021 0.0044 0.0091 0.0301 0.0598 0.0713 0.7126 )	%  No  No  Yes 1 time  app 20  64-81  10/4-20/4  Invorked
	       ( 0.113 0.0046 0.0097 0.021 0.0762 0.1655 0.1887 0.4212 ))	%  No  No  Yes 1 time  app 20  64-81  10/4-20/4  Placed
	      (( 0.1094 0.0009 0.0018 0.0036 0.0113 0.0204 0.0225 0.8303 )	%  No  No  Yes 1 time  app 20  64-81  >20/4  Top dressed
	       ( 0.1094 0.0009 0.0018 0.0036 0.0113 0.0204 0.0225 0.8303 )	%  No  No  Yes 1 time  app 20  64-81  >20/4  Invorked
	       ( 0.1104 0.0019 0.0038 0.0079 0.026 0.0509 0.0601 0.7389 )))	%  No  No  Yes 1 time  app 20  64-81  >20/4  Placed
	     ((( 0.1406 0.038 0.0934 0.2364 0.4632 0.0284 0.0001 0.0001 )	%  No  No  Yes 1 time  app 20  81-100  <26/3  Top dressed
	       ( 0.1406 0.038 0.0934 0.2364 0.4632 0.0284 0.0001 0.0001 )	%  No  No  Yes 1 time  app 20  81-100  <26/3  Invorked
	       ( 0.1839 0.1016 0.2548 0.3843 0.0754 0.0001 0.0001 0.0001 ))	%  No  No  Yes 1 time  app 20  81-100  <26/3  Placed
	      (( 0.1157 0.0075 0.016 0.036 0.1393 0.2912 0.2403 0.1541 )	%  No  No  Yes 1 time  app 20  81-100  26/3-10/4  Top dressed
	       ( 0.1157 0.0075 0.016 0.036 0.1393 0.2912 0.2403 0.1541 )	%  No  No  Yes 1 time  app 20  81-100  26/3-10/4  Invorked
	       ( 0.1241 0.0171 0.0389 0.0957 0.3661 0.3332 0.0247 0.0002 ))	%  No  No  Yes 1 time  app 20  81-100  26/3-10/4  Placed
	      (( 0.1102 0.0017 0.0035 0.0071 0.0233 0.045 0.0527 0.7566 )	%  No  No  Yes 1 time  app 20  81-100  10/4-20/4  Top dressed
	       ( 0.1102 0.0017 0.0035 0.0071 0.0233 0.045 0.0527 0.7566 )	%  No  No  Yes 1 time  app 20  81-100  10/4-20/4  Invorked
	       ( 0.1121 0.0037 0.0076 0.0163 0.0574 0.1222 0.146 0.5347 ))	%  No  No  Yes 1 time  app 20  81-100  10/4-20/4  Placed
	      (( 0.1092 0.0007 0.0014 0.0029 0.0089 0.0158 0.0172 0.844 )	%  No  No  Yes 1 time  app 20  81-100  >20/4  Top dressed
	       ( 0.1092 0.0007 0.0014 0.0029 0.0089 0.0158 0.0172 0.844 )	%  No  No  Yes 1 time  app 20  81-100  >20/4  Invorked
	       ( 0.11 0.0015 0.003 0.0063 0.0202 0.0385 0.0445 0.776 )))	%  No  No  Yes 1 time  app 20  81-100  >20/4  Placed
	     ((( 0.1223 0.015 0.0335 0.0813 0.3201 0.3729 0.0537 0.0013 )	%  No  No  Yes 1 time  app 20  >100  <26/3  Top dressed
	       ( 0.1223 0.015 0.0335 0.0813 0.3201 0.3729 0.0537 0.0013 )	%  No  No  Yes 1 time  app 20  >100  <26/3  Invorked
	       ( 0.1392 0.0362 0.0884 0.2246 0.474 0.0376 0.0001 0.0001 ))	%  No  No  Yes 1 time  app 20  >100  <26/3  Placed
	      (( 0.1117 0.0033 0.0067 0.0142 0.0493 0.1037 0.125 0.5862 )	%  No  No  Yes 1 time  app 20  >100  26/3-10/4  Top dressed
	       ( 0.1117 0.0033 0.0067 0.0142 0.0493 0.1037 0.125 0.5862 )	%  No  No  Yes 1 time  app 20  >100  26/3-10/4  Invorked
	       ( 0.1154 0.0072 0.0153 0.0343 0.1318 0.2785 0.2412 0.1764 ))	%  No  No  Yes 1 time  app 20  >100  26/3-10/4  Placed
	      (( 0.1093 0.0008 0.0015 0.0031 0.0097 0.0174 0.019 0.8392 )	%  No  No  Yes 1 time  app 20  >100  10/4-20/4  Top dressed
	       ( 0.1093 0.0008 0.0015 0.0031 0.0097 0.0174 0.019 0.8392 )	%  No  No  Yes 1 time  app 20  >100  10/4-20/4  Invorked
	       ( 0.1101 0.0016 0.0033 0.0068 0.0222 0.0428 0.0499 0.7633 ))	%  No  No  Yes 1 time  app 20  >100  10/4-20/4  Placed
	      (( 0.1088 0.0003 0.0006 0.0013 0.0039 0.0067 0.0069 0.8715 )	%  No  No  Yes 1 time  app 20  >100  >20/4  Top dressed
	       ( 0.1088 0.0003 0.0006 0.0013 0.0039 0.0067 0.0069 0.8715 )	%  No  No  Yes 1 time  app 20  >100  >20/4  Invorked
	       ( 0.1092 0.0007 0.0014 0.0027 0.0085 0.0151 0.0164 0.8461 ))))))	%  No  No  Yes 1 time  app 20  >100  >20/4  Placed
	  (((((( 1 0.0001 0.0001 0.0001 0.0001 0.0001 0.0001 0.0001 )	%  No  Yes  No  app 12  <1  <26/3  Top dressed
	       ( 1 0.0001 0.0001 0.0001 0.0001 0.0001 0.0001 0.0001 )	%  No  Yes  No  app 12  <1  <26/3  Invorked
	       ( 1 0.0001 0.0001 0.0001 0.0001 0.0001 0.0001 0.0001 ))	%  No  Yes  No  app 12  <1  <26/3  Placed
	      (( 1 0.0001 0.0001 0.0001 0.0001 0.0001 0.0001 0.0001 )	%  No  Yes  No  app 12  <1  26/3-10/4  Top dressed
	       ( 1 0.0001 0.0001 0.0001 0.0001 0.0001 0.0001 0.0001 )	%  No  Yes  No  app 12  <1  26/3-10/4  Invorked
	       ( 1 0.0001 0.0001 0.0001 0.0001 0.0001 0.0001 0.0001 ))	%  No  Yes  No  app 12  <1  26/3-10/4  Placed
	      (( 0.9303 0.0697 0.0001 0.0001 0.0001 0.0001 0.0001 0.0001 )	%  No  Yes  No  app 12  <1  10/4-20/4  Top dressed
	       ( 0.9303 0.0697 0.0001 0.0001 0.0001 0.0001 0.0001 0.0001 )	%  No  Yes  No  app 12  <1  10/4-20/4  Invorked
	       ( 1 0.0001 0.0001 0.0001 0.0001 0.0001 0.0001 0.0001 ))	%  No  Yes  No  app 12  <1  10/4-20/4  Placed
	      (( 0.4565 0.3887 0.1543 0.0005 0.0001 0.0001 0.0001 0.0001 )	%  No  Yes  No  app 12  <1  >20/4  Top dressed
	       ( 0.4565 0.3887 0.1543 0.0005 0.0001 0.0001 0.0001 0.0001 )	%  No  Yes  No  app 12  <1  >20/4  Invorked
	       ( 0.8769 0.1229 0.0002 0.0001 0.0001 0.0001 0.0001 0.0001 )))	%  No  Yes  No  app 12  <1  >20/4  Placed
	     ((( 1 0.0001 0.0001 0.0001 0.0001 0.0001 0.0001 0.0001 )	%  No  Yes  No  app 12  1-4  <26/3  Top dressed
	       ( 1 0.0001 0.0001 0.0001 0.0001 0.0001 0.0001 0.0001 )	%  No  Yes  No  app 12  1-4  <26/3  Invorked
	       ( 1 0.0001 0.0001 0.0001 0.0001 0.0001 0.0001 0.0001 ))	%  No  Yes  No  app 12  1-4  <26/3  Placed
	      (( 0.51 0.3906 0.0994 0.0001 0.0001 0.0001 0.0001 0.0001 )	%  No  Yes  No  app 12  1-4  26/3-10/4  Top dressed
	       ( 0.51 0.3906 0.0994 0.0001 0.0001 0.0001 0.0001 0.0001 )	%  No  Yes  No  app 12  1-4  26/3-10/4  Invorked
	       ( 0.9258 0.0742 0.0001 0.0001 0.0001 0.0001 0.0001 0.0001 ))	%  No  Yes  No  app 12  1-4  26/3-10/4  Placed
	      (( 0.1754 0.0884 0.2247 0.3919 0.1196 0.0001 0.0001 0.0001 )	%  No  Yes  No  app 12  1-4  10/4-20/4  Top dressed
	       ( 0.1754 0.0884 0.2247 0.3919 0.1196 0.0001 0.0001 0.0001 )	%  No  Yes  No  app 12  1-4  10/4-20/4  Invorked
	       ( 0.2765 0.2427 0.3892 0.0916 0.0001 0.0001 0.0001 0.0001 ))	%  No  Yes  No  app 12  1-4  10/4-20/4  Placed
	      (( 0.1336 0.0288 0.0689 0.176 0.4899 0.1027 0.0001 0.0001 )	%  No  Yes  No  app 12  1-4  >20/4  Top dressed
	       ( 0.1336 0.0288 0.0689 0.176 0.4899 0.1027 0.0001 0.0001 )	%  No  Yes  No  app 12  1-4  >20/4  Invorked
	       ( 0.1664 0.0748 0.1911 0.3819 0.1858 0.0001 0.0001 0.0001 )))	%  No  Yes  No  app 12  1-4  >20/4  Placed
	     ((( 0.7454 0.2492 0.0053 0.0001 0.0001 0.0001 0.0001 0.0001 )	%  No  Yes  No  app 12  5-9  <26/3  Top dressed
	       ( 0.7454 0.2492 0.0053 0.0001 0.0001 0.0001 0.0001 0.0001 )	%  No  Yes  No  app 12  5-9  <26/3  Invorked
	       ( 0.9974 0.0026 0.0001 0.0001 0.0001 0.0001 0.0001 0.0001 ))	%  No  Yes  No  app 12  5-9  <26/3  Placed
	      (( 0.2174 0.1542 0.3472 0.2729 0.0084 0.0001 0.0001 0.0001 )	%  No  Yes  No  app 12  5-9  26/3-10/4  Top dressed
	       ( 0.2174 0.1542 0.3472 0.2729 0.0084 0.0001 0.0001 0.0001 )	%  No  Yes  No  app 12  5-9  26/3-10/4  Invorked
	       ( 0.3937 0.3628 0.2392 0.0043 0.0001 0.0001 0.0001 0.0001 ))	%  No  Yes  No  app 12  5-9  26/3-10/4  Placed
	      (( 0.1301 0.0244 0.0573 0.1453 0.4683 0.1738 0.0009 0.0001 )	%  No  Yes  No  app 12  5-9  10/4-20/4  Top dressed
	       ( 0.1301 0.0244 0.0573 0.1453 0.4683 0.1738 0.0009 0.0001 )	%  No  Yes  No  app 12  5-9  10/4-20/4  Invorked
	       ( 0.1578 0.0621 0.1581 0.352 0.2698 0.0004 0.0001 0.0001 ))	%  No  Yes  No  app 12  5-9  10/4-20/4  Placed
	      (( 0.1171 0.0091 0.0196 0.0451 0.1781 0.3452 0.2144 0.0713 )	%  No  Yes  No  app 12  5-9  >20/4  Top dressed
	       ( 0.1171 0.0091 0.0196 0.0451 0.1781 0.3452 0.2144 0.0713 )	%  No  Yes  No  app 12  5-9  >20/4  Invorked
	       ( 0.1274 0.0211 0.0488 0.1225 0.4322 0.2433 0.0047 0.0001 )))	%  No  Yes  No  app 12  5-9  >20/4  Placed
	     ((( 0.3944 0.3633 0.2381 0.0042 0.0001 0.0001 0.0001 0.0001 )	%  No  Yes  No  app 12  9-16  <26/3  Top dressed
	       ( 0.3944 0.3633 0.2381 0.0042 0.0001 0.0001 0.0001 0.0001 )	%  No  Yes  No  app 12  9-16  <26/3  Invorked
	       ( 0.7945 0.2035 0.002 0.0001 0.0001 0.0001 0.0001 0.0001 ))	%  No  Yes  No  app 12  9-16  <26/3  Placed
	      (( 0.1579 0.0622 0.1585 0.3525 0.2685 0.0003 0.0001 0.0001 )	%  No  Yes  No  app 12  9-16  26/3-10/4  Top dressed
	       ( 0.1579 0.0622 0.1585 0.3525 0.2685 0.0003 0.0001 0.0001 )	%  No  Yes  No  app 12  9-16  26/3-10/4  Invorked
	       ( 0.2289 0.1723 0.3674 0.2279 0.0034 0.0001 0.0001 0.0001 ))	%  No  Yes  No  app 12  9-16  26/3-10/4  Placed
	      (( 0.1192 0.0114 0.025 0.0588 0.2351 0.3871 0.1451 0.0184 )	%  No  Yes  No  app 12  9-16  10/4-20/4  Top dressed
	       ( 0.1192 0.0114 0.025 0.0588 0.2351 0.3871 0.1451 0.0184 )	%  No  Yes  No  app 12  9-16  10/4-20/4  Invorked
	       ( 0.132 0.0269 0.0637 0.1624 0.4839 0.1308 0.0003 0.0001 ))	%  No  Yes  No  app 12  9-16  10/4-20/4  Placed
	      (( 0.1128 0.0045 0.0093 0.0201 0.0724 0.1569 0.181 0.443 )	%  No  Yes  No  app 12  9-16  >20/4  Top dressed
	       ( 0.1128 0.0045 0.0093 0.0201 0.0724 0.1569 0.181 0.443 )	%  No  Yes  No  app 12  9-16  >20/4  Invorked
	       ( 0.1179 0.0099 0.0216 0.05 0.199 0.3657 0.191 0.0449 )))	%  No  Yes  No  app 12  9-16  >20/4  Placed
	     ((( 0.2579 0.2162 0.3912 0.1344 0.0003 0.0001 0.0001 0.0001 )	%  No  Yes  No  app 12  16-25  <26/3  Top dressed
	       ( 0.2579 0.2162 0.3912 0.1344 0.0003 0.0001 0.0001 0.0001 )	%  No  Yes  No  app 12  16-25  <26/3  Invorked
	       ( 0.5039 0.3912 0.1048 0.0001 0.0001 0.0001 0.0001 0.0001 ))	%  No  Yes  No  app 12  16-25  <26/3  Placed
	      (( 0.1368 0.033 0.08 0.2043 0.4869 0.0589 0.0001 0.0001 )	%  No  Yes  No  app 12  16-25  26/3-10/4  Top dressed
	       ( 0.1368 0.033 0.08 0.2043 0.4869 0.0589 0.0001 0.0001 )	%  No  Yes  No  app 12  16-25  26/3-10/4  Invorked
	       ( 0.1744 0.087 0.2213 0.3918 0.1256 0.0001 0.0001 0.0001 ))	%  No  Yes  No  app 12  16-25  26/3-10/4  Placed
	      (( 0.1149 0.0066 0.014 0.0313 0.1193 0.2557 0.239 0.2192 )	%  No  Yes  No  app 12  16-25  10/4-20/4  Top dressed
	       ( 0.1149 0.0066 0.014 0.0313 0.1193 0.2557 0.239 0.2192 )	%  No  Yes  No  app 12  16-25  10/4-20/4  Invorked
	       ( 0.1224 0.0151 0.0338 0.082 0.3224 0.3713 0.0519 0.0012 ))	%  No  Yes  No  app 12  16-25  10/4-20/4  Placed
	      (( 0.1111 0.0027 0.0054 0.0114 0.0387 0.0792 0.0956 0.6558 )	%  No  Yes  No  app 12  16-25  >20/4  Top dressed
	       ( 0.1111 0.0027 0.0054 0.0114 0.0387 0.0792 0.0956 0.6558 )	%  No  Yes  No  app 12  16-25  >20/4  Invorked
	       ( 0.1141 0.0058 0.0122 0.027 0.1009 0.2192 0.2259 0.295 )))	%  No  Yes  No  app 12  16-25  >20/4  Placed
	     ((( 0.1996 0.1262 0.304 0.3413 0.0289 0.0001 0.0001 0.0001 )	%  No  Yes  No  app 12  25-36  <26/3  Top dressed
	       ( 0.1996 0.1262 0.304 0.3413 0.0289 0.0001 0.0001 0.0001 )	%  No  Yes  No  app 12  25-36  <26/3  Invorked
	       ( 0.344 0.3229 0.3151 0.018 0.0001 0.0001 0.0001 0.0001 ))	%  No  Yes  No  app 12  25-36  <26/3  Placed
	      (( 0.127 0.0205 0.0474 0.1189 0.4248 0.2554 0.006 0.0001 )	%  No  Yes  No  app 12  25-36  26/3-10/4  Top dressed
	       ( 0.127 0.0205 0.0474 0.1189 0.4248 0.2554 0.006 0.0001 )	%  No  Yes  No  app 12  25-36  26/3-10/4  Invorked
	       ( 0.1503 0.0513 0.1294 0.3096 0.3564 0.003 0.0001 0.0001 ))	%  No  Yes  No  app 12  25-36  26/3-10/4  Placed
	      (( 0.1127 0.0043 0.0091 0.0195 0.0702 0.1519 0.1763 0.456 )	%  No  Yes  No  app 12  25-36  10/4-20/4  Top dressed
	       ( 0.1127 0.0043 0.0091 0.0195 0.0702 0.1519 0.1763 0.456 )	%  No  Yes  No  app 12  25-36  10/4-20/4  Invorked
	       ( 0.1176 0.0097 0.021 0.0485 0.1927 0.3602 0.1985 0.0518 ))	%  No  Yes  No  app 12  25-36  10/4-20/4  Placed
	      (( 0.1102 0.0018 0.0036 0.0074 0.0242 0.047 0.0551 0.7507 )	%  No  Yes  No  app 12  25-36  >20/4  Top dressed
	       ( 0.1102 0.0018 0.0036 0.0074 0.0242 0.047 0.0551 0.7507 )	%  No  Yes  No  app 12  25-36  >20/4  Invorked
	       ( 0.1122 0.0038 0.0079 0.0169 0.0599 0.1281 0.1523 0.5189 )))	%  No  Yes  No  app 12  25-36  >20/4  Placed
	     ((( 0.17 0.0802 0.2047 0.3884 0.1568 0.0001 0.0001 0.0001 )	%  No  Yes  No  app 12  36-49  <26/3  Top dressed
	       ( 0.17 0.0802 0.2047 0.3884 0.1568 0.0001 0.0001 0.0001 )	%  No  Yes  No  app 12  36-49  <26/3  Invorked
	       ( 0.2617 0.2216 0.3918 0.1247 0.0002 0.0001 0.0001 0.0001 ))	%  No  Yes  No  app 12  36-49  <26/3  Placed
	      (( 0.1215 0.0141 0.0314 0.0756 0.3 0.3837 0.0711 0.0026 )	%  No  Yes  No  app 12  36-49  26/3-10/4  Top dressed
	       ( 0.1215 0.0141 0.0314 0.0756 0.3 0.3837 0.0711 0.0026 )	%  No  Yes  No  app 12  36-49  26/3-10/4  Invorked
	       ( 0.1374 0.0338 0.0822 0.2096 0.4843 0.0526 0.0001 0.0001 ))	%  No  Yes  No  app 12  36-49  26/3-10/4  Placed
	      (( 0.1115 0.0031 0.0063 0.0134 0.0462 0.0963 0.1163 0.607 )	%  No  Yes  No  app 12  36-49  10/4-20/4  Top dressed
	       ( 0.1115 0.0031 0.0063 0.0134 0.0462 0.0963 0.1163 0.607 )	%  No  Yes  No  app 12  36-49  10/4-20/4  Invorked
	       ( 0.115 0.0068 0.0144 0.0321 0.1225 0.2617 0.24 0.2076 ))	%  No  Yes  No  app 12  36-49  10/4-20/4  Placed
	      (( 0.1097 0.0013 0.0025 0.0052 0.0166 0.0311 0.0354 0.7982 )	%  No  Yes  No  app 12  36-49  >20/4  Top dressed
	       ( 0.1097 0.0013 0.0025 0.0052 0.0166 0.0311 0.0354 0.7982 )	%  No  Yes  No  app 12  36-49  >20/4  Invorked
	       ( 0.1112 0.0027 0.0056 0.0117 0.0396 0.0814 0.0982 0.6497 )))	%  No  Yes  No  app 12  36-49  >20/4  Placed
	     ((( 0.1529 0.0551 0.1394 0.3262 0.325 0.0015 0.0001 0.0001 )	%  No  Yes  No  app 12  49-64  <26/3  Top dressed
	       ( 0.1529 0.0551 0.1394 0.3262 0.325 0.0015 0.0001 0.0001 )	%  No  Yes  No  app 12  49-64  <26/3  Invorked
	       ( 0.2157 0.1517 0.3439 0.2793 0.0094 0.0001 0.0001 0.0001 ))	%  No  Yes  No  app 12  49-64  <26/3  Placed
	      (( 0.1182 0.0103 0.0224 0.052 0.2074 0.3723 0.1806 0.0369 )	%  No  Yes  No  app 12  49-64  26/3-10/4  Top dressed
	       ( 0.1182 0.0103 0.0224 0.052 0.2074 0.3723 0.1806 0.0369 )	%  No  Yes  No  app 12  49-64  26/3-10/4  Invorked
	       ( 0.1298 0.024 0.0564 0.1429 0.4653 0.1805 0.0011 0.0001 ))	%  No  Yes  No  app 12  49-64  26/3-10/4  Placed
	      (( 0.1108 0.0023 0.0047 0.0098 0.0327 0.0657 0.0787 0.6954 )	%  No  Yes  No  app 12  49-64  10/4-20/4  Top dressed
	       ( 0.1108 0.0023 0.0047 0.0098 0.0327 0.0657 0.0787 0.6954 )	%  No  Yes  No  app 12  49-64  10/4-20/4  Invorked
	       ( 0.1133 0.005 0.0105 0.0228 0.0836 0.1821 0.2022 0.3803 ))	%  No  Yes  No  app 12  49-64  10/4-20/4  Placed
	      (( 0.1094 0.0009 0.0019 0.0039 0.0122 0.0222 0.0246 0.825 )	%  No  Yes  No  app 12  49-64  >20/4  Top dressed
	       ( 0.1094 0.0009 0.0019 0.0039 0.0122 0.0222 0.0246 0.825 )	%  No  Yes  No  app 12  49-64  >20/4  Invorked
	       ( 0.1105 0.002 0.0041 0.0086 0.0283 0.0558 0.0663 0.7245 )))	%  No  Yes  No  app 12  49-64  >20/4  Placed
	     ((( 0.1422 0.0401 0.099 0.2493 0.4489 0.0205 0.0001 0.0001 )	%  No  Yes  No  app 12  64-81  <26/3  Top dressed
	       ( 0.1422 0.0401 0.099 0.2493 0.4489 0.0205 0.0001 0.0001 )	%  No  Yes  No  app 12  64-81  <26/3  Invorked
	       ( 0.1879 0.1077 0.2681 0.3764 0.0599 0.0001 0.0001 0.0001 ))	%  No  Yes  No  app 12  64-81  <26/3  Placed
	      (( 0.116 0.0078 0.0168 0.038 0.1477 0.3046 0.2374 0.1316 )	%  No  Yes  No  app 12  64-81  26/3-10/4  Top dressed
	       ( 0.116 0.0078 0.0168 0.038 0.1477 0.3046 0.2374 0.1316 )	%  No  Yes  No  app 12  64-81  26/3-10/4  Invorked
	       ( 0.1248 0.018 0.041 0.1015 0.3827 0.3142 0.0176 0.0001 ))	%  No  Yes  No  app 12  64-81  26/3-10/4  Placed
	      (( 0.1103 0.0018 0.0036 0.0075 0.0245 0.0476 0.0559 0.749 )	%  No  Yes  No  app 12  64-81  10/4-20/4  Top dressed
	       ( 0.1103 0.0018 0.0036 0.0075 0.0245 0.0476 0.0559 0.749 )	%  No  Yes  No  app 12  64-81  10/4-20/4  Invorked
	       ( 0.1123 0.0039 0.008 0.0171 0.0606 0.1297 0.154 0.5145 ))	%  No  Yes  No  app 12  64-81  10/4-20/4  Placed
	      (( 0.1092 0.0007 0.0015 0.003 0.0093 0.0166 0.0181 0.8416 )	%  No  Yes  No  app 12  64-81  >20/4  Top dressed
	       ( 0.1092 0.0007 0.0015 0.003 0.0093 0.0166 0.0181 0.8416 )	%  No  Yes  No  app 12  64-81  >20/4  Invorked
	       ( 0.11 0.0016 0.0032 0.0066 0.0212 0.0406 0.0472 0.7696 )))	%  No  Yes  No  app 12  64-81  >20/4  Placed
	     ((( 0.1349 0.0306 0.0735 0.1877 0.491 0.0823 0.0001 0.0001 )	%  No  Yes  No  app 12  81-100  <26/3  Top dressed
	       ( 0.1349 0.0306 0.0735 0.1877 0.491 0.0823 0.0001 0.0001 )	%  No  Yes  No  app 12  81-100  <26/3  Invorked
	       ( 0.1697 0.0798 0.2036 0.388 0.1589 0.0001 0.0001 0.0001 ))	%  No  Yes  No  app 12  81-100  <26/3  Placed
	      (( 0.1145 0.0062 0.0131 0.029 0.1094 0.2365 0.2334 0.258 )	%  No  Yes  No  app 12  81-100  26/3-10/4  Top dressed
	       ( 0.1145 0.0062 0.0131 0.029 0.1094 0.2365 0.2334 0.258 )	%  No  Yes  No  app 12  81-100  26/3-10/4  Invorked
	       ( 0.1215 0.014 0.0312 0.0752 0.2985 0.3843 0.0725 0.0028 ))	%  No  Yes  No  app 12  81-100  26/3-10/4  Placed
	      (( 0.1099 0.0014 0.0029 0.0059 0.019 0.036 0.0415 0.7834 )	%  No  Yes  No  app 12  81-100  10/4-20/4  Top dressed
	       ( 0.1099 0.0014 0.0029 0.0059 0.019 0.036 0.0415 0.7834 )	%  No  Yes  No  app 12  81-100  10/4-20/4  Invorked
	       ( 0.1115 0.0031 0.0063 0.0133 0.0459 0.0958 0.1156 0.6084 ))	%  No  Yes  No  app 12  81-100  10/4-20/4  Placed
	      (( 0.1091 0.0006 0.0012 0.0024 0.0073 0.013 0.0139 0.8526 )	%  No  Yes  No  app 12  81-100  >20/4  Top dressed
	       ( 0.1091 0.0006 0.0012 0.0024 0.0073 0.013 0.0139 0.8526 )	%  No  Yes  No  app 12  81-100  >20/4  Invorked
	       ( 0.1097 0.0012 0.0025 0.0052 0.0165 0.031 0.0352 0.7986 )))	%  No  Yes  No  app 12  81-100  >20/4  Placed
	     ((( 0.1199 0.0123 0.027 0.0642 0.2566 0.3917 0.1182 0.0102 )	%  No  Yes  No  app 12  >100  <26/3  Top dressed
	       ( 0.1199 0.0123 0.027 0.0642 0.2566 0.3917 0.1182 0.0102 )	%  No  Yes  No  app 12  >100  <26/3  Invorked
	       ( 0.1338 0.0291 0.0696 0.1778 0.4903 0.0993 0.0001 0.0001 ))	%  No  Yes  No  app 12  >100  <26/3  Placed
	      (( 0.1112 0.0027 0.0056 0.0117 0.0397 0.0814 0.0982 0.6496 )	%  No  Yes  No  app 12  >100  26/3-10/4  Top dressed
	       ( 0.1112 0.0027 0.0056 0.0117 0.0397 0.0814 0.0982 0.6496 )	%  No  Yes  No  app 12  >100  26/3-10/4  Invorked
	       ( 0.1142 0.0059 0.0125 0.0276 0.1036 0.2248 0.2286 0.2829 ))	%  No  Yes  No  app 12  >100  26/3-10/4  Placed
	      (( 0.1091 0.0006 0.0013 0.0026 0.008 0.0142 0.0153 0.8488 )	%  No  Yes  No  app 12  >100  10/4-20/4  Top dressed
	       ( 0.1091 0.0006 0.0013 0.0026 0.008 0.0142 0.0153 0.8488 )	%  No  Yes  No  app 12  >100  10/4-20/4  Invorked
	       ( 0.1098 0.0014 0.0028 0.0057 0.0182 0.0343 0.0393 0.7886 ))	%  No  Yes  No  app 12  >100  10/4-20/4  Placed
	      (( 0.1088 0.0003 0.0005 0.0011 0.0032 0.0055 0.0057 0.875 )	%  No  Yes  No  app 12  >100  >20/4  Top dressed
	       ( 0.1088 0.0003 0.0005 0.0011 0.0032 0.0055 0.0057 0.875 )	%  No  Yes  No  app 12  >100  >20/4  Invorked
	       ( 0.1091 0.0006 0.0011 0.0023 0.007 0.0124 0.0133 0.8543 ))))	%  No  Yes  No  app 12  >100  >20/4  Placed
	    (((( 1 0.0001 0.0001 0.0001 0.0001 0.0001 0.0001 0.0001 )	%  No  Yes  No  app 20  <1  <26/3  Top dressed
	       ( 1 0.0001 0.0001 0.0001 0.0001 0.0001 0.0001 0.0001 )	%  No  Yes  No  app 20  <1  <26/3  Invorked
	       ( 1 0.0001 0.0001 0.0001 0.0001 0.0001 0.0001 0.0001 ))	%  No  Yes  No  app 20  <1  <26/3  Placed
	      (( 1 0.0001 0.0001 0.0001 0.0001 0.0001 0.0001 0.0001 )	%  No  Yes  No  app 20  <1  26/3-10/4  Top dressed
	       ( 1 0.0001 0.0001 0.0001 0.0001 0.0001 0.0001 0.0001 )	%  No  Yes  No  app 20  <1  26/3-10/4  Invorked
	       ( 1 0.0001 0.0001 0.0001 0.0001 0.0001 0.0001 0.0001 ))	%  No  Yes  No  app 20  <1  26/3-10/4  Placed
	      (( 0.9303 0.0697 0.0001 0.0001 0.0001 0.0001 0.0001 0.0001 )	%  No  Yes  No  app 20  <1  10/4-20/4  Top dressed
	       ( 0.9303 0.0697 0.0001 0.0001 0.0001 0.0001 0.0001 0.0001 )	%  No  Yes  No  app 20  <1  10/4-20/4  Invorked
	       ( 1 0.0001 0.0001 0.0001 0.0001 0.0001 0.0001 0.0001 ))	%  No  Yes  No  app 20  <1  10/4-20/4  Placed
	      (( 0.4565 0.3887 0.1543 0.0005 0.0001 0.0001 0.0001 0.0001 )	%  No  Yes  No  app 20  <1  >20/4  Top dressed
	       ( 0.4565 0.3887 0.1543 0.0005 0.0001 0.0001 0.0001 0.0001 )	%  No  Yes  No  app 20  <1  >20/4  Invorked
	       ( 0.8769 0.1229 0.0002 0.0001 0.0001 0.0001 0.0001 0.0001 )))	%  No  Yes  No  app 20  <1  >20/4  Placed
	     ((( 1 0.0001 0.0001 0.0001 0.0001 0.0001 0.0001 0.0001 )	%  No  Yes  No  app 20  1-4  <26/3  Top dressed
	       ( 1 0.0001 0.0001 0.0001 0.0001 0.0001 0.0001 0.0001 )	%  No  Yes  No  app 20  1-4  <26/3  Invorked
	       ( 1 0.0001 0.0001 0.0001 0.0001 0.0001 0.0001 0.0001 ))	%  No  Yes  No  app 20  1-4  <26/3  Placed
	      (( 0.51 0.3906 0.0994 0.0001 0.0001 0.0001 0.0001 0.0001 )	%  No  Yes  No  app 20  1-4  26/3-10/4  Top dressed
	       ( 0.51 0.3906 0.0994 0.0001 0.0001 0.0001 0.0001 0.0001 )	%  No  Yes  No  app 20  1-4  26/3-10/4  Invorked
	       ( 0.9258 0.0742 0.0001 0.0001 0.0001 0.0001 0.0001 0.0001 ))	%  No  Yes  No  app 20  1-4  26/3-10/4  Placed
	      (( 0.1754 0.0884 0.2247 0.3919 0.1196 0.0001 0.0001 0.0001 )	%  No  Yes  No  app 20  1-4  10/4-20/4  Top dressed
	       ( 0.1754 0.0884 0.2247 0.3919 0.1196 0.0001 0.0001 0.0001 )	%  No  Yes  No  app 20  1-4  10/4-20/4  Invorked
	       ( 0.2765 0.2427 0.3892 0.0916 0.0001 0.0001 0.0001 0.0001 ))	%  No  Yes  No  app 20  1-4  10/4-20/4  Placed
	      (( 0.1336 0.0288 0.0689 0.176 0.4899 0.1027 0.0001 0.0001 )	%  No  Yes  No  app 20  1-4  >20/4  Top dressed
	       ( 0.1336 0.0288 0.0689 0.176 0.4899 0.1027 0.0001 0.0001 )	%  No  Yes  No  app 20  1-4  >20/4  Invorked
	       ( 0.1664 0.0748 0.1911 0.3819 0.1858 0.0001 0.0001 0.0001 )))	%  No  Yes  No  app 20  1-4  >20/4  Placed
	     ((( 0.7454 0.2492 0.0053 0.0001 0.0001 0.0001 0.0001 0.0001 )	%  No  Yes  No  app 20  5-9  <26/3  Top dressed
	       ( 0.7454 0.2492 0.0053 0.0001 0.0001 0.0001 0.0001 0.0001 )	%  No  Yes  No  app 20  5-9  <26/3  Invorked
	       ( 0.9974 0.0026 0.0001 0.0001 0.0001 0.0001 0.0001 0.0001 ))	%  No  Yes  No  app 20  5-9  <26/3  Placed
	      (( 0.2174 0.1542 0.3472 0.2729 0.0084 0.0001 0.0001 0.0001 )	%  No  Yes  No  app 20  5-9  26/3-10/4  Top dressed
	       ( 0.2174 0.1542 0.3472 0.2729 0.0084 0.0001 0.0001 0.0001 )	%  No  Yes  No  app 20  5-9  26/3-10/4  Invorked
	       ( 0.3937 0.3628 0.2392 0.0043 0.0001 0.0001 0.0001 0.0001 ))	%  No  Yes  No  app 20  5-9  26/3-10/4  Placed
	      (( 0.1301 0.0244 0.0573 0.1453 0.4683 0.1738 0.0009 0.0001 )	%  No  Yes  No  app 20  5-9  10/4-20/4  Top dressed
	       ( 0.1301 0.0244 0.0573 0.1453 0.4683 0.1738 0.0009 0.0001 )	%  No  Yes  No  app 20  5-9  10/4-20/4  Invorked
	       ( 0.1578 0.0621 0.1581 0.352 0.2698 0.0004 0.0001 0.0001 ))	%  No  Yes  No  app 20  5-9  10/4-20/4  Placed
	      (( 0.1171 0.0091 0.0196 0.0451 0.1781 0.3452 0.2144 0.0713 )	%  No  Yes  No  app 20  5-9  >20/4  Top dressed
	       ( 0.1171 0.0091 0.0196 0.0451 0.1781 0.3452 0.2144 0.0713 )	%  No  Yes  No  app 20  5-9  >20/4  Invorked
	       ( 0.1274 0.0211 0.0488 0.1225 0.4322 0.2433 0.0047 0.0001 )))	%  No  Yes  No  app 20  5-9  >20/4  Placed
	     ((( 0.3944 0.3633 0.2381 0.0042 0.0001 0.0001 0.0001 0.0001 )	%  No  Yes  No  app 20  9-16  <26/3  Top dressed
	       ( 0.3944 0.3633 0.2381 0.0042 0.0001 0.0001 0.0001 0.0001 )	%  No  Yes  No  app 20  9-16  <26/3  Invorked
	       ( 0.7945 0.2035 0.002 0.0001 0.0001 0.0001 0.0001 0.0001 ))	%  No  Yes  No  app 20  9-16  <26/3  Placed
	      (( 0.1579 0.0622 0.1585 0.3525 0.2685 0.0003 0.0001 0.0001 )	%  No  Yes  No  app 20  9-16  26/3-10/4  Top dressed
	       ( 0.1579 0.0622 0.1585 0.3525 0.2685 0.0003 0.0001 0.0001 )	%  No  Yes  No  app 20  9-16  26/3-10/4  Invorked
	       ( 0.2289 0.1723 0.3674 0.2279 0.0034 0.0001 0.0001 0.0001 ))	%  No  Yes  No  app 20  9-16  26/3-10/4  Placed
	      (( 0.1192 0.0114 0.025 0.0588 0.2351 0.3871 0.1451 0.0184 )	%  No  Yes  No  app 20  9-16  10/4-20/4  Top dressed
	       ( 0.1192 0.0114 0.025 0.0588 0.2351 0.3871 0.1451 0.0184 )	%  No  Yes  No  app 20  9-16  10/4-20/4  Invorked
	       ( 0.132 0.0269 0.0637 0.1624 0.4839 0.1308 0.0003 0.0001 ))	%  No  Yes  No  app 20  9-16  10/4-20/4  Placed
	      (( 0.1128 0.0045 0.0093 0.0201 0.0724 0.1569 0.181 0.443 )	%  No  Yes  No  app 20  9-16  >20/4  Top dressed
	       ( 0.1128 0.0045 0.0093 0.0201 0.0724 0.1569 0.181 0.443 )	%  No  Yes  No  app 20  9-16  >20/4  Invorked
	       ( 0.1179 0.0099 0.0216 0.05 0.199 0.3657 0.191 0.0449 )))	%  No  Yes  No  app 20  9-16  >20/4  Placed
	     ((( 0.2579 0.2162 0.3912 0.1344 0.0003 0.0001 0.0001 0.0001 )	%  No  Yes  No  app 20  16-25  <26/3  Top dressed
	       ( 0.2579 0.2162 0.3912 0.1344 0.0003 0.0001 0.0001 0.0001 )	%  No  Yes  No  app 20  16-25  <26/3  Invorked
	       ( 0.5039 0.3912 0.1048 0.0001 0.0001 0.0001 0.0001 0.0001 ))	%  No  Yes  No  app 20  16-25  <26/3  Placed
	      (( 0.1368 0.033 0.08 0.2043 0.4869 0.0589 0.0001 0.0001 )	%  No  Yes  No  app 20  16-25  26/3-10/4  Top dressed
	       ( 0.1368 0.033 0.08 0.2043 0.4869 0.0589 0.0001 0.0001 )	%  No  Yes  No  app 20  16-25  26/3-10/4  Invorked
	       ( 0.1744 0.087 0.2213 0.3918 0.1256 0.0001 0.0001 0.0001 ))	%  No  Yes  No  app 20  16-25  26/3-10/4  Placed
	      (( 0.1149 0.0066 0.014 0.0313 0.1193 0.2557 0.239 0.2192 )	%  No  Yes  No  app 20  16-25  10/4-20/4  Top dressed
	       ( 0.1149 0.0066 0.014 0.0313 0.1193 0.2557 0.239 0.2192 )	%  No  Yes  No  app 20  16-25  10/4-20/4  Invorked
	       ( 0.1224 0.0151 0.0338 0.082 0.3224 0.3713 0.0519 0.0012 ))	%  No  Yes  No  app 20  16-25  10/4-20/4  Placed
	      (( 0.1111 0.0027 0.0054 0.0114 0.0387 0.0792 0.0956 0.6558 )	%  No  Yes  No  app 20  16-25  >20/4  Top dressed
	       ( 0.1111 0.0027 0.0054 0.0114 0.0387 0.0792 0.0956 0.6558 )	%  No  Yes  No  app 20  16-25  >20/4  Invorked
	       ( 0.1141 0.0058 0.0122 0.027 0.1009 0.2192 0.2259 0.295 )))	%  No  Yes  No  app 20  16-25  >20/4  Placed
	     ((( 0.1996 0.1262 0.304 0.3413 0.0289 0.0001 0.0001 0.0001 )	%  No  Yes  No  app 20  25-36  <26/3  Top dressed
	       ( 0.1996 0.1262 0.304 0.3413 0.0289 0.0001 0.0001 0.0001 )	%  No  Yes  No  app 20  25-36  <26/3  Invorked
	       ( 0.344 0.3229 0.3151 0.018 0.0001 0.0001 0.0001 0.0001 ))	%  No  Yes  No  app 20  25-36  <26/3  Placed
	      (( 0.127 0.0205 0.0474 0.1189 0.4248 0.2554 0.006 0.0001 )	%  No  Yes  No  app 20  25-36  26/3-10/4  Top dressed
	       ( 0.127 0.0205 0.0474 0.1189 0.4248 0.2554 0.006 0.0001 )	%  No  Yes  No  app 20  25-36  26/3-10/4  Invorked
	       ( 0.1503 0.0513 0.1294 0.3096 0.3564 0.003 0.0001 0.0001 ))	%  No  Yes  No  app 20  25-36  26/3-10/4  Placed
	      (( 0.1127 0.0043 0.0091 0.0195 0.0702 0.1519 0.1763 0.456 )	%  No  Yes  No  app 20  25-36  10/4-20/4  Top dressed
	       ( 0.1127 0.0043 0.0091 0.0195 0.0702 0.1519 0.1763 0.456 )	%  No  Yes  No  app 20  25-36  10/4-20/4  Invorked
	       ( 0.1176 0.0097 0.021 0.0485 0.1927 0.3602 0.1985 0.0518 ))	%  No  Yes  No  app 20  25-36  10/4-20/4  Placed
	      (( 0.1102 0.0018 0.0036 0.0074 0.0242 0.047 0.0551 0.7507 )	%  No  Yes  No  app 20  25-36  >20/4  Top dressed
	       ( 0.1102 0.0018 0.0036 0.0074 0.0242 0.047 0.0551 0.7507 )	%  No  Yes  No  app 20  25-36  >20/4  Invorked
	       ( 0.1122 0.0038 0.0079 0.0169 0.0599 0.1281 0.1523 0.5189 )))	%  No  Yes  No  app 20  25-36  >20/4  Placed
	     ((( 0.17 0.0802 0.2047 0.3884 0.1568 0.0001 0.0001 0.0001 )	%  No  Yes  No  app 20  36-49  <26/3  Top dressed
	       ( 0.17 0.0802 0.2047 0.3884 0.1568 0.0001 0.0001 0.0001 )	%  No  Yes  No  app 20  36-49  <26/3  Invorked
	       ( 0.2617 0.2216 0.3918 0.1247 0.0002 0.0001 0.0001 0.0001 ))	%  No  Yes  No  app 20  36-49  <26/3  Placed
	      (( 0.1215 0.0141 0.0314 0.0756 0.3 0.3837 0.0711 0.0026 )	%  No  Yes  No  app 20  36-49  26/3-10/4  Top dressed
	       ( 0.1215 0.0141 0.0314 0.0756 0.3 0.3837 0.0711 0.0026 )	%  No  Yes  No  app 20  36-49  26/3-10/4  Invorked
	       ( 0.1374 0.0338 0.0822 0.2096 0.4843 0.0526 0.0001 0.0001 ))	%  No  Yes  No  app 20  36-49  26/3-10/4  Placed
	      (( 0.1115 0.0031 0.0063 0.0134 0.0462 0.0963 0.1163 0.607 )	%  No  Yes  No  app 20  36-49  10/4-20/4  Top dressed
	       ( 0.1115 0.0031 0.0063 0.0134 0.0462 0.0963 0.1163 0.607 )	%  No  Yes  No  app 20  36-49  10/4-20/4  Invorked
	       ( 0.115 0.0068 0.0144 0.0321 0.1225 0.2617 0.24 0.2076 ))	%  No  Yes  No  app 20  36-49  10/4-20/4  Placed
	      (( 0.1097 0.0013 0.0025 0.0052 0.0166 0.0311 0.0354 0.7982 )	%  No  Yes  No  app 20  36-49  >20/4  Top dressed
	       ( 0.1097 0.0013 0.0025 0.0052 0.0166 0.0311 0.0354 0.7982 )	%  No  Yes  No  app 20  36-49  >20/4  Invorked
	       ( 0.1112 0.0027 0.0056 0.0117 0.0396 0.0814 0.0982 0.6497 )))	%  No  Yes  No  app 20  36-49  >20/4  Placed
	     ((( 0.1529 0.0551 0.1394 0.3262 0.325 0.0015 0.0001 0.0001 )	%  No  Yes  No  app 20  49-64  <26/3  Top dressed
	       ( 0.1529 0.0551 0.1394 0.3262 0.325 0.0015 0.0001 0.0001 )	%  No  Yes  No  app 20  49-64  <26/3  Invorked
	       ( 0.2157 0.1517 0.3439 0.2793 0.0094 0.0001 0.0001 0.0001 ))	%  No  Yes  No  app 20  49-64  <26/3  Placed
	      (( 0.1182 0.0103 0.0224 0.052 0.2074 0.3723 0.1806 0.0369 )	%  No  Yes  No  app 20  49-64  26/3-10/4  Top dressed
	       ( 0.1182 0.0103 0.0224 0.052 0.2074 0.3723 0.1806 0.0369 )	%  No  Yes  No  app 20  49-64  26/3-10/4  Invorked
	       ( 0.1298 0.024 0.0564 0.1429 0.4653 0.1805 0.0011 0.0001 ))	%  No  Yes  No  app 20  49-64  26/3-10/4  Placed
	      (( 0.1108 0.0023 0.0047 0.0098 0.0327 0.0657 0.0787 0.6954 )	%  No  Yes  No  app 20  49-64  10/4-20/4  Top dressed
	       ( 0.1108 0.0023 0.0047 0.0098 0.0327 0.0657 0.0787 0.6954 )	%  No  Yes  No  app 20  49-64  10/4-20/4  Invorked
	       ( 0.1133 0.005 0.0105 0.0228 0.0836 0.1821 0.2022 0.3803 ))	%  No  Yes  No  app 20  49-64  10/4-20/4  Placed
	      (( 0.1094 0.0009 0.0019 0.0039 0.0122 0.0222 0.0246 0.825 )	%  No  Yes  No  app 20  49-64  >20/4  Top dressed
	       ( 0.1094 0.0009 0.0019 0.0039 0.0122 0.0222 0.0246 0.825 )	%  No  Yes  No  app 20  49-64  >20/4  Invorked
	       ( 0.1105 0.002 0.0041 0.0086 0.0283 0.0558 0.0663 0.7245 )))	%  No  Yes  No  app 20  49-64  >20/4  Placed
	     ((( 0.1422 0.0401 0.099 0.2493 0.4489 0.0205 0.0001 0.0001 )	%  No  Yes  No  app 20  64-81  <26/3  Top dressed
	       ( 0.1422 0.0401 0.099 0.2493 0.4489 0.0205 0.0001 0.0001 )	%  No  Yes  No  app 20  64-81  <26/3  Invorked
	       ( 0.1879 0.1077 0.2681 0.3764 0.0599 0.0001 0.0001 0.0001 ))	%  No  Yes  No  app 20  64-81  <26/3  Placed
	      (( 0.116 0.0078 0.0168 0.038 0.1477 0.3046 0.2374 0.1316 )	%  No  Yes  No  app 20  64-81  26/3-10/4  Top dressed
	       ( 0.116 0.0078 0.0168 0.038 0.1477 0.3046 0.2374 0.1316 )	%  No  Yes  No  app 20  64-81  26/3-10/4  Invorked
	       ( 0.1248 0.018 0.041 0.1015 0.3827 0.3142 0.0176 0.0001 ))	%  No  Yes  No  app 20  64-81  26/3-10/4  Placed
	      (( 0.1103 0.0018 0.0036 0.0075 0.0245 0.0476 0.0559 0.749 )	%  No  Yes  No  app 20  64-81  10/4-20/4  Top dressed
	       ( 0.1103 0.0018 0.0036 0.0075 0.0245 0.0476 0.0559 0.749 )	%  No  Yes  No  app 20  64-81  10/4-20/4  Invorked
	       ( 0.1123 0.0039 0.008 0.0171 0.0606 0.1297 0.154 0.5145 ))	%  No  Yes  No  app 20  64-81  10/4-20/4  Placed
	      (( 0.1092 0.0007 0.0015 0.003 0.0093 0.0166 0.0181 0.8416 )	%  No  Yes  No  app 20  64-81  >20/4  Top dressed
	       ( 0.1092 0.0007 0.0015 0.003 0.0093 0.0166 0.0181 0.8416 )	%  No  Yes  No  app 20  64-81  >20/4  Invorked
	       ( 0.11 0.0016 0.0032 0.0066 0.0212 0.0406 0.0472 0.7696 )))	%  No  Yes  No  app 20  64-81  >20/4  Placed
	     ((( 0.1349 0.0306 0.0735 0.1877 0.491 0.0823 0.0001 0.0001 )	%  No  Yes  No  app 20  81-100  <26/3  Top dressed
	       ( 0.1349 0.0306 0.0735 0.1877 0.491 0.0823 0.0001 0.0001 )	%  No  Yes  No  app 20  81-100  <26/3  Invorked
	       ( 0.1697 0.0798 0.2036 0.388 0.1589 0.0001 0.0001 0.0001 ))	%  No  Yes  No  app 20  81-100  <26/3  Placed
	      (( 0.1145 0.0062 0.0131 0.029 0.1094 0.2365 0.2334 0.258 )	%  No  Yes  No  app 20  81-100  26/3-10/4  Top dressed
	       ( 0.1145 0.0062 0.0131 0.029 0.1094 0.2365 0.2334 0.258 )	%  No  Yes  No  app 20  81-100  26/3-10/4  Invorked
	       ( 0.1215 0.014 0.0312 0.0752 0.2985 0.3843 0.0725 0.0028 ))	%  No  Yes  No  app 20  81-100  26/3-10/4  Placed
	      (( 0.1099 0.0014 0.0029 0.0059 0.019 0.036 0.0415 0.7834 )	%  No  Yes  No  app 20  81-100  10/4-20/4  Top dressed
	       ( 0.1099 0.0014 0.0029 0.0059 0.019 0.036 0.0415 0.7834 )	%  No  Yes  No  app 20  81-100  10/4-20/4  Invorked
	       ( 0.1115 0.0031 0.0063 0.0133 0.0459 0.0958 0.1156 0.6084 ))	%  No  Yes  No  app 20  81-100  10/4-20/4  Placed
	      (( 0.1091 0.0006 0.0012 0.0024 0.0073 0.013 0.0139 0.8526 )	%  No  Yes  No  app 20  81-100  >20/4  Top dressed
	       ( 0.1091 0.0006 0.0012 0.0024 0.0073 0.013 0.0139 0.8526 )	%  No  Yes  No  app 20  81-100  >20/4  Invorked
	       ( 0.1097 0.0012 0.0025 0.0052 0.0165 0.031 0.0352 0.7986 )))	%  No  Yes  No  app 20  81-100  >20/4  Placed
	     ((( 0.1199 0.0123 0.027 0.0642 0.2566 0.3917 0.1182 0.0102 )	%  No  Yes  No  app 20  >100  <26/3  Top dressed
	       ( 0.1199 0.0123 0.027 0.0642 0.2566 0.3917 0.1182 0.0102 )	%  No  Yes  No  app 20  >100  <26/3  Invorked
	       ( 0.1338 0.0291 0.0696 0.1778 0.4903 0.0993 0.0001 0.0001 ))	%  No  Yes  No  app 20  >100  <26/3  Placed
	      (( 0.1112 0.0027 0.0056 0.0117 0.0397 0.0814 0.0982 0.6496 )	%  No  Yes  No  app 20  >100  26/3-10/4  Top dressed
	       ( 0.1112 0.0027 0.0056 0.0117 0.0397 0.0814 0.0982 0.6496 )	%  No  Yes  No  app 20  >100  26/3-10/4  Invorked
	       ( 0.1142 0.0059 0.0125 0.0276 0.1036 0.2248 0.2286 0.2829 ))	%  No  Yes  No  app 20  >100  26/3-10/4  Placed
	      (( 0.1091 0.0006 0.0013 0.0026 0.008 0.0142 0.0153 0.8488 )	%  No  Yes  No  app 20  >100  10/4-20/4  Top dressed
	       ( 0.1091 0.0006 0.0013 0.0026 0.008 0.0142 0.0153 0.8488 )	%  No  Yes  No  app 20  >100  10/4-20/4  Invorked
	       ( 0.1098 0.0014 0.0028 0.0057 0.0182 0.0343 0.0393 0.7886 ))	%  No  Yes  No  app 20  >100  10/4-20/4  Placed
	      (( 0.1088 0.0003 0.0005 0.0011 0.0032 0.0055 0.0057 0.875 )	%  No  Yes  No  app 20  >100  >20/4  Top dressed
	       ( 0.1088 0.0003 0.0005 0.0011 0.0032 0.0055 0.0057 0.875 )	%  No  Yes  No  app 20  >100  >20/4  Invorked
	       ( 0.1091 0.0006 0.0011 0.0023 0.007 0.0124 0.0133 0.8543 )))))	%  No  Yes  No  app 20  >100  >20/4  Placed
	   ((((( 1 0.0001 0.0001 0.0001 0.0001 0.0001 0.0001 0.0001 )	%  No  Yes  Yes 1 time  app 12  <1  <26/3  Top dressed
	       ( 1 0.0001 0.0001 0.0001 0.0001 0.0001 0.0001 0.0001 )	%  No  Yes  Yes 1 time  app 12  <1  <26/3  Invorked
	       ( 1 0.0001 0.0001 0.0001 0.0001 0.0001 0.0001 0.0001 ))	%  No  Yes  Yes 1 time  app 12  <1  <26/3  Placed
	      (( 1 0.0001 0.0001 0.0001 0.0001 0.0001 0.0001 0.0001 )	%  No  Yes  Yes 1 time  app 12  <1  26/3-10/4  Top dressed
	       ( 1 0.0001 0.0001 0.0001 0.0001 0.0001 0.0001 0.0001 )	%  No  Yes  Yes 1 time  app 12  <1  26/3-10/4  Invorked
	       ( 1 0.0001 0.0001 0.0001 0.0001 0.0001 0.0001 0.0001 ))	%  No  Yes  Yes 1 time  app 12  <1  26/3-10/4  Placed
	      (( 0.9851 0.0149 0.0001 0.0001 0.0001 0.0001 0.0001 0.0001 )	%  No  Yes  Yes 1 time  app 12  <1  10/4-20/4  Top dressed
	       ( 0.9851 0.0149 0.0001 0.0001 0.0001 0.0001 0.0001 0.0001 )	%  No  Yes  Yes 1 time  app 12  <1  10/4-20/4  Invorked
	       ( 1 0.0001 0.0001 0.0001 0.0001 0.0001 0.0001 0.0001 ))	%  No  Yes  Yes 1 time  app 12  <1  10/4-20/4  Placed
	      (( 0.571 0.3733 0.0556 0.0001 0.0001 0.0001 0.0001 0.0001 )	%  No  Yes  Yes 1 time  app 12  <1  >20/4  Top dressed
	       ( 0.571 0.3733 0.0556 0.0001 0.0001 0.0001 0.0001 0.0001 )	%  No  Yes  Yes 1 time  app 12  <1  >20/4  Invorked
	       ( 0.9619 0.0381 0.0001 0.0001 0.0001 0.0001 0.0001 0.0001 )))	%  No  Yes  Yes 1 time  app 12  <1  >20/4  Placed
	     ((( 1 0.0001 0.0001 0.0001 0.0001 0.0001 0.0001 0.0001 )	%  No  Yes  Yes 1 time  app 12  1-4  <26/3  Top dressed
	       ( 1 0.0001 0.0001 0.0001 0.0001 0.0001 0.0001 0.0001 )	%  No  Yes  Yes 1 time  app 12  1-4  <26/3  Invorked
	       ( 1 0.0001 0.0001 0.0001 0.0001 0.0001 0.0001 0.0001 ))	%  No  Yes  Yes 1 time  app 12  1-4  <26/3  Placed
	      (( 0.636 0.3372 0.0268 0.0001 0.0001 0.0001 0.0001 0.0001 )	%  No  Yes  Yes 1 time  app 12  1-4  26/3-10/4  Top dressed
	       ( 0.636 0.3372 0.0268 0.0001 0.0001 0.0001 0.0001 0.0001 )	%  No  Yes  Yes 1 time  app 12  1-4  26/3-10/4  Invorked
	       ( 0.9835 0.0165 0.0001 0.0001 0.0001 0.0001 0.0001 0.0001 ))	%  No  Yes  Yes 1 time  app 12  1-4  26/3-10/4  Placed
	      (( 0.196 0.1206 0.2937 0.3534 0.0363 0.0001 0.0001 0.0001 )	%  No  Yes  Yes 1 time  app 12  1-4  10/4-20/4  Top dressed
	       ( 0.196 0.1206 0.2937 0.3534 0.0363 0.0001 0.0001 0.0001 )	%  No  Yes  Yes 1 time  app 12  1-4  10/4-20/4  Invorked
	       ( 0.334 0.3128 0.3298 0.0234 0.0001 0.0001 0.0001 0.0001 ))	%  No  Yes  Yes 1 time  app 12  1-4  10/4-20/4  Placed
	      (( 0.1406 0.038 0.0935 0.2366 0.463 0.0283 0.0001 0.0001 )	%  No  Yes  Yes 1 time  app 12  1-4  >20/4  Top dressed
	       ( 0.1406 0.038 0.0935 0.2366 0.463 0.0283 0.0001 0.0001 )	%  No  Yes  Yes 1 time  app 12  1-4  >20/4  Invorked
	       ( 0.184 0.1017 0.2551 0.3842 0.0751 0.0001 0.0001 0.0001 )))	%  No  Yes  Yes 1 time  app 12  1-4  >20/4  Placed
	     ((( 0.8741 0.1257 0.0002 0.0001 0.0001 0.0001 0.0001 0.0001 )	%  No  Yes  Yes 1 time  app 12  5-9  <26/3  Top dressed
	       ( 0.8741 0.1257 0.0002 0.0001 0.0001 0.0001 0.0001 0.0001 )	%  No  Yes  Yes 1 time  app 12  5-9  <26/3  Invorked
	       ( 0.9999 0.0001 0.0001 0.0001 0.0001 0.0001 0.0001 0.0001 ))	%  No  Yes  Yes 1 time  app 12  5-9  <26/3  Placed
