net
{
    node_size = (80 40);
    HR_Node_Label_Style = "0";
    HR_Desc = "When bying a new car, the buyer can choose to perform any of two possible tests, and then make a decision on whether or not to buy the car.";
    HR_OOBN_FitExpand = "1";
    HR_Zoom_ZoomFactor = "100";
    HR_Color_Interface = "21";
    HR_Color_Instance = "0";
    HR_Color_ContinuousChance = "32";
    HR_Compile_MaxMinimalSeparators = "100000";
    HR_Grid_X = "10";
    HR_Grid_Y = "10";
    HR_Grid_GridSnap = "1";
    HR_Grid_GridShow = "0";
    HR_Font_Name = "Arial";
    HR_Font_Size = "-12";
    HR_Font_Weight = "400";
    HR_Font_Italic = "0";
    HR_Propagate_Auto = "0";
    HR_Propagate_AutoSum = "1";
    HR_Propagate_AutoNormal = "1";
    HR_Compile_TriangMethod = "0";
    HR_Compile_Compress = "0";
    HR_Compile_Approximate = "0";
    HR_Compile_ApproxEpsilon = "0.00001";
    HR_Monitor_AutoUpdGraph = "0";
    HR_Monitor_GraphPrecision = "100";
    HR_Monitor_OpenGraph = "0";
    HR_Monitor_InitStates = "5";
    HR_Monitor_InitSD = "2";
    HR_Color_DiscreteChance = "16";
    HR_Color_ContinuosChance = "48";
    HR_Color_Utility = "36";
    HR_Color_Decision = "17";
    HR_Groups_UserGroupsNo = "0";
    HR_Groups_GroupNames = "test\t";
    HR_Groups_GroupColors = "47";
    HRUNTIME_Monitor_InitStates = "5";
    HRUNTIME_Monitor_OpenGraph = "0";
    HRUNTIME_Monitor_GraphPrecision = "100";
    HRUNTIME_Monitor_AutoUpdGraph = "0";
    HRUNTIME_Compile_ApproxEpsilon = "0.00001";
    HRUNTIME_Compile_Approximate = "0";
    HRUNTIME_Compile_Compress = "0";
    HRUNTIME_Compile_TriangMethod = "0";
    HRUNTIME_Propagate_AutoNormal = "1";
    HRUNTIME_Propagate_AutoSum = "1";
    HRUNTIME_Propagate_Auto = "0";
    HRUNTIME_Font_Italic = "0";
    HRUNTIME_Font_Weight = "400";
    HRUNTIME_Font_Size = "-12";
    HRUNTIME_Font_Name = "Arial";
    HRUNTIME_Grid_GridShow = "0";
    HRUNTIME_Grid_GridSnap = "1";
    HRUNTIME_Grid_Y = "10";
    HRUNTIME_Grid_X = "10";
}

decision D1
{
    label = "T1: Do test 1?";
    position = (50 220);
    states = ("no test" "steering" "fuel/elect" "transmission");
}

decision D2
{
    label = "T2: Do test 2?";
    position = (180 260);
    states = ("no test" "differential");
}

decision D3
{
    label = "B: Buy it?";
    position = (300 210);
    states = ("do not buy" "buy" "buy guaranteed");
}

utility U4
{
    label = "V:Profit";
    position = (300 90);
}

node C5
{
    label = "R1: Test 1 result";
    position = (50 100);
    states = ("no result" "no defect" "one defect" "two defect");
}

node C6
{
    label = "R2: Test 2 result";
    position = (180 100);
    states = ("no result" "no defect" "one defect");
}

node C7
{
    label = "CC:Condition";
    position = (100 30);
    states = ("peach" "lemon");
}

potential (D1) {}

potential (D2 | D1 C5) {}

potential (D3 | D2 D1 C5 C6) {}

potential (U4 | D1 D2 D3 C7)
{
    data
     = (((( 0	%  D1=no test  D2=no test  D3=do not buy  C7=peach
	    0 )	%  D1=no test  D2=no test  D3=do not buy  C7=lemon
	  ( 60	%  D1=no test  D2=no test  D3=buy  C7=peach
	    -100 )	%  D1=no test  D2=no test  D3=buy  C7=lemon
	  ( 20	%  D1=no test  D2=no test  D3=buy guaranteed  C7=peach
	    40 ))	%  D1=no test  D2=no test  D3=buy guaranteed  C7=lemon
	 (( -1000	%  D1=no test  D2=differential  D3=do not buy  C7=peach
	    -1000 )	%  D1=no test  D2=differential  D3=do not buy  C7=lemon
	  ( -1000	%  D1=no test  D2=differential  D3=buy  C7=peach
	    -1000 )	%  D1=no test  D2=differential  D3=buy  C7=lemon
	  ( -1000	%  D1=no test  D2=differential  D3=buy guaranteed  C7=peach
	    -1000 )))	%  D1=no test  D2=differential  D3=buy guaranteed  C7=lemon
	((( -9	%  D1=steering  D2=no test  D3=do not buy  C7=peach
	    -9 )	%  D1=steering  D2=no test  D3=do not buy  C7=lemon
	  ( 51	%  D1=steering  D2=no test  D3=buy  C7=peach
	    -109 )	%  D1=steering  D2=no test  D3=buy  C7=lemon
	  ( 11	%  D1=steering  D2=no test  D3=buy guaranteed  C7=peach
	    31 ))	%  D1=steering  D2=no test  D3=buy guaranteed  C7=lemon
	 (( -1000	%  D1=steering  D2=differential  D3=do not buy  C7=peach
	    -1000 )	%  D1=steering  D2=differential  D3=do not buy  C7=lemon
	  ( -1000	%  D1=steering  D2=differential  D3=buy  C7=peach
	    -1000 )	%  D1=steering  D2=differential  D3=buy  C7=lemon
	  ( -1000	%  D1=steering  D2=differential  D3=buy guaranteed  C7=peach
	    -1000 )))	%  D1=steering  D2=differential  D3=buy guaranteed  C7=lemon
	((( -13	%  D1=fuel/elect  D2=no test  D3=do not buy  C7=peach
	    -13 )	%  D1=fuel/elect  D2=no test  D3=do not buy  C7=lemon
	  ( 47	%  D1=fuel/elect  D2=no test  D3=buy  C7=peach
	    -113 )	%  D1=fuel/elect  D2=no test  D3=buy  C7=lemon
	  ( 7	%  D1=fuel/elect  D2=no test  D3=buy guaranteed  C7=peach
	    27 ))	%  D1=fuel/elect  D2=no test  D3=buy guaranteed  C7=lemon
	 (( -1000	%  D1=fuel/elect  D2=differential  D3=do not buy  C7=peach
	    -1000 )	%  D1=fuel/elect  D2=differential  D3=do not buy  C7=lemon
	  ( -1000	%  D1=fuel/elect  D2=differential  D3=buy  C7=peach
	    -1000 )	%  D1=fuel/elect  D2=differential  D3=buy  C7=lemon
	  ( -1000	%  D1=fuel/elect  D2=differential  D3=buy guaranteed  C7=peach
	    -1000 )))	%  D1=fuel/elect  D2=differential  D3=buy guaranteed  C7=lemon
	((( -10	%  D1=transmission  D2=no test  D3=do not buy  C7=peach
	    -10 )	%  D1=transmission  D2=no test  D3=do not buy  C7=lemon
	  ( 50	%  D1=transmission  D2=no test  D3=buy  C7=peach
	    -110 )	%  D1=transmission  D2=no test  D3=buy  C7=lemon
	  ( 10	%  D1=transmission  D2=no test  D3=buy guaranteed  C7=peach
	    30 ))	%  D1=transmission  D2=no test  D3=buy guaranteed  C7=lemon
	 (( -14	%  D1=transmission  D2=differential  D3=do not buy  C7=peach
	    -14 )	%  D1=transmission  D2=differential  D3=do not buy  C7=lemon
	  ( 46	%  D1=transmission  D2=differential  D3=buy  C7=peach
	    -114 )	%  D1=transmission  D2=differential  D3=buy  C7=lemon
	  ( 6	%  D1=transmission  D2=differential  D3=buy guaranteed  C7=peach
	    26 ))));	%  D1=transmission  D2=differential  D3=buy guaranteed  C7=lemon
}

potential (C5 | D1 C7)
{
    data
     = ((( 1 0 0 0 )	%  D1=no test  C7=peach
	 ( 1 0 0 0 ))	%  D1=no test  C7=lemon
	(( 0 0.9 0.1 0 )	%  D1=steering  C7=peach
	 ( 0 0.4 0.6 0 ))	%  D1=steering  C7=lemon
	(( 0 0.8 0.2 0 )	%  D1=fuel/elect  C7=peach
	 ( 0 0.133331 0.533335 0.333333 ))	%  D1=fuel/elect  C7=lemon
	(( 0 0.9 0.1 0 )	%  D1=transmission  C7=peach
	 ( 0 0.4 0.6 0 )));	%  D1=transmission  C7=lemon
}

potential (C6 | D1 C5 D2 C7)
{
    data
     = ((((( 1 0 0 )	%  D1=no test  C5=no result  D2=no test  C7=peach
	   ( 1 0 0 ))	%  D1=no test  C5=no result  D2=no test  C7=lemon
	  (( 1 0 0 )	%  D1=no test  C5=no result  D2=differential  C7=peach
	   ( 1 0 0 )))	%  D1=no test  C5=no result  D2=differential  C7=lemon
	 ((( 1 0 0 )	%  D1=no test  C5=no defect  D2=no test  C7=peach
	   ( 1 0 0 ))	%  D1=no test  C5=no defect  D2=no test  C7=lemon
	  (( 1 0 0 )	%  D1=no test  C5=no defect  D2=differential  C7=peach
	   ( 1 0 0 )))	%  D1=no test  C5=no defect  D2=differential  C7=lemon
	 ((( 1 0 0 )	%  D1=no test  C5=one defect  D2=no test  C7=peach
	   ( 1 0 0 ))	%  D1=no test  C5=one defect  D2=no test  C7=lemon
	  (( 1 0 0 )	%  D1=no test  C5=one defect  D2=differential  C7=peach
	   ( 1 0 0 )))	%  D1=no test  C5=one defect  D2=differential  C7=lemon
	 ((( 1 0 0 )	%  D1=no test  C5=two defect  D2=no test  C7=peach
	   ( 1 0 0 ))	%  D1=no test  C5=two defect  D2=no test  C7=lemon
	  (( 1 0 0 )	%  D1=no test  C5=two defect  D2=differential  C7=peach
	   ( 1 0 0 ))))	%  D1=no test  C5=two defect  D2=differential  C7=lemon
	(((( 1 0 0 )	%  D1=steering  C5=no result  D2=no test  C7=peach
	   ( 1 0 0 ))	%  D1=steering  C5=no result  D2=no test  C7=lemon
	  (( 1 0 0 )	%  D1=steering  C5=no result  D2=differential  C7=peach
	   ( 1 0 0 )))	%  D1=steering  C5=no result  D2=differential  C7=lemon
	 ((( 1 0 0 )	%  D1=steering  C5=no defect  D2=no test  C7=peach
	   ( 1 0 0 ))	%  D1=steering  C5=no defect  D2=no test  C7=lemon
	  (( 1 0 0 )	%  D1=steering  C5=no defect  D2=differential  C7=peach
	   ( 1 0 0 )))	%  D1=steering  C5=no defect  D2=differential  C7=lemon
	 ((( 1 0 0 )	%  D1=steering  C5=one defect  D2=no test  C7=peach
	   ( 1 0 0 ))	%  D1=steering  C5=one defect  D2=no test  C7=lemon
	  (( 1 0 0 )	%  D1=steering  C5=one defect  D2=differential  C7=peach
	   ( 1 0 0 )))	%  D1=steering  C5=one defect  D2=differential  C7=lemon
	 ((( 1 0 0 )	%  D1=steering  C5=two defect  D2=no test  C7=peach
	   ( 1 0 0 ))	%  D1=steering  C5=two defect  D2=no test  C7=lemon
	  (( 1 0 0 )	%  D1=steering  C5=two defect  D2=differential  C7=peach
	   ( 1 0 0 ))))	%  D1=steering  C5=two defect  D2=differential  C7=lemon
	(((( 1 0 0 )	%  D1=fuel/elect  C5=no result  D2=no test  C7=peach
	   ( 1 0 0 ))	%  D1=fuel/elect  C5=no result  D2=no test  C7=lemon
	  (( 1 0 0 )	%  D1=fuel/elect  C5=no result  D2=differential  C7=peach
	   ( 1 0 0 )))	%  D1=fuel/elect  C5=no result  D2=differential  C7=lemon
	 ((( 1 0 0 )	%  D1=fuel/elect  C5=no defect  D2=no test  C7=peach
	   ( 1 0 0 ))	%  D1=fuel/elect  C5=no defect  D2=no test  C7=lemon
	  (( 1 0 0 )	%  D1=fuel/elect  C5=no defect  D2=differential  C7=peach
	   ( 1 0 0 )))	%  D1=fuel/elect  C5=no defect  D2=differential  C7=lemon
	 ((( 1 0 0 )	%  D1=fuel/elect  C5=one defect  D2=no test  C7=peach
	   ( 1 0 0 ))	%  D1=fuel/elect  C5=one defect  D2=no test  C7=lemon
	  (( 1 0 0 )	%  D1=fuel/elect  C5=one defect  D2=differential  C7=peach
	   ( 1 0 0 )))	%  D1=fuel/elect  C5=one defect  D2=differential  C7=lemon
	 ((( 1 0 0 )	%  D1=fuel/elect  C5=two defect  D2=no test  C7=peach
	   ( 1 0 0 ))	%  D1=fuel/elect  C5=two defect  D2=no test  C7=lemon
	  (( 1 0 0 )	%  D1=fuel/elect  C5=two defect  D2=differential  C7=peach
	   ( 1 0 0 ))))	%  D1=fuel/elect  C5=two defect  D2=differential  C7=lemon
	(((( 1 0 0 )	%  D1=transmission  C5=no result  D2=no test  C7=peach
	   ( 1 0 0 ))	%  D1=transmission  C5=no result  D2=no test  C7=lemon
	  (( 1 0 0 )	%  D1=transmission  C5=no result  D2=differential  C7=peach
	   ( 1 0 0 )))	%  D1=transmission  C5=no result  D2=differential  C7=lemon
	 ((( 1 0 0 )	%  D1=transmission  C5=no defect  D2=no test  C7=peach
	   ( 1 0 0 ))	%  D1=transmission  C5=no defect  D2=no test  C7=lemon
	  (( 1 0 0 )	%  D1=transmission  C5=no defect  D2=differential  C7=peach
	   ( 0 0.88889 0.11111 )))	%  D1=transmission  C5=no defect  D2=differential  C7=lemon
	 ((( 0 0.66667 0.33333 )	%  D1=transmission  C5=one defect  D2=no test  C7=peach
	   ( 1 0 0 ))	%  D1=transmission  C5=one defect  D2=no test  C7=lemon
	  (( 0 1 0 )	%  D1=transmission  C5=one defect  D2=differential  C7=peach
	   ( 0 0.44444 0.55556 )))	%  D1=transmission  C5=one defect  D2=differential  C7=lemon
	 ((( 1 0 0 )	%  D1=transmission  C5=two defect  D2=no test  C7=peach
	   ( 1 0 0 ))	%  D1=transmission  C5=two defect  D2=no test  C7=lemon
	  (( 1 0 0 )	%  D1=transmission  C5=two defect  D2=differential  C7=peach
	   ( 1 0 0 )))));	%  D1=transmission  C5=two defect  D2=differential  C7=lemon
}

potential (C7)
{
    data = ( 0.8 0.2 );
}
