net
{
    node_size = (100 40);
    HRUNTIME_Monitor_InitStates = "5";
    HRUNTIME_Monitor_OpenGraph = "0";
    HRUNTIME_Monitor_GraphPrecision = "100";
    HRUNTIME_Monitor_AutoUpdGraph = "0";
    HRUNTIME_Compile_ApproxEpsilon = "0.00001";
    HRUNTIME_Compile_Approximate = "0";
    HRUNTIME_Compile_Compress = "0";
    HRUNTIME_Compile_TriangMethod = "0";
    HRUNTIME_Propagate_AutoNormal = "1";
    HRUNTIME_Propagate_AutoSum = "1";
    HRUNTIME_Propagate_Auto = "0";
    HRUNTIME_Font_Italic = "0";
    HRUNTIME_Font_Weight = "400";
    HRUNTIME_Font_Size = "-12";
    HRUNTIME_Font_Name = "Arial";
    HRUNTIME_Grid_GridShow = "0";
    HRUNTIME_Grid_GridSnap = "1";
    HRUNTIME_Grid_Y = "10";
    HRUNTIME_Grid_X = "10";
}

node FC
{
    label = "";
    position = (309 297);
    states = ("o changed" "1 changed" "2 changed" "3 changed");
}

node OH0
{
    label = "";
    position = (169 355);
    states = ("no" "1a" "2 cons" "2 s" "2 v" "fl" "st" "3 v" "stfl");
}

node SC
{
    label = "";
    position = (309 185);
    states = ("0 Changed" "1 Changed" "2 Changed");
}

node OH1
{
    label = "";
    position = (169 242);
    states = ("no" "1 a" "2 cons" "2 s" "2 v" "fl" "st" "3 v" "stfl");
}

node MH
{
    label = "";
    position = (0 129);
    states = ("no" "1 a" "2 v" "2 a" "fl" "st" "3 v" "stfl");
}

node OH2
{
    label = "";
    position = (169 128);
    states = ("no" "1 a" "2 v" "2 a" "fl" "st" "3 v" "stfl");
}

node Besthand
{
    label = "";
    position = (87 0);
    states = ("myhand" "opponent");
}

potential (FC | OH0)
{
    data
     = (( 0 0 0 1 )	%  OH0=no
	( 0 0 1 0 )	%  OH0=1a
	( 0 1 0 0 )	%  OH0=2 cons
	( 0 1 0 0 )	%  OH0=2 s
	( 0 1 0 0 )	%  OH0=2 v
	( 1 0 0 0 )	%  OH0=fl
	( 1 0 0 0 )	%  OH0=st
	( 1 0 0 0 )	%  OH0=3 v
	( 1 0 0 0 ));	%  OH0=stfl
}

potential (OH0)
{
    data = ( 0.1672 0.0445 0.0635 0.4659 0.1694 0.0494 0.0353 0.0024 0.0024 );
}

potential (SC | OH1)
{
    data
     = (( 0 0 1 )	%  OH1=no
	( 0 0 1 )	%  OH1=1 a
	( 0 1 0 )	%  OH1=2 cons
	( 0 1 0 )	%  OH1=2 s
	( 0 1 0 )	%  OH1=2 v
	( 1 0 0 )	%  OH1=fl
	( 1 0 0 )	%  OH1=st
	( 1 0 0 )	%  OH1=3 v
	( 1 0 0 ));	%  OH1=stfl
}

potential (OH1 | FC OH0)
{
    data
     = ((( 1 0 0 0 0 0 0 0 0 )	%  FC=o changed  OH0=no
	 ( 0 1 0 0 0 0 0 0 0 )	%  FC=o changed  OH0=1a
	 ( 0 0 1 0 0 0 0 0 0 )	%  FC=o changed  OH0=2 cons
	 ( 0 0 0 1 0 0 0 0 0 )	%  FC=o changed  OH0=2 s
	 ( 0 0 0 0 1 0 0 0 0 )	%  FC=o changed  OH0=2 v
	 ( 0 0 0 0 0 1 0 0 0 )	%  FC=o changed  OH0=fl
	 ( 0 0 0 0 0 0 1 0 0 )	%  FC=o changed  OH0=st
	 ( 0 0 0 0 0 0 0 1 0 )	%  FC=o changed  OH0=3 v
	 ( 0 0 0 0 0 0 0 0 1 ))	%  FC=o changed  OH0=stfl
	(( 1 0 0 0 0 0 0 0 0 )	%  FC=1 changed  OH0=no
	 ( 0 1 0 0 0 0 0 0 0 )	%  FC=1 changed  OH0=1a
	 ( 0 0 0.347 0.3674 0.1224 0 0.1632 0 0 )	%  FC=1 changed  OH0=2 cons
	 ( 0 0 0 0.6224 0.1224 0.2143 0.0307 0 0.0102 )	%  FC=1 changed  OH0=2 s
	 ( 0 0 0 0 0.9592 0 0 0.0408 0 )	%  FC=1 changed  OH0=2 v
	 ( 0 0 1 0 0 0 0 0 0 )	%  FC=1 changed  OH0=fl
	 ( 0 0 0 1 0 0 0 0 0 )	%  FC=1 changed  OH0=st
	 ( 0 0 0 0 1 0 0 0 0 )	%  FC=1 changed  OH0=3 v
	 ( 0 0 0 0 0 0.5 0.5 0 0 ))	%  FC=1 changed  OH0=stfl
	(( 1 0 0 0 0 0 0 0 0 )	%  FC=2 changed  OH0=no
	 ( 0 0.1814 0.0681 0.4796 0.1738 0.0536 0.0383 0.0026 0.0026 )	%  FC=2 changed  OH0=1a
	 ( 1 0 0 0 0 0 0 0 0 )	%  FC=2 changed  OH0=2 cons
	 ( 1 0 0 0 0 0 0 0 0 )	%  FC=2 changed  OH0=2 s
	 ( 1 0 0 0 0 0 0 0 0 )	%  FC=2 changed  OH0=2 v
	 ( 1 0 0 0 0 0 0 0 0 )	%  FC=2 changed  OH0=fl
	 ( 1 0 0 0 0 0 0 0 0 )	%  FC=2 changed  OH0=st
	 ( 1 0 0 0 0 0 0 0 0 )	%  FC=2 changed  OH0=3 v
	 ( 1 0 0 0 0 0 0 0 0 ))	%  FC=2 changed  OH0=stfl
	(( 0.1583 0.0534 0.0635 0.4659 0.1694 0.0494 0.0353 0.0024 0.0024 )	%  FC=3 changed  OH0=no
	 ( 0 1 0 0 0 0 0 0 0 )	%  FC=3 changed  OH0=1a
	 ( 0 0 1 0 0 0 0 0 0 )	%  FC=3 changed  OH0=2 cons
	 ( 0 0 0 1 0 0 0 0 0 )	%  FC=3 changed  OH0=2 s
	 ( 0 0 0 0 1 0 0 0 0 )	%  FC=3 changed  OH0=2 v
	 ( 0 0 0 0 0 1 0 0 0 )	%  FC=3 changed  OH0=fl
	 ( 0 0 0 0 0 0 1 0 0 )	%  FC=3 changed  OH0=st
	 ( 0 0 0 0 0 0 0 1 0 )	%  FC=3 changed  OH0=3 v
	 ( 0 0 0 0 0 0 0 0 1 )));	%  FC=3 changed  OH0=stfl
}

potential (MH)
{
    data = ( 0.125 0.125 0.125 0.125 0.125 0.125 0.125 0.125 );
}

potential (OH2 | SC OH1)
{
    data
     = ((( 1 0 0 0 0 0 0 0 )	%  SC=0 Changed  OH1=no
	 ( 0 1 0 0 0 0 0 0 )	%  SC=0 Changed  OH1=1 a
	 ( 1 0 0 0 0 0 0 0 )	%  SC=0 Changed  OH1=2 cons
	 ( 1 0 0 0 0 0 0 0 )	%  SC=0 Changed  OH1=2 s
	 ( 0 0 0.9231 0.0769 0 0 0 0 )	%  SC=0 Changed  OH1=2 v
	 ( 0 0 0 0 1 0 0 0 )	%  SC=0 Changed  OH1=fl
	 ( 0 0 0 0 0 1 0 0 )	%  SC=0 Changed  OH1=st
	 ( 0 0 0 0 0 0 1 0 )	%  SC=0 Changed  OH1=3 v
	 ( 0 0 0 0 0 0 0 1 ))	%  SC=0 Changed  OH1=stfl
	(( 1 0 0 0 0 0 0 0 )	%  SC=1 Changed  OH1=no
	 ( 0 1 0 0 0 0 0 0 )	%  SC=1 Changed  OH1=1 a
	 ( 0.5903 0.1181 0.1154 0.0096 0 0.1666 0 0 )	%  SC=1 Changed  OH1=2 cons
	 ( 0.5121 0.1024 0.1154 0.0096 0.2188 0.0313 0 0.0104 )	%  SC=1 Changed  OH1=2 s
	 ( 0 0 0.8838 0.0736 0 0 0.0426 0 )	%  SC=1 Changed  OH1=2 v
	 ( 0 0 0 0 1 0 0 0 )	%  SC=1 Changed  OH1=fl
	 ( 0 0 0 0 0 1 0 0 )	%  SC=1 Changed  OH1=st
	 ( 0 0 0 0 0 0 1 0 )	%  SC=1 Changed  OH1=3 v
	 ( 0 0 0 0 0 0 0 1 ))	%  SC=1 Changed  OH1=stfl
	(( 0.5613 0.157 0.1757 0.0055 0.0559 0.0392 0.0027 0.0027 )	%  SC=2 Changed  OH1=no
	 ( 0 0.7183 0.0667 0.1145 0.0559 0.0392 0.0027 0.0027 )	%  SC=2 Changed  OH1=1 a
	 ( 1 0 0 0 0 0 0 0 )	%  SC=2 Changed  OH1=2 cons
	 ( 1 0 0 0 0 0 0 0 )	%  SC=2 Changed  OH1=2 s
	 ( 1 0 0 0 0 0 0 0 )	%  SC=2 Changed  OH1=2 v
	 ( 1 0 0 0 0 0 0 0 )	%  SC=2 Changed  OH1=fl
	 ( 1 0 0 0 0 0 0 0 )	%  SC=2 Changed  OH1=st
	 ( 1 0 0 0 0 0 0 0 )	%  SC=2 Changed  OH1=3 v
	 ( 1 0 0 0 0 0 0 0 )));	%  SC=2 Changed  OH1=stfl
}

potential (Besthand | MH OH2)
{
    data
     = ((( 0.5 0.5 )	%  MH=no  OH2=no
	 ( 0 1 )	%  MH=no  OH2=1 a
	 ( 0 1 )	%  MH=no  OH2=2 v
	 ( 0 1 )	%  MH=no  OH2=2 a
	 ( 0 1 )	%  MH=no  OH2=fl
	 ( 0 1 )	%  MH=no  OH2=st
	 ( 0 1 )	%  MH=no  OH2=3 v
	 ( 0 1 ))	%  MH=no  OH2=stfl
	(( 1 0 )	%  MH=1 a  OH2=no
	 ( 0.5 0.5 )	%  MH=1 a  OH2=1 a
	 ( 0 1 )	%  MH=1 a  OH2=2 v
	 ( 0 1 )	%  MH=1 a  OH2=2 a
	 ( 0 1 )	%  MH=1 a  OH2=fl
	 ( 0 1 )	%  MH=1 a  OH2=st
	 ( 0 1 )	%  MH=1 a  OH2=3 v
	 ( 0 1 ))	%  MH=1 a  OH2=stfl
	(( 1 0 )	%  MH=2 v  OH2=no
	 ( 1 0 )	%  MH=2 v  OH2=1 a
	 ( 0.5 0.5 )	%  MH=2 v  OH2=2 v
	 ( 0 1 )	%  MH=2 v  OH2=2 a
	 ( 0 1 )	%  MH=2 v  OH2=fl
	 ( 0 1 )	%  MH=2 v  OH2=st
	 ( 0 1 )	%  MH=2 v  OH2=3 v
	 ( 0 1 ))	%  MH=2 v  OH2=stfl
	(( 1 0 )	%  MH=2 a  OH2=no
	 ( 1 0 )	%  MH=2 a  OH2=1 a
	 ( 1 0 )	%  MH=2 a  OH2=2 v
	 ( 0.5 0.5 )	%  MH=2 a  OH2=2 a
	 ( 0 1 )	%  MH=2 a  OH2=fl
	 ( 0 1 )	%  MH=2 a  OH2=st
	 ( 0 1 )	%  MH=2 a  OH2=3 v
	 ( 0 1 ))	%  MH=2 a  OH2=stfl
	(( 1 0 )	%  MH=fl  OH2=no
	 ( 1 0 )	%  MH=fl  OH2=1 a
	 ( 1 0 )	%  MH=fl  OH2=2 v
	 ( 1 0 )	%  MH=fl  OH2=2 a
	 ( 0.5 0.5 )	%  MH=fl  OH2=fl
	 ( 0 1 )	%  MH=fl  OH2=st
	 ( 0 1 )	%  MH=fl  OH2=3 v
	 ( 0 1 ))	%  MH=fl  OH2=stfl
	(( 1 0 )	%  MH=st  OH2=no
	 ( 1 0 )	%  MH=st  OH2=1 a
	 ( 1 0 )	%  MH=st  OH2=2 v
	 ( 1 0 )	%  MH=st  OH2=2 a
	 ( 1 0 )	%  MH=st  OH2=fl
	 ( 0.5 0.5 )	%  MH=st  OH2=st
	 ( 0 1 )	%  MH=st  OH2=3 v
	 ( 0 1 ))	%  MH=st  OH2=stfl
	(( 1 0 )	%  MH=3 v  OH2=no
	 ( 1 0 )	%  MH=3 v  OH2=1 a
	 ( 1 0 )	%  MH=3 v  OH2=2 v
	 ( 1 0 )	%  MH=3 v  OH2=2 a
	 ( 1 0 )	%  MH=3 v  OH2=fl
	 ( 1 0 )	%  MH=3 v  OH2=st
	 ( 0.5 0.5 )	%  MH=3 v  OH2=3 v
	 ( 0 1 ))	%  MH=3 v  OH2=stfl
	(( 1 0 )	%  MH=stfl  OH2=no
	 ( 1 0 )	%  MH=stfl  OH2=1 a
	 ( 1 0 )	%  MH=stfl  OH2=2 v
	 ( 1 0 )	%  MH=stfl  OH2=2 a
	 ( 1 0 )	%  MH=stfl  OH2=fl
	 ( 1 0 )	%  MH=stfl  OH2=st
	 ( 1 0 )	%  MH=stfl  OH2=3 v
	 ( 0.5 0.5 )));	%  MH=stfl  OH2=stfl
}
