net 
{ 
}
node K01.00 
{
  states = ( "0" "1" );
}
node K02.00 
{
  states = ( "0" "1" );
}
node K03.00 
{
  states = ( "0" "1" );
}
node K04.00 
{
  states = ( "0" "1" );
}
node K05.00 
{
  states = ( "0" "1" );
}
node K06.00 
{
  states = ( "0" "1" );
}
node K07.00 
{
  states = ( "0" "1" );
}
node K24.00 
{
  states = ( "0" "1" );
}
node K25.00 
{
  states = ( "0" "1" );
}
node K27.00 
{
  states = ( "0" "1" );
}
node K28.00 
{
  states = ( "0" "1" );
}
node K29.00 
{
  states = ( "0" "1" );
}
node K29.01 
{
  states = ( "0" "1" );
}
node K29.02 
{
  states = ( "0" "1" );
}
node K70.00 
{
  states = ( "0" "1" );
}
node K71.00 
{
  states = ( "0" "1" );
}
node K73.00 
{
  states = ( "0" "1" );
}
node K73.02 
{
  states = ( "0" "1" );
}
node K74.00 
{
  states = ( "0" "1" );
}
node K74.01 
{
  states = ( "0" "1" );
}
node K74.02 
{
  states = ( "0" "1" );
}
node K75.00 
{
  states = ( "0" "1" );
}
node K76.00 
{
  states = ( "0" "1" );
}
node K76.01 
{
  states = ( "0" "1" );
}
node K76.02 
{
  states = ( "0" "1" );
}
node K77.00 
{
  states = ( "0" "1" );
}
node K77.01 
{
  states = ( "0" "1" );
}
node K77.02 
{
  states = ( "0" "1" );
}
node K78.00 
{
  states = ( "0" "1" );
}
node K79.00 
{
  states = ( "0" "1" );
}
node K79.01 
{
  states = ( "0" "1" );
}
node K80.00 
{
  states = ( "0" "1" );
}
node K80.01 
{
  states = ( "0" "1" );
}
node K80.02 
{
  states = ( "0" "1" );
}
node K81.00 
{
  states = ( "0" "1" );
}
node K82.00 
{
  states = ( "0" "1" );
}
node K83.00 
{
  states = ( "0" "1" );
}
node K83.01 
{
  states = ( "0" "1" );
}
node K83.02 
{
  states = ( "0" "1" );
}
node K84.00 
{
  states = ( "0" "1" );
}
node K84.02 
{
  states = ( "0" "1" );
}
node K84.03 
{
  states = ( "0" "1" );
}
node K85.00 
{
  states = ( "0" "1" );
}
node K86.00 
{
  states = ( "0" "1" );
}
node K87.00 
{
  states = ( "0" "1" );
}
node K88.00 
{
  states = ( "0" "1" );
}
node K89.00 
{
  states = ( "0" "1" );
}
node K90.00 
{
  states = ( "0" "1" );
}
node K90.01 
{
  states = ( "0" "1" );
}
node K90.02 
{
  states = ( "0" "1" );
}
node K90.03 
{
  states = ( "0" "1" );
}
node K91.00 
{
  states = ( "0" "1" );
}
node K92.00 
{
  states = ( "0" "1" );
}
node K92.01 
{
  states = ( "0" "1" );
}
node K92.02 
{
  states = ( "0" "1" );
}
node K93.00 
{
  states = ( "0" "1" );
}
node K94.00 
{
  states = ( "0" "1" );
}
node K94.01 
{
  states = ( "0" "1" );
}
node K94.02 
{
  states = ( "0" "1" );
}
node K95.00 
{
  states = ( "0" "1" );
}
node K96.00 
{
  states = ( "0" "1" );
}
node K99.00 
{
  states = ( "0" "1" );
}
node K99.01 
{
  states = ( "0" "1" );
}
node K99.03 
{
  states = ( "0" "1" );
}
node K99.04 
{
  states = ( "0" "1" );
}
node K99.05 
{
  states = ( "0" "1" );
}
node N01.00 
{
  states = ( "0" "1" );
}
node N02.00 
{
  states = ( "0" "1" );
}
node N03.00 
{
  states = ( "0" "1" );
}
node N04.00 
{
  states = ( "0" "1" );
}
node N05.00 
{
  states = ( "0" "1" );
}
node N06.00 
{
  states = ( "0" "1" );
}
node N06.01 
{
  states = ( "0" "1" );
}
node N07.00 
{
  states = ( "0" "1" );
}
node N07.01 
{
  states = ( "0" "1" );
}
node N16.00 
{
  states = ( "0" "1" );
}
node N17.00 
{
  states = ( "0" "1" );
}
node N17.01 
{
  states = ( "0" "1" );
}
node N17.02 
{
  states = ( "0" "1" );
}
node N18.00 
{
  states = ( "0" "1" );
}
node N19.00 
{
  states = ( "0" "1" );
}
node N26.00 
{
  states = ( "0" "1" );
}
node N27.00 
{
  states = ( "0" "1" );
}
node N28.00 
{
  states = ( "0" "1" );
}
node N29.00 
{
  states = ( "0" "1" );
}
node N72.00 
{
  states = ( "0" "1" );
}
node N74.00 
{
  states = ( "0" "1" );
}
node N75.00 
{
  states = ( "0" "1" );
}
node N76.00 
{
  states = ( "0" "1" );
}
node N79.00 
{
  states = ( "0" "1" );
}
node N80.00 
{
  states = ( "0" "1" );
}
node N80.02 
{
  states = ( "0" "1" );
}
node N80.04 
{
  states = ( "0" "1" );
}
node N81.00 
{
  states = ( "0" "1" );
}
node N85.00 
{
  states = ( "0" "1" );
}
node N86.00 
{
  states = ( "0" "1" );
}
node N87.00 
{
  states = ( "0" "1" );
}
node N87.01 
{
  states = ( "0" "1" );
}
node N88.00 
{
  states = ( "0" "1" );
}
node N89.00 
{
  states = ( "0" "1" );
}
node N90.00 
{
  states = ( "0" "1" );
}
node N91.00 
{
  states = ( "0" "1" );
}
node N92.00 
{
  states = ( "0" "1" );
}
node N93.00 
{
  states = ( "0" "1" );
}
node N94.00 
{
  states = ( "0" "1" );
}
node N94.02 
{
  states = ( "0" "1" );
}
node N94.03 
{
  states = ( "0" "1" );
}
node N94.04 
{
  states = ( "0" "1" );
}
node N94.06 
{
  states = ( "0" "1" );
}
node N99.00 
{
  states = ( "0" "1" );
}
node U01.00 
{
  states = ( "0" "1" );
}
node U02.00 
{
  states = ( "0" "1" );
}
node U04.00 
{
  states = ( "0" "1" );
}
node U04.01 
{
  states = ( "0" "1" );
}
node U04.02 
{
  states = ( "0" "1" );
}
node U04.03 
{
  states = ( "0" "1" );
}
node U05.00 
{
  states = ( "0" "1" );
}
node U05.02 
{
  states = ( "0" "1" );
}
node U06.00 
{
  states = ( "0" "1" );
}
node U07.00 
{
  states = ( "0" "1" );
}
node U13.00 
{
  states = ( "0" "1" );
}
node U14.00 
{
  states = ( "0" "1" );
}
node U14.01 
{
  states = ( "0" "1" );
}
node U26.00 
{
  states = ( "0" "1" );
}
node U27.00 
{
  states = ( "0" "1" );
}
node U28.00 
{
  states = ( "0" "1" );
}
node U29.00 
{
  states = ( "0" "1" );
}
node U70.00 
{
  states = ( "0" "1" );
}
node U71.00 
{
  states = ( "0" "1" );
}
node U71.01 
{
  states = ( "0" "1" );
}
node U71.02 
{
  states = ( "0" "1" );
}
node U72.00 
{
  states = ( "0" "1" );
}
node U75.00 
{
  states = ( "0" "1" );
}
node U76.00 
{
  states = ( "0" "1" );
}
node U79.00 
{
  states = ( "0" "1" );
}
node U85.00 
{
  states = ( "0" "1" );
}
node U88.00 
{
  states = ( "0" "1" );
}
node U95.00 
{
  states = ( "0" "1" );
}
node U98.00 
{
  states = ( "0" "1" );
}
node U98.01 
{
  states = ( "0" "1" );
}
node U99.00 
{
  states = ( "0" "1" );
}
node U99.01 
{
  states = ( "0" "1" );
}
node age 
{
  states = ( "_-Inf_40]" "_40_65]" "_65_75]" "_75_ Inf]" );
}
node geslacht 
{
  states = ( "-1" "1" "2" );
}
potential ( K01.00 | K02.00 K74.00 K75.00 age ) 
{
  data = (((((0.98885123 0.01114877)(0.9705858 0.0294142)(0.97408066 0.02591934)(0.97734076 0.02265924))((0.90217391 0.09782609)(0.8898569 0.1101431)(0.91025641 0.08974359)(0.93002028 0.06997972)))(((0.92385787 0.07614213)(0.8743992 0.1256008)(0.886172 0.113828)(0.90415225 0.09584775))((0.8125 0.1875)(0.77 0.23)(0.8259259 0.1740741)(0.8152866 0.1847134))))((((0.92682927 0.07317073)(0.91457859 0.08542141)(0.90487239 0.09512761)(0.93551317 0.06448683))((0.875 0.125)(0.8615385 0.1384615)(0.8219178 0.1780822)(0.8613861 0.1386139)))(((1.0 0.0)(0.74 0.26)(0.7864769 0.2135231)(0.8201635 0.1798365))((0.6666667 0.3333333)(0.7192982 0.2807018)(0.6666667 0.3333333)(0.7580645 0.2419355))))) ;
}
potential ( K02.00 | K74.00 K75.00 age ) 
{
  data = ((((0.992392086 0.007607914)(0.97635717 0.02364283)(0.9677757 0.0322243)(0.95995199 0.04004801))((0.92 0.08)(0.92515832 0.07484168)(0.92765114 0.07234886)(0.90708372 0.09291628)))(((0.94711538 0.05288462)(0.8991645 0.1008355)(0.8940822 0.1059178)(0.8873196 0.1126804))((0.8421053 0.1578947)(0.8752735 0.1247265)(0.8571429 0.1428571)(0.8351064 0.1648936)))) ;
}
potential ( K03.00 | K92.00 K92.01 age ) 
{
  data = ((((0.9996999284 0.0003000716)(0.997659308 0.002340692)(0.995112281 0.004887719)(0.995690077 0.004309923))((1.0 0.0)(0.96105528 0.03894472)(0.96661829 0.03338171)(0.97012802 0.02987198)))(((1.0 0.0)(0.96358908 0.03641092)(0.96103896 0.03896104)(0.97625698 0.02374302))((0.5 0.5)(0.93684211 0.06315789)(0.93939394 0.06060606)(0.93975904 0.06024096)))) ;
}
potential ( K04.00 | K78.00 age geslacht ) 
{
  data = ((((0.97435897 0.02564103)(0.95171703 0.04828297)(0.9419447 0.0580553))((0.5 0.5)(0.96143944 0.03856056)(0.91908723 0.08091277))((0.5 0.5)(0.97348311 0.02651689)(0.93652003 0.06347997))((0.0 1.0)(0.97856254 0.02143746)(0.958456 0.041544)))(((0.5 0.5)(0.75 0.25)(0.7333333 0.2666667))((0.5 0.5)(0.8641251 0.1358749)(0.7223265 0.2776735))((0.5 0.5)(0.898971 0.101029)(0.7960928 0.2039072))((0.5 0.5)(0.93787879 0.06212121)(0.8847619 0.1152381)))) ;
}
potential ( K05.00 | K04.00 K78.00 age ) 
{
  data = ((((0.994826745 0.005173255)(0.990698433 0.009301567)(0.98530482 0.01469518)(0.98270095 0.01729905))((0.8615385 0.1384615)(0.9070134 0.0929866)(0.91444513 0.08555487)(0.93184755 0.06815245)))(((0.9658516 0.0341484)(0.94860681 0.05139319)(0.92130661 0.07869339)(0.9189463 0.0810537))((0.91304348 0.08695652)(0.8501742 0.1498258)(0.8254545 0.1745455)(0.8179012 0.1820988)))) ;
}
potential ( K06.00 | K94.00 K95.00 ) 
{
  data = (((0.998508593 0.001491407)(0.993629908 0.006370092))((0.990556139 0.009443861)(0.998007968 0.001992032))) ;
}
potential ( K07.00 | K77.00 U71.00 age geslacht ) 
{
  data = (((((0.98333333 0.01666667)(0.98841217 0.01158783)(0.97358819 0.02641181))((0.5 0.5)(0.96137672 0.03862328)(0.93415728 0.06584272))((0.5 0.5)(0.9272992 0.0727008)(0.8951992 0.1048008))((0.5 0.5)(0.85718 0.14282)(0.8153137 0.1846863)))(((1.0 0.0)(0.98630137 0.01369863)(0.97423978 0.02576022))((0.5 0.5)(0.93214122 0.06785878)(0.91379773 0.08620227))((0.5 0.5)(0.886 0.114)(0.8527552 0.1472448))((1.0 0.0)(0.7891986 0.2108014)(0.7551195 0.2448805))))((((0.8571429 0.1428571)(0.862069 0.137931)(0.90243902 0.09756098))((0.5 0.5)(0.8341794 0.1658206)(0.7298851 0.2701149))((0.5 0.5)(0.7772338 0.2227662)(0.7256637 0.2743363))((0.5 0.5)(0.7324489 0.2675511)(0.6862116 0.3137884)))(((0.0 1.0)(0.6666667 0.3333333)(0.7142857 0.2857143))((0.5 0.5)(0.7246377 0.2753623)(0.5923567 0.4076433))((0.5 0.5)(0.66875 0.33125)(0.616129 0.383871))((0.5 0.5)(0.62 0.38)(0.5907633 0.4092367))))) ;
}
potential ( K24.00 | K01.00 K04.00 K27.00 K75.00 ) 
{
  data = (((((0.99283592 0.00716408)(0.97953356 0.02046644))((0.96499239 0.03500761)(0.9382716 0.0617284)))(((0.98080863 0.01919137)(0.94350282 0.05649718))((0.93211488 0.06788512)(0.875 0.125))))((((0.97978261 0.02021739)(0.9391771 0.0608229))((0.91469194 0.08530806)(0.95454545 0.04545455)))(((0.95402299 0.04597701)(0.8695652 0.1304348))((0.8181818 0.1818182)(0.6 0.4))))) ;
}
potential ( K25.00 ) 
{
  data = ( 0.9618927 0.0381073 );
}
potential ( K27.00 | K25.00 K86.00 age ) 
{
  data = ((((0.98259356 0.01740644)(0.96769815 0.03230185)(0.97744195 0.02255805)(0.98872267 0.01127733))((0.98652137 0.01347863)(0.98249319 0.01750681)(0.98425046 0.01574954)(0.98812693 0.01187307)))(((0.95408895 0.04591105)(0.93624772 0.06375228)(0.94035533 0.05964467)(0.9465812 0.0534188))((0.95263158 0.04736842)(0.93262633 0.06737367)(0.93632417 0.06367583)(0.96359743 0.03640257)))) ;
}
potential ( K28.00 | K74.02 K77.02 K87.00 ) 
{
  data = ((((0.9993526535 0.0006473465)(0.996852647 0.003147353))((0.98856209 0.01143791)(0.95294118 0.04705882)))(((0.991836735 0.008163265)(0.95041322 0.04958678))((0.97058824 0.02941176)(0.7083333 0.2916667)))) ;
}
potential ( K29.00 | K76.00 age ) 
{
  data = (((0.995988565 0.004011435)(0.98940402 0.01059598)(0.98327521 0.01672479)(0.98427764 0.01572236))((0.984375 0.015625)(0.96624752 0.03375248)(0.94033613 0.05966387)(0.95796281 0.04203719))) ;
}
potential ( K29.01 | K92.00 ) 
{
  data = ((0.9994607579 0.0005392421)(0.99706422 0.00293578)) ;
}
potential ( K29.02 | K07.00 ) 
{
  data = ((0.998590896 0.001409104)(0.997061582 0.002938418)) ;
}
potential ( K70.00 | K74.00 K75.00 K83.00 ) 
{
  data = ((((0.998469935 0.001530065)(0.97705545 0.02294455))((0.990752633 0.009247367)(0.975 0.025)))(((0.992589456 0.007410544)(0.97202797 0.02797203))((0.995663487 0.004336513)(1.0 0.0)))) ;
}
potential ( K71.00 | K70.00 ) 
{
  data = ((0.9993061345 0.0006938655)(0.98503741 0.01496259)) ;
}
potential ( K73.00 | K83.00 age ) 
{
  data = (((0.993930162 0.006069838)(0.9990198419 0.0009801581)(0.9990791897 0.0009208103)(0.9995906414 0.0004093586))((0.7837838 0.2162162)(0.97765363 0.02234637)(0.996865204 0.003134796)(0.997802198 0.002197802))) ;
}
potential ( K73.02 | age ) 
{
  data = ((0.997605893 0.002394107)(0.9997748227 0.0002251773)(0.9998372767 0.0001627233)(1.0 0.0)) ;
}
potential ( K74.00 | K75.00 age geslacht ) 
{
  data = ((((0.96 0.04)(0.991327093 0.008672907)(0.997249112 0.002750888))((0.5 0.5)(0.94037862 0.05962138)(0.96739458 0.03260542))((0.5 0.5)(0.8909132 0.1090868)(0.9251932 0.0748068))((1.0 0.0)(0.8831346 0.1168654)(0.90015687 0.09984313)))(((0.8 0.2)(0.8295455 0.1704545)(0.8846154 0.1153846))((0.5 0.5)(0.7927823 0.2072177)(0.7878151 0.2121849))((0.5 0.5)(0.7659115 0.2340885)(0.7531486 0.2468514))((0.5 0.5)(0.7634271 0.2365729)(0.7195301 0.2804699)))) ;
}
potential ( K74.01 | K02.00 K74.00 K74.02 K75.00 ) 
{
  data = (((((0.996595398 0.003404602)(0.97076188 0.02923812))((0.91967871 0.08032129)(0.90625 0.09375)))(((0.9628821 0.0371179)(0.91995842 0.08004158))((0.8690476 0.1309524)(0.7631579 0.2368421))))((((0.98365602 0.01634398)(0.91830065 0.08169935))((0.97142857 0.02857143)(0.6666667 0.3333333)))(((0.9250264 0.0749736)(0.8684211 0.1315789))((0.7903226 0.2096774)(0.8 0.2))))) ;
}
potential ( K74.02 | K01.00 K74.00 age ) 
{
  data = ((((0.9996955646 0.0003044354)(0.996504875 0.003495125)(0.991972946 0.008027054)(0.98932691 0.01067309))((0.98557692 0.01442308)(0.96913395 0.03086605)(0.96001553 0.03998447)(0.95057507 0.04942493)))(((0.996086106 0.003913894)(0.9850686 0.0149314)(0.97529412 0.02470588)(0.94148936 0.05851064))((1.0 0.0)(0.96446701 0.03553299)(0.93367347 0.06632653)(0.91346154 0.08653846)))) ;
}
potential ( K75.00 | K86.00 age geslacht ) 
{
  data = ((((0.93333333 0.06666667)(0.994410841 0.005589159)(0.999175165 0.000824835))((0.5 0.5)(0.94014591 0.05985409)(0.98851521 0.01148479))((0.5 0.5)(0.91884457 0.08115543)(0.97261048 0.02738952))((1.0 0.0)(0.93269625 0.06730375)(0.96217449 0.03782551)))(((0.94 0.06)(0.990353698 0.009646302)(0.998069498 0.001930502))((0.5 0.5)(0.96843598 0.03156402)(0.9898643 0.0101357))((0.5 0.5)(0.95105301 0.04894699)(0.97860681 0.02139319))((0.5 0.5)(0.9349685 0.0650315)(0.97147177 0.02852823)))) ;
}
potential ( K76.00 | K74.00 K75.00 age geslacht ) 
{
  data = (((((1.0 0.0)(0.99826413 0.00173587)(0.9996508258 0.0003491742))((0.5 0.5)(0.97971522 0.02028478)(0.99426666 0.00573334))((0.5 0.5)(0.95986423 0.04013577)(0.98690277 0.01309723))((1.0 0.0)(0.96197052 0.03802948)(0.98077356 0.01922644)))(((0.75 0.25)(0.8767123 0.1232877)(1.0 0.0))((0.5 0.5)(0.8817915 0.1182085)(0.91466667 0.08533333))((0.5 0.5)(0.9028169 0.0971831)(0.8729097 0.1270903))((0.5 0.5)(0.90117253 0.09882747)(0.90408163 0.09591837))))((((0.6666667 0.3333333)(0.91269841 0.08730159)(0.96202532 0.03797468))((0.5 0.5)(0.8862536 0.1137464)(0.92597865 0.07402135))((0.5 0.5)(0.8399168 0.1600832)(0.91239669 0.08760331))((0.5 0.5)(0.8691589 0.1308411)(0.90724785 0.09275215)))(((1.0 0.0)(0.8666667 0.1333333)(0.3333333 0.6666667))((0.5 0.5)(0.8398876 0.1601124)(0.7821782 0.2178218))((0.5 0.5)(0.7788018 0.2211982)(0.7040816 0.2959184))((0.5 0.5)(0.8108108 0.1891892)(0.8219895 0.1780105))))) ;
}
potential ( K76.01 | K74.00 K76.00 geslacht ) 
{
  data = ((((0.98684211 0.01315789)(0.995503804 0.004496196)(0.998780972 0.001219028))((1.0 0.0)(0.96823658 0.03176342)(0.96460177 0.03539823)))(((1.0 0.0)(0.97594292 0.02405708)(0.98558007 0.01441993))((1.0 0.0)(0.95298602 0.04701398)(0.94409938 0.05590062)))) ;
}
potential ( K76.02 | K75.00 K76.00 age ) 
{
  data = ((((0.9998382288 0.0001617712)(0.997150476 0.002849524)(0.994436032 0.005563968)(0.994138849 0.005861151))((0.96 0.04)(0.95157385 0.04842615)(0.95427435 0.04572565)(0.95291902 0.04708098)))(((0.92380952 0.07619048)(0.93548387 0.06451613)(0.94824561 0.05175439)(0.95496894 0.04503106))((1.0 0.0)(0.8602941 0.1397059)(0.8586957 0.1413043)(0.88 0.12)))) ;
}
potential ( K77.00 | K02.00 K74.00 K86.00 age ) 
{
  data = (((((0.998015923 0.001984077)(0.98550552 0.01449448)(0.92470051 0.07529949)(0.787172 0.212828))((0.99691358 0.00308642)(0.991559473 0.008440527)(0.97024668 0.02975332)(0.8859585 0.1140415)))(((0.98773006 0.01226994)(0.95470852 0.04529148)(0.90469613 0.09530387)(0.7397552 0.2602448))((0.94 0.06)(0.96049574 0.03950426)(0.8852596 0.1147404)(0.7373585 0.2626415))))((((1.0 0.0)(0.94615385 0.05384615)(0.8259023 0.1740977)(0.5876133 0.4123867))((1.0 0.0)(0.95810056 0.04189944)(0.8663793 0.1336207)(0.6796296 0.3203704)))(((1.0 0.0)(0.91428571 0.08571429)(0.7239264 0.2760736)(0.5069767 0.4930233))((0.8333333 0.1666667)(0.882716 0.117284)(0.809816 0.190184)(0.5373832 0.4626168))))) ;
}
potential ( K77.01 | K77.00 K77.02 age ) 
{
  data = ((((0.9999538458 0.0000461542)(0.9995679138 0.0004320862)(0.99878282 0.00121718)(0.995736692 0.004263308))((1.0 0.0)(0.94047619 0.05952381)(0.95833333 0.04166667)(0.96507353 0.03492647)))(((0.98947368 0.01052632)(0.9800544 0.0199456)(0.97976879 0.02023121)(0.97981651 0.02018349))((0.5 0.5)(0.9516129 0.0483871)(0.91803279 0.08196721)(0.92933948 0.07066052)))) ;
}
potential ( K77.02 | K74.02 K77.00 age ) 
{
  data = ((((0.9997461167 0.0002538833)(0.9990046958 0.0009953042)(0.99618013 0.00381987)(0.98126071 0.01873929))((1.0 0.0)(0.94700261 0.05299739)(0.93756846 0.06243154)(0.895972 0.104028)))(((0.94444444 0.05555556)(0.98514851 0.01485149)(0.96764706 0.03235294)(0.8577878 0.1422122))((0.5 0.5)(0.92857143 0.07142857)(0.6923077 0.3076923)(0.7204301 0.2795699)))) ;
}
potential ( K78.00 | K77.00 age geslacht ) 
{
  data = ((((0.98611111 0.01388889)(0.996160176 0.003839824)(0.9990240162 0.0009759838))((0.5 0.5)(0.97392887 0.02607113)(0.98883006 0.01116994))((0.5 0.5)(0.93367734 0.06632266)(0.95763522 0.04236478))((1.0 0.0)(0.9077577 0.0922423)(0.9208982 0.0791018)))(((0.875 0.125)(1.0 0.0)(0.96363636 0.03636364))((0.5 0.5)(0.8606061 0.1393939)(0.8970297 0.1029703))((0.5 0.5)(0.8004094 0.1995906)(0.824 0.176))((0.5 0.5)(0.8083934 0.1916066)(0.7918226 0.2081774)))) ;
}
potential ( K79.00 | K04.00 K05.00 K78.00 ) 
{
  data = ((((0.993406018 0.006593982)(0.95814622 0.04185378))((0.96799551 0.03200449)(0.92016807 0.07983193)))(((0.95827338 0.04172662)(0.8626156 0.1373844))((0.90697674 0.09302326)(0.8486842 0.1513158)))) ;
}
potential ( K79.01 | K04.00 K78.00 K79.00 ) 
{
  data = ((((0.998197429 0.001802571)(0.9639485 0.0360515))((0.98856549 0.01143451)(0.92619926 0.07380074)))(((0.98608372 0.01391628)(0.92235294 0.07764706))((0.96675192 0.03324808)(0.91338583 0.08661417)))) ;
}
potential ( K80.00 | K04.00 K05.00 K79.00 ) 
{
  data = ((((0.995373219 0.004626781)(0.97091723 0.02908277))((0.96114709 0.03885291)(0.90526316 0.09473684)))(((0.97486844 0.02513156)(0.92723493 0.07276507))((0.90954774 0.09045226)(0.8169014 0.1830986)))) ;
}
potential ( K80.01 | K04.00 K05.00 K80.00 ) 
{
  data = ((((0.9992359475 0.0007640525)(0.98684211 0.01315789))((0.98937153 0.01062847)(0.98924731 0.01075269)))(((0.995799643 0.004200357)(0.95910781 0.04089219))((0.97670549 0.02329451)(0.95522388 0.04477612)))) ;
}
potential ( K80.02 | K04.00 K05.00 K80.00 ) 
{
  data = ((((0.9991433351 0.0008566649)(0.98086124 0.01913876))((0.98844732 0.01155268)(0.95698925 0.04301075)))(((0.995169589 0.004830411)(0.94423792 0.05576208))((0.990016639 0.009983361)(0.92537313 0.07462687)))) ;
}
potential ( K81.00 | U71.00 age ) 
{
  data = (((0.98319589 0.01680411)(0.995900342 0.004099658)(0.993053557 0.006946443)(0.993117229 0.006882771))((0.993719593 0.006280407)(0.997130243 0.002869757)(0.993435449 0.006564551)(0.993602972 0.006397028))) ;
}
potential ( K82.00 | K77.00 ) 
{
  data = ((0.9996047498 0.0003952502)(0.995983936 0.004016064)) ;
}
potential ( K83.00 | K77.00 K78.00 K81.00 K83.01 ) 
{
  data = (((((0.995604551 0.004395449)(0.8758315 0.1241685))((0.95333333 0.04666667)(0.8627451 0.1372549)))(((0.98120883 0.01879117)(0.8095238 0.1904762))((0.85 0.15)(1.0 0.0))))((((0.98017772 0.01982228)(0.7435897 0.2564103))((0.8444444 0.1555556)(1.0 0.0)))(((0.95566207 0.04433793)(0.7647059 0.2352941))((0.8571429 0.1428571)(0.6666667 0.3333333))))) ;
}
potential ( K83.01 | K77.00 K81.00 age ) 
{
  data = ((((0.999672415 0.000327585)(0.998126553 0.001873447)(0.994804561 0.005195439)(0.992947977 0.007052023))((1.0 0.0)(0.95765472 0.04234528)(0.8979592 0.1020408)(0.8819876 0.1180124)))(((0.98913043 0.01086957)(0.990525409 0.009474591)(0.98366903 0.01633097)(0.98196857 0.01803143))((1.0 0.0)(1.0 0.0)(0.8 0.2)(0.8392857 0.1607143)))) ;
}
potential ( K83.02 | K77.00 K78.00 K83.00 ) 
{
  data = ((((0.998894808 0.001105192)(0.97116494 0.02883506))((0.99218292 0.00781708)(0.90740741 0.09259259)))(((0.994249726 0.005750274)(0.94505495 0.05494505))((0.98476539 0.01523461)(0.91860465 0.08139535)))) ;
}
potential ( K84.00 | K77.00 K78.00 age ) 
{
  data = ((((0.997179843 0.002820157)(0.993911582 0.006088418)(0.98964735 0.01035265)(0.98733383 0.01266617))((0.90588235 0.09411765)(0.96033994 0.03966006)(0.9668616 0.0331384)(0.96710827 0.03289173)))(((0.9673913 0.0326087)(0.95886386 0.04113614)(0.96606786 0.03393214)(0.97145791 0.02854209))((1.0 0.0)(0.9375 0.0625)(0.95415473 0.04584527)(0.94963444 0.05036556)))) ;
}
potential ( K84.02 | K84.00 age ) 
{
  data = (((0.9997690904 0.0002309096)(0.9994707595 0.0005292405)(0.9984172 0.0015828)(0.996933873 0.003066127))((1.0 0.0)(0.98615917 0.01384083)(0.98503741 0.01496259)(0.94791667 0.05208333))) ;
}
potential ( K84.03 | K77.00 K84.00 ) 
{
  data = (((0.998861936 0.001138064)(0.9875549 0.0124451))((0.991564503 0.008435497)(0.94099379 0.05900621))) ;
}
potential ( K85.00 | K25.00 ) 
{
  data = ((0.8948085 0.1051915)(0.7398592 0.2601408)) ;
}
potential ( K86.00 | K85.00 U01.00 ) 
{
  data = (((0.6617652 0.3382348)(0.758695 0.241305))((0.3545674 0.6454326)(0.3686088 0.6313912))) ;
}
potential ( K87.00 | K74.00 K76.00 K86.00 age ) 
{
  data = (((((0.997648665 0.002351335)(0.97197936 0.02802064)(0.92437868 0.07562132)(0.92130543 0.07869457))((0.97179204 0.02820796)(0.93701321 0.06298679)(0.8946512 0.1053488)(0.8583254 0.1416746)))(((0.95 0.05)(0.91102258 0.08897742)(0.8607843 0.1392157)(0.8758993 0.1241007))((1.0 0.0)(0.6911765 0.3088235)(0.6842105 0.3157895)(0.6819923 0.3180077))))((((1.0 0.0)(0.93504736 0.06495264)(0.9 0.1)(0.885917 0.114083))((0.8222222 0.1777778)(0.8136118 0.1863882)(0.7717206 0.2282794)(0.7523534 0.2476466)))(((0.875 0.125)(0.8565891 0.1434109)(0.7878788 0.2121212)(0.8244275 0.1755725))((0.8181818 0.1818182)(0.58125 0.41875)(0.6612022 0.3387978)(0.6835443 0.3164557))))) ;
}
potential ( K88.00 | K77.00 N17.00 age ) 
{
  data = ((((0.98676884 0.01323116)(0.990940595 0.009059405)(0.98603 0.01397)(0.9773897 0.0226103))((0.96629213 0.03370787)(0.97754655 0.02245345)(0.96150972 0.03849028)(0.9384251 0.0615749)))(((0.98850575 0.01149425)(0.96 0.04)(0.95774648 0.04225352)(0.9573577 0.0426423))((1.0 0.0)(0.94444444 0.05555556)(0.90410959 0.09589041)(0.8950472 0.1049528)))) ;
}
potential ( K89.00 | K86.00 K87.00 K90.00 age ) 
{
  data = (((((0.998152554 0.001847446)(0.9842869 0.0157131)(0.96394443 0.03605557)(0.94114441 0.05885559))((0.8954248 0.1045752)(0.8902954 0.1097046)(0.8828452 0.1171548)(0.8404126 0.1595874)))(((0.98901099 0.01098901)(0.94808307 0.05191693)(0.93986421 0.06013579)(0.92398119 0.07601881))((1.0 0.0)(0.8594595 0.1405405)(0.7631579 0.2368421)(0.8319672 0.1680328))))((((0.996898788 0.003101212)(0.990818376 0.009181624)(0.97814247 0.02185753)(0.95951773 0.04048227))((1.0 0.0)(0.84 0.16)(0.8030973 0.1969027)(0.80563 0.19437)))(((0.98113208 0.01886792)(0.95013599 0.04986401)(0.92402827 0.07597173)(0.91018277 0.08981723))((1.0 0.0)(0.826087 0.173913)(0.8333333 0.1666667)(0.7588235 0.2411765))))) ;
}
potential ( K90.00 | K86.00 K87.00 N19.00 age ) 
{
  data = (((((0.996056471 0.003943529)(0.97905688 0.02094312)(0.94634555 0.05365445)(0.90036355 0.09963645))((0.998159509 0.001840491)(0.87 0.13)(0.7346939 0.2653061)(0.6868687 0.3131313)))(((0.94791667 0.05208333)(0.8710582 0.1289418)(0.8729753 0.1270247)(0.8435419 0.1564581))((0.5 0.5)(0.9 0.1)(0.7 0.3)(0.5 0.5))))((((0.994935284 0.005064716)(0.98610892 0.01389108)(0.96934012 0.03065988)(0.93905978 0.06094022))((1.0 0.0)(0.8714286 0.1285714)(0.7818182 0.2181818)(0.7708333 0.2291667)))(((0.94642857 0.05357143)(0.8984855 0.1015145)(0.8665983 0.1334017)(0.8537461 0.1462539))((0.5 0.5)(0.6875 0.3125)(0.4736842 0.5263158)(0.4615385 0.5384615))))) ;
}
potential ( K90.01 | K90.00 age ) 
{
  data = (((0.9996763604 0.0003236396)(0.998040998 0.001959002)(0.997014003 0.002985997)(0.995758364 0.004241636))((0.994505495 0.005494505)(0.97603486 0.02396514)(0.97674419 0.02325581)(0.98220282 0.01779718))) ;
}
potential ( K90.02 | K90.00 N88.00 ) 
{
  data = (((0.999014823 0.000985177)(0.994856959 0.005143041))((0.98863816 0.01136184)(0.964 0.036))) ;
}
potential ( K90.03 | K89.00 K90.00 age ) 
{
  data = ((((0.9996293808 0.0003706192)(0.998167832 0.001832168)(0.995565961 0.004434039)(0.993524113 0.006475887))((0.96987952 0.03012048)(0.93396226 0.06603774)(0.93492895 0.06507105)(0.94809971 0.05190029)))(((1.0 0.0)(0.97900262 0.02099738)(0.98835979 0.01164021)(0.97677338 0.02322662))((1.0 0.0)(0.8861789 0.1138211)(0.8976378 0.1023622)(0.9039548 0.0960452)))) ;
}
potential ( K91.00 | K76.00 K87.00 age ) 
{
  data = ((((0.9996525606 0.0003474394)(0.99488009 0.00511991)(0.98923158 0.01076842)(0.990891868 0.009108132))((0.98029557 0.01970443)(0.97541436 0.02458564)(0.96499133 0.03500867)(0.97504962 0.02495038)))(((1.0 0.0)(0.95384615 0.04615385)(0.96428571 0.03571429)(0.96157735 0.03842265))((1.0 0.0)(0.91666667 0.08333333)(0.8947368 0.1052632)(0.8991935 0.1008065)))) ;
}
potential ( K92.00 | K87.00 K91.00 age ) 
{
  data = ((((0.997662957 0.002337043)(0.990304361 0.009695639)(0.9790138 0.0209862)(0.97594941 0.02405059))((1.0 0.0)(0.8931818 0.1068182)(0.86875 0.13125)(0.8854167 0.1145833)))(((0.990196078 0.009803922)(0.9577167 0.0422833)(0.95334216 0.04665784)(0.9576734 0.0423266))((1.0 0.0)(0.8303571 0.1696429)(0.7984496 0.2015504)(0.8495575 0.1504425)))) ;
}
potential ( K92.01 | K87.00 K92.00 age ) 
{
  data = ((((0.9996985927 0.0003014073)(0.991004637 0.008995363)(0.98037979 0.01962021)(0.98012767 0.01987233))((1.0 0.0)(0.8230769 0.1769231)(0.7947883 0.2052117)(0.8338028 0.1661972)))(((0.995145631 0.004854369)(0.96798493 0.03201507)(0.9463807 0.0536193)(0.95781293 0.04218707))((1.0 0.0)(0.7094972 0.2905028)(0.7664671 0.2335329)(0.7209302 0.2790698)))) ;
}
potential ( K92.02 | K92.00 ) 
{
  data = ((0.997369152 0.002630848)(0.9853211 0.0146789)) ;
}
potential ( K93.00 | K77.00 K94.00 K94.01 ) 
{
  data = ((((0.995447569 0.004552431)(0.95945946 0.04054054))((0.98019299 0.01980701)(0.90954774 0.09045226)))(((0.98827508 0.01172492)(0.9223301 0.0776699))((0.97309417 0.02690583)(0.94117647 0.05882353)))) ;
}
potential ( K94.00 | K07.00 K95.00 age ) 
{
  data = ((((0.995714671 0.004285329)(0.990940698 0.009059302)(0.98785519 0.01214481)(0.98515447 0.01484553))((0.97717718 0.02282282)(0.95931818 0.04068182)(0.94817927 0.05182073)(0.92561285 0.07438715)))(((0.97769953 0.02230047)(0.97317919 0.02682081)(0.96903821 0.03096179)(0.97053292 0.02946708))((0.90697674 0.09302326)(0.91666667 0.08333333)(0.90797546 0.09202454)(0.91198502 0.08801498)))) ;
}
potential ( K94.01 | K07.00 K94.00 K94.02 ) 
{
  data = ((((0.995579939 0.004420061)(0.96219931 0.03780069))((0.92192882 0.07807118)(0.8650794 0.1349206)))(((0.98107173 0.01892827)(0.91791045 0.08208955))((0.8877756 0.1122244)(0.8292683 0.1707317)))) ;
}
potential ( K94.02 | K07.00 K94.00 K95.00 ) 
{
  data = ((((0.997233947 0.002766053)(0.98324696 0.01675304))((0.94224312 0.05775688)(0.8944591 0.1055409)))(((0.993369074 0.006630926)(0.96872557 0.03127443))((0.94004796 0.05995204)(0.8699187 0.1300813)))) ;
}
potential ( K95.00 | K07.00 K86.00 age geslacht ) 
{
  data = (((((1.0 0.0)(0.9836662 0.0163338)(0.94831167 0.05168833))((0.5 0.5)(0.95672977 0.04327023)(0.90370999 0.09629001))((0.5 0.5)(0.96596658 0.03403342)(0.91517129 0.08482871))((1.0 0.0)(0.96974307 0.03025693)(0.94605757 0.05394243)))(((1.0 0.0)(0.98883049 0.01116951)(0.95310136 0.04689864))((0.5 0.5)(0.97753819 0.02246181)(0.94349979 0.05650021))((0.5 0.5)(0.97114631 0.02885369)(0.93977205 0.06022795))((0.5 0.5)(0.97296567 0.02703433)(0.93850754 0.06149246))))((((1.0 0.0)(0.93706294 0.06293706)(0.90447761 0.09552239))((0.5 0.5)(0.94245385 0.05754615)(0.8832382 0.1167618))((0.5 0.5)(0.93574297 0.06425703)(0.887723 0.112277))((0.5 0.5)(0.9418027 0.0581973)(0.92969984 0.07030016)))(((1.0 0.0)(0.93939394 0.06060606)(0.8764045 0.1235955))((0.5 0.5)(0.92957746 0.07042254)(0.8972179 0.1027821))((0.5 0.5)(0.93110236 0.06889764)(0.882149 0.117851))((0.5 0.5)(0.93691275 0.06308725)(0.8981149 0.1018851))))) ;
}
potential ( K96.00 | K86.00 N01.00 U71.00 age ) 
{
  data = (((((0.91278643 0.08721357)(0.91744308 0.08255692)(0.95641392 0.04358608)(0.97099471 0.02900529))((0.94265904 0.05734096)(0.92536741 0.07463259)(0.94402211 0.05597789)(0.95809304 0.04190696)))(((0.94867834 0.05132166)(0.91686183 0.08313817)(0.94598338 0.05401662)(0.94652406 0.05347594))((0.90643623 0.09356377)(0.8697917 0.1302083)(0.90873016 0.09126984)(0.93939394 0.06060606))))((((0.95692749 0.04307251)(0.96048346 0.03951654)(0.96721838 0.03278162)(0.9731785 0.0268215))((0.90617284 0.09382716)(0.91885205 0.08114795)(0.94025798 0.05974202)(0.9435654 0.0564346)))(((0.93142857 0.06857143)(0.92656481 0.07343519)(0.94822485 0.05177515)(0.95059289 0.04940711))((0.8676471 0.1323529)(0.90542907 0.09457093)(0.8856209 0.1143791)(0.92238806 0.07761194))))) ;
}
potential ( K99.00 | K92.00 K99.01 age ) 
{
  data = ((((0.996538355 0.003461645)(0.992613932 0.007386068)(0.98886414 0.01113586)(0.98756483 0.01243517))((1.0 0.0)(0.8895028 0.1104972)(0.8878205 0.1121795)(0.92387543 0.07612457)))(((0.97087379 0.02912621)(0.9522293 0.0477707)(0.9303548 0.0696452)(0.9471831 0.0528169))((0.5 0.5)(0.8235294 0.1764706)(0.75 0.25)(0.7 0.3)))) ;
}
potential ( K99.01 | age geslacht ) 
{
  data = (((1.0 0.0)(0.9998631637 0.0001368363)(0.9998956304 0.0001043696))((0.5 0.5)(0.995875722 0.004124278)(0.998898249 0.001101751))((0.5 0.5)(0.98050159 0.01949841)(0.996620806 0.003379194))((1.0 0.0)(0.97977738 0.02022262)(0.99603757 0.00396243))) ;
}
potential ( K99.03 | geslacht ) 
{
  data = ((1.0 0.0)(0.99876479 0.00123521)(9.999451e-01 5.488223e-05)) ;
}
potential ( K99.04 | K07.00 age ) 
{
  data = (((0.9997176603 0.0002823397)(0.998443238 0.001556762)(0.99722273 0.00277727)(0.994228793 0.005771207))((0.997867804 0.002132196)(0.98996026 0.01003974)(0.990184414 0.009815586)(0.98221001 0.01778999))) ;
}
potential ( K99.05 | N01.00 age ) 
{
  data = (((1.0 0.0)(0.9998053257 0.0001946743)(0.998992041 0.001007959)(0.99858771 0.00141229))((1.0 0.0)(0.998254799 0.001745201)(0.993865031 0.006134969)(0.98923513 0.01076487))) ;
}
potential ( N01.00 | K86.00 N17.00 U71.00 age ) 
{
  data = (((((0.7978908 0.2021092)(0.8858575 0.1141425)(0.93999803 0.06000197)(0.95854306 0.04145694))((0.8520833 0.1479167)(0.8803857 0.1196143)(0.92857143 0.07142857)(0.94525396 0.05474604)))(((0.8164894 0.1835106)(0.8560633 0.1439367)(0.8938547 0.1061453)(0.92035398 0.07964602))((0.7266082 0.2733918)(0.7806122 0.2193878)(0.849711 0.150289)(0.868594 0.131406))))((((0.894279 0.105721)(0.93625951 0.06374049)(0.95493633 0.04506367)(0.95875599 0.04124401))((0.7628866 0.2371134)(0.8866971 0.1133029)(0.9197861 0.0802139)(0.92813642 0.07186358)))(((0.7687075 0.2312925)(0.8469981 0.1530019)(0.8725681 0.1274319)(0.892575 0.107425))((0.625 0.375)(0.7807018 0.2192982)(0.8187919 0.1812081)(0.8825623 0.1174377))))) ;
}
potential ( N02.00 | N01.00 age geslacht ) 
{
  data = ((((0.98571429 0.01428571)(0.95440754 0.04559246)(0.92257925 0.07742075))((0.5 0.5)(0.97554998 0.02445002)(0.95556307 0.04443693))((0.5 0.5)(0.98774692 0.01225308)(0.97706632 0.02293368))((0.5 0.5)(0.99280128 0.00719872)(0.98619432 0.01380568)))(((0.8 0.2)(0.8983891 0.1016109)(0.8395395 0.1604605))((0.5 0.5)(0.8802334 0.1197666)(0.8377056 0.1622944))((0.5 0.5)(0.92017417 0.07982583)(0.8729282 0.1270718))((1.0 0.0)(0.94003868 0.05996132)(0.8981556 0.1018444)))) ;
}
potential ( N03.00 | N01.00 N17.00 ) 
{
  data = (((0.995770444 0.004229556)(0.992693508 0.007306492))((0.98926275 0.01073725)(0.97280967 0.02719033))) ;
}
potential ( N04.00 | N94.00 age geslacht ) 
{
  data = ((((0.975 0.025)(0.996709835 0.003290165)(0.995368242 0.004631758))((0.5 0.5)(0.990208148 0.009791852)(0.97802563 0.02197437))((0.5 0.5)(0.98872868 0.01127132)(0.97007108 0.02992892))((0.5 0.5)(0.98609032 0.01390968)(0.97609562 0.02390438)))(((0.5 0.5)(0.993957704 0.006042296)(0.98915401 0.01084599))((0.5 0.5)(0.97366597 0.02633403)(0.95094604 0.04905396))((0.5 0.5)(0.96747967 0.03252033)(0.92322097 0.07677903))((1.0 0.0)(0.96341463 0.03658537)(0.92659054 0.07340946)))) ;
}
potential ( N05.00 | N06.00 N93.00 N94.00 ) 
{
  data = ((((0.98664484 0.01335516)(0.96634137 0.03365863))((0.94210729 0.05789271)(0.95072464 0.04927536)))(((0.96439816 0.03560184)(0.91205212 0.08794788))((0.91941392 0.08058608)(0.94871795 0.05128205)))) ;
}
potential ( N06.00 | N17.00 N87.00 N93.00 N94.00 ) 
{
  data = (((((0.97806801 0.02193199)(0.94726729 0.05273271))((0.95480573 0.04519427)(0.8988095 0.1011905)))(((0.92953368 0.07046632)(0.91304348 0.08695652))((0.75 0.25)(1.0 0.0))))((((0.96210885 0.03789115)(0.90731707 0.09268293))((0.91621129 0.08378871)(0.893617 0.106383)))(((0.8661972 0.1338028)(0.8333333 0.1666667))((0.25 0.75)(0.5 0.5))))) ;
}
potential ( N06.01 | N06.00 N87.00 N87.01 ) 
{
  data = ((((0.995256509 0.004743491)(0.93939394 0.06060606))((0.96004843 0.03995157)(0.94805195 0.05194805)))(((0.96002593 0.03997407)(0.75 0.25))((0.8831169 0.1168831)(0.6315789 0.3684211)))) ;
}
potential ( N07.00 | N88.00 age ) 
{
  data = (((0.995423777 0.004576223)(0.9995045291 0.0004954709)(0.9992767678 0.0007232322)(0.9990899677 0.0009100323))((0.94002695 0.05997305)(0.96405229 0.03594771)(0.98051948 0.01948052)(0.97391304 0.02608696))) ;
}
potential ( N07.01 | N07.00 age ) 
{
  data = (((0.997103733 0.002896267)(9.999875e-01 1.252285e-05)(1.0 0.0)(0.999968919 0.000031081))((0.8825623 0.1174377)(1.0 0.0)(1.0 0.0)(0.97368421 0.02631579))) ;
}
potential ( N16.00 | K86.00 U05.00 ) 
{
  data = (((0.99574718 0.00425282)(0.994836489 0.005163511))((0.997342433 0.002657567)(0.990263692 0.009736308))) ;
}
potential ( N17.00 | K04.00 age geslacht ) 
{
  data = ((((0.92207792 0.07792208)(0.95524858 0.04475142)(0.92851601 0.07148399))((0.5 0.5)(0.94705747 0.05294253)(0.92122593 0.07877407))((0.5 0.5)(0.92313869 0.07686131)(0.8986043 0.1013957))((0.5 0.5)(0.8935706 0.1064294)(0.8618685 0.1381315)))(((1.0 0.0)(0.958159 0.041841)(0.8961194 0.1038806))((0.5 0.5)(0.91211718 0.08788282)(0.877686 0.122314))((0.5 0.5)(0.8659341 0.1340659)(0.8123393 0.1876607))((0.0 1.0)(0.8039216 0.1960784)(0.7410359 0.2589641)))) ;
}
potential ( N17.01 | N17.00 N17.02 U71.01 ) 
{
  data = ((((0.98680327 0.01319673)(0.97836293 0.02163707))((0.95491803 0.04508197)(0.95441595 0.04558405)))(((0.95057174 0.04942826)(0.90091001 0.09908999))((0.8888889 0.1111111)(0.8367347 0.1632653)))) ;
}
potential ( N17.02 | K04.00 K88.00 N17.00 U71.01 ) 
{
  data = (((((0.98152918 0.01847082)(0.96921421 0.03078579))((0.95016717 0.04983283)(0.8808017 0.1191983)))(((0.94444444 0.05555556)(0.8913043 0.1086957))((0.90019569 0.09980431)(0.7592593 0.2407407))))((((0.96717936 0.03282064)(0.93617021 0.06382979))((0.92966102 0.07033898)(0.8387097 0.1612903)))(((0.92517007 0.07482993)(0.8235294 0.1764706))((0.92537313 0.07462687)(0.9 0.1))))) ;
}
potential ( N18.00 | K07.00 K89.00 K90.00 ) 
{
  data = ((((0.994545151 0.005454849)(0.97160199 0.02839801))((0.98057035 0.01942965)(0.97094431 0.02905569)))(((0.98920813 0.01079187)(0.95685005 0.04314995))((0.95840555 0.04159445)(0.95927602 0.04072398)))) ;
}
potential ( N19.00 | K86.00 age geslacht ) 
{
  data = ((((1.0 0.0)(0.92328306 0.07671694)(0.97645471 0.02354529))((0.5 0.5)(0.995384386 0.004615614)(0.995413923 0.004586077))((0.5 0.5)(0.995598349 0.004401651)(0.996188056 0.003811944))((1.0 0.0)(0.993037543 0.006962457)(0.993727428 0.006272572)))(((1.0 0.0)(0.997427653 0.002572347)(0.996621622 0.003378378))((0.5 0.5)(0.997472412 0.002527588)(0.997507616 0.002492384))((0.5 0.5)(0.994480755 0.005519245)(0.996206133 0.003793867))((0.5 0.5)(0.99459946 0.00540054)(0.994959677 0.005040323)))) ;
}
potential ( N26.00 | K24.00 N01.00 ) 
{
  data = (((0.9994123776 0.0005876224)(0.998253724 0.001746276))((0.997352747 0.002647253)(0.97338403 0.02661597))) ;
}
potential ( N27.00 | K04.00 K27.00 N17.00 ) 
{
  data = ((((0.997849951 0.002150049)(0.995826011 0.004173989))((0.993081761 0.006918239)(0.96420048 0.03579952)))(((0.994734432 0.005265568)(0.98676012 0.01323988))((0.98250729 0.01749271)(1.0 0.0)))) ;
}
potential ( N28.00 | K90.00 U28.00 ) 
{
  data = (((0.9995820726 0.0004179274)(0.97794118 0.02205882))((0.996640195 0.003359805)(0.97435897 0.02564103))) ;
}
potential ( N29.00 | K29.00 K90.00 N17.00 ) 
{
  data = ((((0.993025433 0.006974567)(0.98332048 0.01667952))((0.97711299 0.02288701)(0.95936795 0.04063205)))(((0.96947005 0.03052995)(0.92673993 0.07326007))((0.92741935 0.07258065)(0.92857143 0.07142857)))) ;
}
potential ( N72.00 ) 
{
  data = ( 0.998121471 0.001878529 );
}
potential ( N74.00 | K86.00 N88.00 ) 
{
  data = (((0.997595023 0.002404977)(0.98533007 0.01466993))((0.998812195 0.001187805)(0.98393574 0.01606426))) ;
}
potential ( N75.00 | N74.00 N88.00 ) 
{
  data = (((0.997634147 0.002365853)(0.99154334 0.00845666))((0.8851541 0.1148459)(0.92 0.08))) ;
}
potential ( N76.00 | N74.00 N75.00 ) 
{
  data = (((0.9996009685 0.0003990315)(0.9826087 0.0173913))((0.93646409 0.06353591)(0.8888889 0.1111111))) ;
}
potential ( N79.00 | K86.00 U71.00 age ) 
{
  data = ((((0.95603297 0.04396703)(0.98844183 0.01155817)(0.994913893 0.005086107)(0.993242693 0.006757307))((0.97668153 0.02331847)(0.9868553 0.0131447)(0.992689129 0.007310871)(0.991554358 0.008445642)))(((0.993303571 0.006696429)(0.994336379 0.005663621)(0.995960982 0.004039018)(0.994431962 0.005568038))((0.98151571 0.01848429)(0.990895296 0.009104704)(0.990467405 0.009532595)(0.98497698 0.01502302)))) ;
}
potential ( N80.00 | N79.00 age geslacht ) 
{
  data = ((((1.0 0.0)(0.96364291 0.03635709)(0.98516873 0.01483127))((0.5 0.5)(0.99533709 0.00466291)(0.994693669 0.005306331))((0.5 0.5)(0.994891806 0.005108194)(0.995142094 0.004857906))((0.5 0.5)(0.993161224 0.006838776)(0.991907229 0.008092771)))(((1.0 0.0)(0.9476584 0.0523416)(0.96024096 0.03975904))((0.5 0.5)(0.96774194 0.03225806)(0.94890511 0.05109489))((0.5 0.5)(1.0 0.0)(0.95192308 0.04807692))((1.0 0.0)(0.94366197 0.05633803)(0.94915254 0.05084746)))) ;
}
potential ( N80.02 | K90.00 N80.00 ) 
{
  data = (((0.9994886836 0.0005113164)(0.991462721 0.008537279))((0.996928275 0.003071725)(0.97368421 0.02631579))) ;
}
potential ( N80.04 | N79.00 N80.00 ) 
{
  data = (((0.9991313049 0.0008686951)(0.98831776 0.01168224))((0.99231065 0.00768935)(0.95867769 0.04132231))) ;
}
potential ( N81.00 | N18.00 N94.00 ) 
{
  data = (((0.997742097 0.002257903)(0.991814947 0.008185053))((0.98460292 0.01539708)(0.95652174 0.04347826))) ;
}
potential ( N85.00 | N99.00 age ) 
{
  data = (((0.99793561 0.00206439)(0.9995833912 0.0004166088)(0.9997370151 0.0002629849)(1.0 0.0))((0.96646341 0.03353659)(0.98898072 0.01101928)(0.996742671 0.003257329)(0.993174061 0.006825939))) ;
}
potential ( N86.00 | K86.00 age ) 
{
  data = (((0.995297136 0.004702864)(0.992510019 0.007489981)(0.997073782 0.002926218)(0.998991484 0.001008516))((0.997008431 0.002991569)(0.998482903 0.001517097)(0.998839624 0.001160376)(0.9993734336 0.0006265664))) ;
}
potential ( N87.00 | K86.00 U04.00 age ) 
{
  data = ((((0.9998204253 0.0001795747)(0.99764338 0.00235662)(0.9851754 0.0148246)(0.97733658 0.02266342))((1.0 0.0)(0.994771242 0.005228758)(0.96286107 0.03713893)(0.95685418 0.04314582)))(((0.9997248968 0.0002751032)(0.998297694 0.001702306)(0.99396856 0.00603144)(0.98948025 0.01051975))((1.0 0.0)(0.997474747 0.002525253)(0.97465146 0.02534854)(0.96472894 0.03527106)))) ;
}
potential ( N87.01 | N87.00 age ) 
{
  data = (((9.999309e-01 6.907349e-05)(0.9993104832 0.0006895168)(0.997103739 0.002896261)(0.995503626 0.004496374))((1.0 0.0)(0.7192982 0.2807018)(0.7580175 0.2419825)(0.8114105 0.1885895))) ;
}
potential ( N88.00 | K86.00 K90.00 U71.00 age ) 
{
  data = (((((0.95552785 0.04447215)(0.97733061 0.02266939)(0.98725872 0.01274128)(0.990645718 0.009354282))((0.98490636 0.01509364)(0.98556326 0.01443674)(0.98921469 0.01078531)(0.9892821 0.0107179)))(((0.94488189 0.05511811)(0.9590766 0.0409234)(0.97101449 0.02898551)(0.97012579 0.02987421))((0.8709677 0.1290323)(0.90555556 0.09444444)(0.94972067 0.05027933)(0.96129032 0.03870968))))((((0.994544288 0.005455712)(0.994396507 0.005603493)(0.995469719 0.004530281)(0.994363845 0.005636155))((0.98510242 0.01489758)(0.991971454 0.008028546)(0.98957655 0.01042345)(0.98945091 0.01054909)))(((0.9 0.1)(0.95644599 0.04355401)(0.96851852 0.03148148)(0.9695122 0.0304878))((1.0 0.0)(0.94573643 0.05426357)(0.96153846 0.03846154)(0.96744186 0.03255814))))) ;
}
potential ( N89.00 | N01.00 N02.00 age geslacht ) 
{
  data = (((((0.98550725 0.01449275)(0.96090729 0.03909271)(0.92669472 0.07330528))((0.5 0.5)(0.98253569 0.01746431)(0.94778231 0.05221769))((0.5 0.5)(0.994737238 0.005262762)(0.9841514 0.0158486))((0.5 0.5)(0.997583027 0.002416973)(0.994506075 0.005493925)))(((1.0 0.0)(0.9352518 0.0647482)(0.8835655 0.1164345))((0.5 0.5)(0.94376528 0.05623472)(0.8864833 0.1135167))((0.5 0.5)(0.96969697 0.03030303)(0.94301994 0.05698006))((0.5 0.5)(0.98765432 0.01234568)(0.96981132 0.03018868))))((((0.875 0.125)(0.93149425 0.06850575)(0.8680094 0.1319906))((0.5 0.5)(0.93996101 0.06003899)(0.8548726 0.1451274))((0.5 0.5)(0.96845426 0.03154574)(0.93761302 0.06238698))((1.0 0.0)(0.98559671 0.01440329)(0.97321429 0.02678571)))(((1.0 0.0)(0.8861789 0.1138211)(0.793722 0.206278))((0.5 0.5)(0.90544413 0.09455587)(0.7768396 0.2231604))((0.5 0.5)(0.96363636 0.03636364)(0.91304348 0.08695652))((0.5 0.5)(0.96774194 0.03225806)(0.94488189 0.05511811))))) ;
}
potential ( N90.00 | N01.00 N89.00 ) 
{
  data = (((0.998510362 0.001489638)(0.992870201 0.007129799))((0.993811038 0.006188962)(0.9863272 0.0136728))) ;
}
potential ( N91.00 | K90.00 ) 
{
  data = ((0.996500287 0.003499713)(0.992864734 0.007135266)) ;
}
potential ( N92.00 | N01.00 N03.00 ) 
{
  data = (((0.997931716 0.002068284)(0.90604027 0.09395973))((0.995072627 0.004927373)(0.9 0.1))) ;
}
potential ( N93.00 | age geslacht ) 
{
  data = (((1.0 0.0)(0.98734264 0.01265736)(0.97168105 0.02831895))((0.5 0.5)(0.97506186 0.02493814)(0.94557808 0.05442192))((0.5 0.5)(0.98269163 0.01730837)(0.96819937 0.03180063))((1.0 0.0)(0.98538533 0.01461467)(0.96976812 0.03023188))) ;
}
potential ( N94.00 | K86.00 N93.00 age ) 
{
  data = ((((0.98262638 0.01737362)(0.95870938 0.04129062)(0.96397942 0.03602058)(0.97128311 0.02871689))((0.93962678 0.06037322)(0.93950851 0.06049149)(0.92243767 0.07756233)(0.94277929 0.05722071)))(((0.98328225 0.01671775)(0.97381772 0.02618228)(0.97130865 0.02869135)(0.96671688 0.03328312))((0.97727273 0.02272727)(0.93373494 0.06626506)(0.91240876 0.08759124)(0.91252955 0.08747045)))) ;
}
potential ( N94.02 | N94.00 age ) 
{
  data = (((0.9996482836 0.0003517164)(0.997456758 0.002543242)(0.994680314 0.005319686)(0.994517122 0.005482878))((0.991161616 0.008838384)(0.97839721 0.02160279)(0.95906433 0.04093567)(0.95214844 0.04785156))) ;
}
potential ( N94.03 | N94.00 ) 
{
  data = ((0.998316759 0.001683241)(0.993872549 0.006127451)) ;
}
potential ( N94.04 | age ) 
{
  data = ((0.998319521 0.001680479)(0.996572301 0.003427699)(0.997656784 0.002343216)(0.9991307587 0.0008692413)) ;
}
potential ( N94.06 | age ) 
{
  data = ((0.9991252302 0.0008747698)(0.997573089 0.002426911)(0.99853549 0.00146451)(0.9992859804 0.0007140196)) ;
}
potential ( N99.00 | K07.00 N29.00 N94.00 ) 
{
  data = ((((0.992230347 0.007769653)(0.98208402 0.01791598))((0.96984127 0.03015873)(0.96190476 0.03809524)))(((0.98647568 0.01352432)(0.95724138 0.04275862))((0.94017094 0.05982906)(0.92307692 0.07692308)))) ;
}
potential ( U01.00 | K25.00 ) 
{
  data = ((0.95781627 0.04218373)(0.96633803 0.03366197)) ;
}
potential ( U02.00 | K86.00 U01.00 U04.00 U71.00 U71.01 ) 
{
  data = ((((((0.95299092 0.04700908)(0.92231597 0.07768403))((0.91320246 0.08679754)(0.8886378 0.1113622)))(((0.92851933 0.07148067)(0.8655914 0.1344086))((0.8627602 0.1372398)(0.806962 0.193038))))((((0.90143916 0.09856084)(0.8600823 0.1399177))((0.792769 0.207231)(0.7653509 0.2346491)))(((0.75 0.25)(0.75 0.25))((0.744898 0.255102)(0.5675676 0.4324324)))))(((((0.97398138 0.02601862)(0.9256 0.0744))((0.90755503 0.09244497)(0.8718291 0.1281709)))(((0.93315858 0.06684142)(0.858156 0.141844))((0.8291203 0.1708797)(0.7741935 0.2258065))))((((0.90233236 0.09766764)(0.875 0.125))((0.7638454 0.2361546)(0.721519 0.278481)))(((0.7954545 0.2045455)(0.8571429 0.1428571))((0.6890244 0.3109756)(0.6857143 0.3142857)))))) ;
}
potential ( U04.00 | K07.00 U71.00 age geslacht ) 
{
  data = (((((0.96923077 0.03076923)(0.98696489 0.01303511)(0.98057494 0.01942506))((0.5 0.5)(0.992788829 0.007211171)(0.96344143 0.03655857))((0.5 0.5)(0.97915213 0.02084787)(0.95170509 0.04829491))((0.5 0.5)(0.94630449 0.05369551)(0.91727941 0.08272059)))(((0.6666667 0.3333333)(0.97974414 0.02025586)(0.97616683 0.02383317))((0.5 0.5)(0.96591455 0.03408545)(0.94191234 0.05808766))((0.5 0.5)(0.95125348 0.04874652)(0.9095034 0.0904966))((0.0 1.0)(0.87 0.13)(0.8593341 0.1406659))))((((1.0 0.0)(0.98148148 0.01851852)(0.97546012 0.02453988))((0.5 0.5)(0.98061737 0.01938263)(0.94163247 0.05836753))((0.5 0.5)(0.93889428 0.06110572)(0.91991018 0.08008982))((0.5 0.5)(0.8931732 0.1068268)(0.8708597 0.1291403)))(((0.0 1.0)(1.0 0.0)(0.92962963 0.07037037))((0.5 0.5)(0.8742515 0.1257485)(0.8618677 0.1381323))((0.5 0.5)(0.8660714 0.1339286)(0.8171206 0.1828794))((0.5 0.5)(0.8146853 0.1853147)(0.7655572 0.2344428))))) ;
}
potential ( U04.01 | U04.00 U04.03 geslacht ) 
{
  data = ((((1.0 0.0)(0.9994797642 0.0005202358)(0.990787359 0.009212641))((0.5 0.5)(1.0 0.0)(0.93 0.07)))(((0.875 0.125)(0.995687332 0.004312668)(0.9674646 0.0325354))((0.5 0.5)(0.95238095 0.04761905)(0.91346154 0.08653846)))) ;
}
potential ( U04.02 | U02.00 U04.00 U04.03 ) 
{
  data = ((((0.996534848 0.003465152)(0.96324952 0.03675048))((0.97478869 0.02521131)(0.8963731 0.1036269)))(((0.98566455 0.01433545)(0.94117647 0.05882353))((0.93997856 0.06002144)(0.75 0.25)))) ;
}
potential ( U04.03 | K77.02 U04.00 geslacht ) 
{
  data = ((((1.0 0.0)(0.9992342003 0.0007657997)(0.995428259 0.004571741))((1.0 0.0)(0.990690033 0.009309967)(0.96658354 0.03341646)))(((0.5 0.5)(0.98172757 0.01827243)(0.96083231 0.03916769))((1.0 0.0)(0.92 0.08)(0.944 0.056)))) ;
}
potential ( U05.00 | U02.00 U04.00 U71.00 geslacht ) 
{
  data = (((((1.0 0.0)(0.96415216 0.03584784)(0.98069003 0.01930997))((1.0 0.0)(0.8883072 0.1116928)(0.94374151 0.05625849)))(((1.0 0.0)(0.90955199 0.09044801)(0.96100629 0.03899371))((0.6 0.4)(0.7920561 0.2079439)(0.8852459 0.1147541))))((((0.5 0.5)(0.899373 0.100627)(0.94128788 0.05871212))((0.5 0.5)(0.834873 0.165127)(0.8705543 0.1294457)))(((0.5 0.5)(0.8129032 0.1870968)(0.90540541 0.09459459))((1.0 0.0)(0.6545455 0.3454545)(0.7754678 0.2245322))))) ;
}
potential ( U05.02 | U05.00 U71.00 age geslacht ) 
{
  data = (((((0.98507463 0.01492537)(0.9990167158 0.0009832842)(0.9993816751 0.0006183249))((0.5 0.5)(0.997378129 0.002621871)(0.998988558 0.001011442))((0.5 0.5)(0.98947896 0.01052104)(0.998883449 0.001116551))((0.5 0.5)(0.9739479 0.0260521)(0.996321227 0.003678773)))(((0.90909091 0.09090909)(0.997714286 0.002285714)(0.9990735975 0.0009264025))((0.5 0.5)(0.98185484 0.01814516)(0.997636604 0.002363396))((0.5 0.5)(0.94993046 0.05006954)(0.99863388 0.00136612))((1.0 0.0)(0.92371562 0.07628438)(0.98971647 0.01028353))))((((0.5 0.5)(0.997742664 0.002257336)(0.991856678 0.008143322))((0.5 0.5)(0.9787718 0.0212282)(0.993208829 0.006791171))((0.5 0.5)(0.92292871 0.07707129)(0.9895288 0.0104712))((0.5 0.5)(0.8834951 0.1165049)(0.95951417 0.04048583)))(((1.0 0.0)(0.97402597 0.02597403)(0.9952 0.0048))((0.5 0.5)(0.92105263 0.07894737)(0.98950131 0.01049869))((0.5 0.5)(0.8378378 0.1621622)(0.96820809 0.03179191))((0.5 0.5)(0.7623188 0.2376812)(0.94281046 0.05718954))))) ;
}
potential ( U06.00 | K86.00 U07.00 U71.00 U71.01 ) 
{
  data = (((((0.98075668 0.01924332)(0.96718666 0.03281334))((0.96259362 0.03740638)(0.9471194 0.0528806)))(((0.95608782 0.04391218)(0.92682927 0.07317073))((0.92169448 0.07830552)(0.91719745 0.08280255))))((((0.98380179 0.01619821)(0.95602837 0.04397163))((0.94422585 0.05577415)(0.92853276 0.07146724)))(((0.90934844 0.09065156)(0.8676471 0.1323529))((0.8825215 0.1174785)(0.8888889 0.1111111))))) ;
}
potential ( U07.00 | K25.00 K86.00 U01.00 U71.00 ) 
{
  data = (((((0.98773978 0.01226022)(0.9654348 0.0345652))((0.970726 0.029274)(0.94925269 0.05074731)))(((0.993749529 0.006250471)(0.96715224 0.03284776))((0.96020539 0.03979461)(0.93293592 0.06706408))))((((0.9795726 0.0204274)(0.8922889 0.1077111))((0.94285714 0.05714286)(0.925 0.075)))(((0.97438202 0.02561798)(0.8744113 0.1255887))((0.97368421 0.02631579)(0.90196078 0.09803922))))) ;
}
potential ( U13.00 | U02.00 U05.00 U05.02 U71.00 ) 
{
  data = (((((0.997401865 0.002598135)(0.991111376 0.008888624))((0.97005988 0.02994012)(0.91772152 0.08227848)))(((0.98941799 0.01058201)(0.97017399 0.02982601))((0.98473282 0.01526718)(0.8933333 0.1066667))))((((0.990389749 0.009610251)(0.97861242 0.02138758))((0.96774194 0.03225806)(0.90384615 0.09615385)))(((0.97830375 0.02169625)(0.95348837 0.04651163))((1.0 0.0)(0.9375 0.0625))))) ;
}
potential ( U14.00 | U95.00 U99.00 U99.01 ) 
{
  data = ((((0.997112862 0.002887138)(0.97842402 0.02157598))((0.97453907 0.02546093)(0.94966443 0.05033557)))(((0.9615275 0.0384725)(0.95588235 0.04411765))((0.8955224 0.1044776)(1.0 0.0)))) ;
}
potential ( U14.01 | U14.00 U95.00 ) 
{
  data = (((0.9990606409 0.0009393591)(0.97489301 0.02510699))((0.98883573 0.01116427)(0.8896552 0.1103448))) ;
}
potential ( U26.00 | geslacht ) 
{
  data = ((1.0 0.0)(0.998660772 0.001339228)(0.9998262063 0.0001737937)) ;
}
potential ( U27.00 | K25.00 U71.00 U71.01 U71.02 ) 
{
  data = (((((0.994183644 0.005816356)(0.94763729 0.05236271))((0.97952854 0.02047146)(0.92668622 0.07331378)))(((0.9801382 0.0198618)(0.95655036 0.04344964))((0.95883927 0.04116073)(0.8571429 0.1428571))))((((0.98783501 0.01216499)(0.8309859 0.1690141))((0.91176471 0.08823529)(0.4615385 0.5384615)))(((0.9350211 0.0649789)(0.8554217 0.1445783))((0.8834586 0.1165414)(0.6862745 0.3137255))))) ;
}
potential ( U28.00 | U05.02 U71.00 age ) 
{
  data = ((((0.9997196611 0.0002803389)(0.9997129779 0.0002870221)(0.998840484 0.001159516)(0.997519058 0.002480942))((0.9992912828 0.0007087172)(0.997925926 0.002074074)(0.996014666 0.003985334)(0.992092327 0.007907673)))(((0.96774194 0.03225806)(0.98666667 0.01333333)(0.96685083 0.03314917)(0.95441595 0.04558405))((1.0 0.0)(0.95555556 0.04444444)(0.96 0.04)(0.90718563 0.09281437)))) ;
}
potential ( U29.00 | K29.00 U05.00 U71.00 ) 
{
  data = ((((0.997287016 0.002712984)(0.98915174 0.01084826))((0.991777067 0.008222933)(0.97691828 0.02308172)))(((0.97186701 0.02813299)(0.8665298 0.1334702))((0.8135593 0.1864407)(0.8039216 0.1960784)))) ;
}
potential ( U70.00 | U71.00 U71.01 U95.00 ) 
{
  data = ((((0.996234261 0.003765739)(0.98426501 0.01573499))((0.98038842 0.01961158)(0.90740741 0.09259259)))(((0.97406213 0.02593787)(0.92340426 0.07659574))((0.95817358 0.04182642)(0.8502674 0.1497326)))) ;
}
potential ( U71.00 | K25.00 K85.00 K86.00 U01.00 ) 
{
  data = (((((0.7670765 0.2329235)(0.4709752 0.5290248))((0.836993 0.163007)(0.368974 0.631026)))(((0.8433433 0.1566567)(0.4723247 0.5276753))((0.8256559 0.1743441)(0.361829 0.638171))))((((0.8014993 0.1985007)(0.4774775 0.5225225))((0.7857961 0.2142039)(0.4590164 0.5409836)))(((0.7665663 0.2334337)(0.4358974 0.5641026))((0.7643369 0.2356631)(0.3571429 0.6428571))))) ;
}
potential ( U71.01 | K86.00 U01.00 U07.00 U71.00 ) 
{
  data = (((((0.95922953 0.04077047)(0.871467 0.128533))((0.8721251 0.1278749)(0.7258236 0.2741764)))(((0.90834313 0.09165687)(0.8442068 0.1557932))((0.6835443 0.3164557)(0.6315789 0.3684211))))((((0.97576066 0.02423934)(0.8491834 0.1508166))((0.848329 0.151671)(0.6941176 0.3058824)))(((0.90063694 0.09936306)(0.8220339 0.1779661))((0.71875 0.28125)(0.5684211 0.4315789))))) ;
}
potential ( U71.02 | U01.00 U02.00 U71.00 U71.01 ) 
{
  data = (((((0.98942459 0.01057541)(0.93621176 0.06378824))((0.96297334 0.03702666)(0.8695073 0.1304927)))(((0.97164426 0.02835574)(0.93333333 0.06666667))((0.92554645 0.07445355)(0.8486239 0.1513761))))((((0.9705142 0.0294858)(0.90572391 0.09427609))((0.92718795 0.07281205)(0.8566372 0.1433628)))(((0.96583851 0.03416149)(0.8979592 0.1020408))((0.8444166 0.1555834)(0.84 0.16))))) ;
}
potential ( U72.00 | U01.00 U71.00 geslacht ) 
{
  data = ((((1.0 0.0)(0.995057757 0.004942243)(0.9996322879 0.0003677121))((1.0 0.0)(0.98857848 0.01142152)(0.99834124 0.00165876)))(((1.0 0.0)(0.96969697 0.03030303)(0.998059195 0.001940805))((1.0 0.0)(0.98015267 0.01984733)(0.995397943 0.004602057)))) ;
}
potential ( U75.00 | U06.00 age ) 
{
  data = (((0.9995571818 0.0004428182)(0.997993662 0.002006338)(0.996864147 0.003135853)(0.996427644 0.003572356))((0.998123827 0.001876173)(0.98931751 0.01068249)(0.98691589 0.01308411)(0.98591549 0.01408451))) ;
}
potential ( U76.00 | U06.00 age geslacht ) 
{
  data = ((((1.0 0.0)(0.9995138551 0.0004861449)(0.9998241171 0.0001758829))((0.5 0.5)(0.997086115 0.002913885)(0.998787992 0.001212008))((0.5 0.5)(0.98956392 0.01043608)(0.997845093 0.002154907))((1.0 0.0)(0.98565346 0.01434654)(0.998048732 0.001951268)))(((0.5 0.5)(0.98617512 0.01382488)(0.996835443 0.003164557))((0.5 0.5)(0.91291585 0.08708415)(0.96983409 0.03016591))((0.5 0.5)(0.877027 0.122973)(0.94545455 0.05454545))((0.5 0.5)(0.8777202 0.1222798)(0.90549451 0.09450549)))) ;
}
potential ( U79.00 | U75.00 U76.00 ) 
{
  data = (((0.9996702435 0.0003297565)(0.97997775 0.02002225))((0.9538835 0.0461165)(0.85 0.15))) ;
}
potential ( U85.00 | U71.01 U99.00 ) 
{
  data = (((0.9994067128 0.0005932872)(0.990857947 0.009142053))((0.997767259 0.002232741)(0.97727273 0.02272727))) ;
}
potential ( U88.00 | U99.00 U99.01 ) 
{
  data = (((0.9991296684 0.0008703316)(0.991733007 0.008266993))((0.992537313 0.007462687)(0.95394737 0.04605263))) ;
}
potential ( U95.00 | U06.00 U71.00 age geslacht ) 
{
  data = (((((0.98507463 0.01492537)(0.98094037 0.01905963)(0.991345311 0.008654689))((0.5 0.5)(0.97146287 0.02853713)(0.98583161 0.01416839))((0.5 0.5)(0.98155259 0.01844741)(0.99205807 0.00794193))((0.5 0.5)(0.9885855 0.0114145)(0.995344507 0.004655493)))(((0.8461538 0.1538462)(0.95409836 0.04590164)(0.98328746 0.01671254))((0.5 0.5)(0.94463668 0.05536332)(0.96800582 0.03199418))((0.5 0.5)(0.95470383 0.04529617)(0.97793469 0.02206531))((1.0 0.0)(0.97591006 0.02408994)(0.98844908 0.01155092))))((((0.5 0.5)(0.91111111 0.08888889)(0.93918919 0.06081081))((0.5 0.5)(0.881761 0.118239)(0.8769231 0.1230769))((0.5 0.5)(0.93980583 0.06019417)(0.93548387 0.06451613))((0.5 0.5)(0.95008913 0.04991087)(0.98518519 0.01481481)))(((0.5 0.5)(0.91891892 0.08108108)(0.91666667 0.08333333))((0.5 0.5)(0.8810573 0.1189427)(0.8609467 0.1390533))((0.5 0.5)(0.90666667 0.09333333)(0.91747573 0.08252427))((0.5 0.5)(0.95792079 0.04207921)(0.965625 0.034375))))) ;
}
potential ( U98.00 | U06.00 U71.00 U71.01 ) 
{
  data = ((((0.99724149 0.00275851)(0.98894277 0.01105723))((0.993612322 0.006387678)(0.97876934 0.02123066)))(((0.98797517 0.01202483)(0.98536585 0.01463415))((0.97689345 0.02310655)(0.96730245 0.03269755)))) ;
}
potential ( U98.01 | K87.00 U98.00 U99.01 ) 
{
  data = ((((0.998027545 0.001972455)(0.98528302 0.01471698))((0.96514745 0.03485255)(0.95652174 0.04347826)))(((0.991748683 0.008251317)(0.98314607 0.01685393))((0.94594595 0.05405405)(0.5714286 0.4285714)))) ;
}
potential ( U99.00 | K77.00 K87.00 U71.00 U99.01 ) 
{
  data = (((((0.996035419 0.003964581)(0.91981132 0.08018868))((0.990204884 0.009795116)(0.91680815 0.08319185)))(((0.98406593 0.01593407)(0.92249527 0.07750473))((0.97470489 0.02529511)(0.8963415 0.1036585))))((((0.98694316 0.01305684)(0.90322581 0.09677419))((0.96285849 0.03714151)(0.8991228 0.1008772)))(((0.97492625 0.02507375)(0.92424242 0.07575758))((0.95454545 0.04545455)(0.875 0.125))))) ;
}
potential ( U99.01 | K77.00 K86.00 K87.00 age ) 
{
  data = (((((0.998686471 0.001313529)(0.994804717 0.005195283)(0.98421227 0.01578773)(0.96847455 0.03152545))((0.8947368 0.1052632)(0.95095168 0.04904832)(0.94183865 0.05816135)(0.8987234 0.1012766)))(((0.993248945 0.006751055)(0.990230596 0.009769404)(0.97399238 0.02600762)(0.95146641 0.04853359))((0.94392523 0.05607477)(0.95542473 0.04457527)(0.93415179 0.06584821)(0.8843768 0.1156232))))((((0.98734177 0.01265823)(0.96403873 0.03596127)(0.94216418 0.05783582)(0.92824632 0.07175368))((1.0 0.0)(0.90140845 0.09859155)(0.8803419 0.1196581)(0.8173913 0.1826087)))(((0.9 0.1)(0.93793103 0.06206897)(0.8932238 0.1067762)(0.8882391 0.1117609))((0.8 0.2)(0.8765432 0.1234568)(0.875 0.125)(0.8195021 0.1804979))))) ;
}
potential ( age | K85.00 K86.00 U71.00 geslacht ) 
{
  data = (((((1.0 0.0 0.0 0.0)(0.2946337 0.4224050 0.1446924 0.1382689)(0.3814572 0.3775371 0.1002064 0.1407993))((1.0 0.0 0.0 0.0)(0.1916630 0.2984120 0.1910013 0.3189237)(0.43145500 0.31171706 0.08702581 0.16980213)))(((1.0 0.0 0.0 0.0)(0.05167371 0.56534658 0.23664051 0.14633920)(0.04942822 0.46998701 0.24177942 0.23880534))((1.0 0.0 0.0 0.0)(0.02369668 0.32280147 0.30911006 0.34439179)(0.03992491 0.35406758 0.24993742 0.35607009))))((((1.0 0.0 0.0 0.0)(0.12969737 0.59827070 0.17791819 0.09411373)(0.1170635 0.5651455 0.1861772 0.1316138))((0.0 0.0 0.0 1.0)(0.05490196 0.38039216 0.31372549 0.25098039)(0.1185325 0.4562559 0.2201317 0.2050800)))(((1.0 0.0 0.0 0.0)(0.07144225 0.62133691 0.20570772 0.10151312)(0.07755474 0.55145985 0.21514599 0.15583942))((1.0 0.0 0.0 0.0)(0.05381166 0.41928251 0.28475336 0.24215247)(0.06748746 0.44870041 0.24669403 0.23711810))))) ;
}
potential ( geslacht | U06.00 U71.00 U71.01 ) 
{
  data = ((((0.0004876522 0.4874702496 0.5120420982)(0.0000000 0.1454898 0.8545102))((0.0003581876 0.1680198197 0.8316219927)(0.0003598417 0.1101115509 0.8895286074)))(((0.0000000 0.7567882 0.2432118)(0.0000000 0.4878049 0.5121951))((0.0000000 0.4910141 0.5089859)(0.0000000 0.3487738 0.6512262)))) ;
}
