net 
{ 
}
node K01.00 
{
  states = ( "0" "1" );
}
node K02.00 
{
  states = ( "0" "1" );
}
node K03.00 
{
  states = ( "0" "1" );
}
node K04.00 
{
  states = ( "0" "1" );
}
node K05.00 
{
  states = ( "0" "1" );
}
node K06.00 
{
  states = ( "0" "1" );
}
node K07.00 
{
  states = ( "0" "1" );
}
node K24.00 
{
  states = ( "0" "1" );
}
node K25.00 
{
  states = ( "0" "1" );
}
node K27.00 
{
  states = ( "0" "1" );
}
node K28.00 
{
  states = ( "0" "1" );
}
node K29.00 
{
  states = ( "0" "1" );
}
node K29.01 
{
  states = ( "0" "1" );
}
node K29.02 
{
  states = ( "0" "1" );
}
node K70.00 
{
  states = ( "0" "1" );
}
node K71.00 
{
  states = ( "0" "1" );
}
node K73.00 
{
  states = ( "0" "1" );
}
node K73.02 
{
  states = ( "0" "1" );
}
node K74.00 
{
  states = ( "0" "1" );
}
node K74.01 
{
  states = ( "0" "1" );
}
node K74.02 
{
  states = ( "0" "1" );
}
node K75.00 
{
  states = ( "0" "1" );
}
node K76.00 
{
  states = ( "0" "1" );
}
node K76.01 
{
  states = ( "0" "1" );
}
node K76.02 
{
  states = ( "0" "1" );
}
node K77.00 
{
  states = ( "0" "1" );
}
node K77.01 
{
  states = ( "0" "1" );
}
node K77.02 
{
  states = ( "0" "1" );
}
node K78.00 
{
  states = ( "0" "1" );
}
node K79.00 
{
  states = ( "0" "1" );
}
node K79.01 
{
  states = ( "0" "1" );
}
node K80.00 
{
  states = ( "0" "1" );
}
node K80.01 
{
  states = ( "0" "1" );
}
node K80.02 
{
  states = ( "0" "1" );
}
node K81.00 
{
  states = ( "0" "1" );
}
node K82.00 
{
  states = ( "0" "1" );
}
node K83.00 
{
  states = ( "0" "1" );
}
node K83.01 
{
  states = ( "0" "1" );
}
node K83.02 
{
  states = ( "0" "1" );
}
node K84.00 
{
  states = ( "0" "1" );
}
node K84.02 
{
  states = ( "0" "1" );
}
node K84.03 
{
  states = ( "0" "1" );
}
node K85.00 
{
  states = ( "0" "1" );
}
node K86.00 
{
  states = ( "0" "1" );
}
node K87.00 
{
  states = ( "0" "1" );
}
node K88.00 
{
  states = ( "0" "1" );
}
node K89.00 
{
  states = ( "0" "1" );
}
node K90.00 
{
  states = ( "0" "1" );
}
node K90.01 
{
  states = ( "0" "1" );
}
node K90.02 
{
  states = ( "0" "1" );
}
node K90.03 
{
  states = ( "0" "1" );
}
node K91.00 
{
  states = ( "0" "1" );
}
node K92.00 
{
  states = ( "0" "1" );
}
node K92.01 
{
  states = ( "0" "1" );
}
node K92.02 
{
  states = ( "0" "1" );
}
node K93.00 
{
  states = ( "0" "1" );
}
node K94.00 
{
  states = ( "0" "1" );
}
node K94.01 
{
  states = ( "0" "1" );
}
node K94.02 
{
  states = ( "0" "1" );
}
node K95.00 
{
  states = ( "0" "1" );
}
node K96.00 
{
  states = ( "0" "1" );
}
node K99.00 
{
  states = ( "0" "1" );
}
node K99.01 
{
  states = ( "0" "1" );
}
node K99.03 
{
  states = ( "0" "1" );
}
node K99.04 
{
  states = ( "0" "1" );
}
node K99.05 
{
  states = ( "0" "1" );
}
node age 
{
  states = ( "_-Inf_40]" "_40_65]" "_65_75]" "_75_ Inf]" );
}
node geslacht 
{
  states = ( "-1" "1" "2" );
}
potential ( K01.00 | K74.00 K75.00 K76.00 K86.00 K96.00 ) 
{
  data = ((((((0.95271167 0.04728833)(0.97723984 0.02276016))((0.97621446 0.02378554)(0.94533639 0.05466361)))(((0.93020222 0.06979778)(0.8688525 0.1311475))((0.8918519 0.1081481)(0.91304348 0.08695652))))((((0.92088608 0.07911392)(0.8765432 0.1234568))((0.8980291 0.1019709)(0.7368421 0.2631579)))(((0.875969 0.124031)(0.8571429 0.1428571))((0.7957746 0.2042254)(0.5555556 0.4444444)))))(((((0.8955723 0.1044277)(0.832618 0.167382))((0.8763198 0.1236802)(0.8341232 0.1658768)))(((0.8266898 0.1733102)(0.725 0.275))((0.8230769 0.1769231)(0.8 0.2))))((((0.8233151 0.1766849)(0.7272727 0.2727273))((0.7894737 0.2105263)(0.64 0.36)))(((0.7142857 0.2857143)(0.5555556 0.4444444))((0.7590361 0.2409639)(0.75 0.25)))))) ;
}
potential ( K02.00 | K01.00 K74.00 K77.00 K86.00 ) 
{
  data = (((((0.96173029 0.03826971)(0.97740104 0.02259896))((0.9238959 0.0761041)(0.8919398 0.1080602)))(((0.92464613 0.07535387)(0.90243902 0.09756098))((0.837766 0.162234)(0.8013699 0.1986301))))((((0.93544691 0.06455309)(0.91017252 0.08982748))((0.8106509 0.1893491)(0.8292683 0.1707317)))(((0.8496124 0.1503876)(0.8397683 0.1602317))((0.6666667 0.3333333)(0.6761905 0.3238095))))) ;
}
potential ( K03.00 | K74.00 K92.00 K92.01 ) 
{
  data = ((((0.996768632 0.003231368)(0.96518987 0.03481013))((0.97446809 0.02553191)(0.94835681 0.05164319)))(((0.99172565 0.00827435)(0.97058824 0.02941176))((0.93518519 0.06481481)(0.8947368 0.1052632)))) ;
}
potential ( K04.00 | K86.00 K95.00 age geslacht ) 
{
  data = (((((0.93333333 0.06666667)(0.8526838 0.1473162)(0.7901089 0.2098911))((0.5 0.5)(0.92735715 0.07264285)(0.8311253 0.1688747))((0.5 0.5)(0.96505764 0.03494236)(0.9087284 0.0912716))((0.0 1.0)(0.97471861 0.02528139)(0.94916129 0.05083871)))(((0.5 0.5)(0.96412556 0.03587444)(0.9360506 0.0639494))((0.5 0.5)(0.96266968 0.03733032)(0.91400888 0.08599112))((0.5 0.5)(0.93115942 0.06884058)(0.90542636 0.09457364))((0.5 0.5)(0.9486166 0.0513834)(0.94621849 0.05378151))))((((0.96 0.04)(0.94685677 0.05314323)(0.92831723 0.07168277))((0.5 0.5)(0.96658455 0.03341545)(0.92698151 0.07301849))((0.5 0.5)(0.96554307 0.03445693)(0.92985814 0.07014186))((0.5 0.5)(0.9686623 0.0313377)(0.94674943 0.05325057)))(((0.5 0.5)(0.85 0.15)(0.8737864 0.1262136))((0.5 0.5)(0.95477387 0.04522613)(0.8853974 0.1146026))((0.5 0.5)(0.9255814 0.0744186)(0.8920188 0.1079812))((0.5 0.5)(0.93877551 0.06122449)(0.8810888 0.1189112))))) ;
}
potential ( K05.00 | K04.00 K78.00 K86.00 ) 
{
  data = ((((0.98106829 0.01893171)(0.98849597 0.01150403))((0.92477749 0.07522251)(0.91640625 0.08359375)))(((0.95251083 0.04748917)(0.933695 0.066305))((0.8483412 0.1516588)(0.8193018 0.1806982)))) ;
}
potential ( K06.00 | K86.00 age ) 
{
  data = (((0.992510249 0.007489751)(0.997207987 0.002792013)(0.99754255 0.00245745)(0.997773758 0.002226242))((0.998099376 0.001900624)(0.9990960254 0.0009039746)(0.998050088 0.001949912)(0.997413311 0.002586689))) ;
}
potential ( K07.00 | K77.00 K86.00 age geslacht ) 
{
  data = (((((0.9 0.1)(0.96768362 0.03231638)(0.91774786 0.08225214))((0.5 0.5)(0.93480579 0.06519421)(0.8715896 0.1284104))((0.5 0.5)(0.8838886 0.1161114)(0.8247799 0.1752201))((1.0 0.0)(0.7862595 0.2137405)(0.7016722 0.2983278)))(((1.0 0.0)(0.98138639 0.01861361)(0.95685894 0.04314106))((0.5 0.5)(0.96300225 0.03699775)(0.93153747 0.06846253))((0.5 0.5)(0.93574784 0.06425216)(0.8883787 0.1116213))((0.5 0.5)(0.8597513 0.1402487)(0.808158 0.191842))))((((0.8 0.2)(0.92592593 0.07407407)(0.8510638 0.1489362))((0.5 0.5)(0.8565217 0.1434783)(0.7448071 0.2551929))((0.5 0.5)(0.7741007 0.2258993)(0.7330677 0.2669323))((0.5 0.5)(0.7208211 0.2791789)(0.6879493 0.3120507)))(((0.6666667 0.3333333)(0.4 0.6)(0.8571429 0.1428571))((0.5 0.5)(0.7462687 0.2537313)(0.5964912 0.4035088))((0.5 0.5)(0.7147766 0.2852234)(0.6122995 0.3877005))((0.5 0.5)(0.6708075 0.3291925)(0.5756914 0.4243086))))) ;
}
potential ( K24.00 | K01.00 K04.00 K27.00 K86.00 ) 
{
  data = (((((0.98399008 0.01600992)(0.993720057 0.006279943))((0.96677741 0.03322259)(0.95824635 0.04175365)))(((0.98300891 0.01699109)(0.97492625 0.02507375))((0.93050193 0.06949807)(0.93181818 0.06818182))))((((0.97458172 0.02541828)(0.97659678 0.02340322))((0.91428571 0.08571429)(0.92473118 0.07526882)))(((0.95176849 0.04823151)(0.94163424 0.05836576))((0.6956522 0.3043478)(0.8846154 0.1153846))))) ;
}
potential ( K25.00 | K77.00 K85.00 ) 
{
  data = (((0.95187879 0.04812121)(0.91008215 0.08991785))((0.98081172 0.01918828)(0.93322476 0.06677524))) ;
}
potential ( K27.00 | K25.00 K77.00 ) 
{
  data = (((0.97072921 0.02927079)(0.98490063 0.01509937))((0.940528 0.059472)(0.94174757 0.05825243))) ;
}
potential ( K28.00 | K74.02 K77.02 K87.00 ) 
{
  data = ((((0.9990799234 0.0009200766)(0.996852647 0.003147353))((0.98856209 0.01143791)(0.95294118 0.04705882)))(((0.991836735 0.008163265)(0.95041322 0.04958678))((0.97058824 0.02941176)(0.7083333 0.2916667)))) ;
}
potential ( K29.00 | K76.00 K85.00 K99.04 ) 
{
  data = ((((0.98421425 0.01578575)(0.91703057 0.08296943))((0.990032567 0.009967433)(0.92405063 0.07594937)))(((0.95399449 0.04600551)(0.8333333 0.1666667))((0.98579545 0.01420455)(1.0 0.0)))) ;
}
potential ( K29.01 | K86.00 ) 
{
  data = ((0.998824239 0.001175761)(0.9995778195 0.0004221805)) ;
}
potential ( K29.02 | K86.00 ) 
{
  data = ((0.997347 0.002653)(0.998384068 0.001615932)) ;
}
potential ( K70.00 | K76.00 K83.00 K91.00 ) 
{
  data = ((((0.997598321 0.002401679)(0.98086522 0.01913478))((0.97482639 0.02517361)(1.0 0.0)))(((0.990064447 0.009935553)(0.98514851 0.01485149))((1.0 0.0)(1.0 0.0)))) ;
}
potential ( K71.00 | K70.00 ) 
{
  data = ((0.9990418183 0.0009581817)(0.98503741 0.01496259)) ;
}
potential ( K73.00 | K83.00 K86.00 age ) 
{
  data = ((((0.97973778 0.02026222)(0.99818473 0.00181527)(0.99861355 0.00138645)(0.9993630122 0.0006369878))((0.997822537 0.002177463)(0.9991796314 0.0008203686)(0.9993234932 0.0006765068)(0.9996452643 0.0003547357)))(((0.7575758 0.2424242)(0.965 0.035)(0.994047619 0.005952381)(1.0 0.0))((1.0 0.0)(0.99382716 0.00617284)(1.0 0.0)(0.995215311 0.004784689)))) ;
}
potential ( K73.02 | K86.00 age ) 
{
  data = (((0.991800694 0.008199306)(0.9996819226 0.0003180774)(0.9996359334 0.0003640666)(1.0 0.0))((1.0 0.0)(0.9997375558 0.0002624442)(9.999391e-01 6.093474e-05)(1.0 0.0))) ;
}
potential ( K74.00 | K77.00 K86.00 K87.00 age ) 
{
  data = (((((0.98665068 0.01334932)(0.91575765 0.08424235)(0.8548849 0.1451151)(0.8552646 0.1447354))((0.98947368 0.01052632)(0.8781911 0.1218089)(0.8470255 0.1529745)(0.8615123 0.1384877)))(((0.98791795 0.01208205)(0.96505913 0.03494087)(0.9344227 0.0655773)(0.92129278 0.07870722))((0.91743119 0.08256881)(0.8803526 0.1196474)(0.8466258 0.1533742)(0.8533409 0.1466591))))((((0.97435897 0.02564103)(0.8489011 0.1510989)(0.8583333 0.1416667)(0.8640881 0.1359119))((1.0 0.0)(0.7971014 0.2028986)(0.7777778 0.2222222)(0.7377522 0.2622478)))(((0.8 0.2)(0.8413793 0.1586207)(0.7704918 0.2295082)(0.7938882 0.2061118))((0.6 0.4)(0.695122 0.304878)(0.700565 0.299435)(0.725 0.275))))) ;
}
potential ( K74.01 | K02.00 K74.00 K74.02 K75.00 ) 
{
  data = (((((0.995084294 0.004915706)(0.97076188 0.02923812))((0.91967871 0.08032129)(0.90625 0.09375)))(((0.9628821 0.0371179)(0.91995842 0.08004158))((0.8690476 0.1309524)(0.7631579 0.2368421))))((((0.98365602 0.01634398)(0.91830065 0.08169935))((0.97142857 0.02857143)(0.6666667 0.3333333)))(((0.9250264 0.0749736)(0.8684211 0.1315789))((0.7903226 0.2096774)(0.8 0.2))))) ;
}
potential ( K74.02 | K01.00 K74.00 age ) 
{
  data = ((((0.999104 0.000896)(0.995442407 0.004557593)(0.991005134 0.008994866)(0.98762336 0.01237664))((0.98543689 0.01456311)(0.96931784 0.03068216)(0.95915986 0.04084014)(0.95099875 0.04900125)))(((0.998062016 0.001937984)(0.98460292 0.01539708)(0.97575058 0.02424942)(0.94062078 0.05937922))((1.0 0.0)(0.96458685 0.03541315)(0.93367347 0.06632653)(0.91283293 0.08716707)))) ;
}
potential ( K75.00 | K74.00 K86.00 age geslacht ) 
{
  data = (((((0.8461538 0.1538462)(0.9854939 0.0145061)(0.997303261 0.002696739))((0.5 0.5)(0.91907031 0.08092969)(0.98323942 0.01676058))((0.5 0.5)(0.90604997 0.09395003)(0.96604938 0.03395062))((1.0 0.0)(0.92758485 0.07241515)(0.9591639 0.0408361)))(((0.95833333 0.04166667)(0.993459778 0.006540222)(0.9990243902 0.0009756098))((0.5 0.5)(0.97400324 0.02599676)(0.991958644 0.008041356))((0.5 0.5)(0.95951807 0.04048193)(0.98324086 0.01675914))((0.5 0.5)(0.94230278 0.05769722)(0.97808157 0.02191843))))((((1.0 0.0)(0.90825688 0.09174312)(0.98305085 0.01694915))((0.5 0.5)(0.8489871 0.1510129)(0.93279258 0.06720742))((0.5 0.5)(0.8649746 0.1350254)(0.93418941 0.06581059))((0.5 0.5)(0.875 0.125)(0.90722569 0.09277431)))(((0.5 0.5)(0.8529412 0.1470588)(0.85 0.15))((0.5 0.5)(0.8594527 0.1405473)(0.93883792 0.06116208))((0.5 0.5)(0.8736842 0.1263158)(0.9173913 0.0826087))((0.5 0.5)(0.8774704 0.1225296)(0.91359223 0.08640777))))) ;
}
potential ( K76.00 | K74.00 K75.00 K86.00 K87.00 age ) 
{
  data = ((((((0.997567502 0.002432498)(0.97585118 0.02414882)(0.94917845 0.05082155)(0.95932236 0.04067764))((0.9893617 0.0106383)(0.95107296 0.04892704)(0.94015234 0.05984766)(0.94843618 0.05156382)))(((0.99886202 0.00113798)(0.993556488 0.006443512)(0.98849173 0.01150827)(0.98554422 0.01445578))((1.0 0.0)(0.95765633 0.04234367)(0.95895765 0.04104235)(0.96088435 0.03911565))))((((0.90697674 0.09302326)(0.8896926 0.1103074)(0.92592593 0.07407407)(0.8956522 0.1043478))((0.0 1.0)(0.8829787 0.1170213)(0.7971014 0.2028986)(0.8965517 0.1034483)))(((0.8888889 0.1111111)(0.8995215 0.1004785)(0.894198 0.105802)(0.93009119 0.06990881))((1.0 0.0)(0.8455285 0.1544715)(0.7943925 0.2056075)(0.8571429 0.1428571)))))(((((0.97468354 0.02531646)(0.91642085 0.08357915)(0.8825847 0.1174153)(0.8912645 0.1087355))((0.0 1.0)(0.8116883 0.1883117)(0.7393939 0.2606061)(0.8045455 0.1954545)))(((0.8095238 0.1904762)(0.9172281 0.0827719)(0.8934338 0.1065662)(0.91730769 0.08269231))((0.6 0.4)(0.7894737 0.2105263)(0.8350877 0.1649123)(0.8811594 0.1188406))))((((0.7272727 0.2727273)(0.8158845 0.1841155)(0.7615894 0.2384106)(0.8157895 0.1842105))((0.5 0.5)(0.7037037 0.2962963)(0.7826087 0.2173913)(0.8823529 0.1176471)))(((0.6666667 0.3333333)(0.9266055 0.0733945)(0.7755102 0.2244898)(0.8 0.2))((0.8333333 0.1666667)(0.7727273 0.2272727)(0.6511628 0.3488372)(0.8043478 0.1956522)))))) ;
}
potential ( K76.01 | K74.00 K76.00 geslacht ) 
{
  data = ((((0.98360656 0.01639344)(0.993939983 0.006060017)(0.998199949 0.001800051))((1.0 0.0)(0.96823658 0.03176342)(0.96460177 0.03539823)))(((1.0 0.0)(0.97594292 0.02405708)(0.98558007 0.01441993))((1.0 0.0)(0.95298602 0.04701398)(0.94409938 0.05590062)))) ;
}
potential ( K76.02 | K74.00 K75.00 K76.00 K87.00 ) 
{
  data = (((((0.99696251 0.00303749)(0.98821008 0.01178992))((0.96775871 0.03224129)(0.91071429 0.08928571)))(((0.95444041 0.04555959)(0.91803279 0.08196721))((0.8746177 0.1253823)(0.8314607 0.1685393))))((((0.98669924 0.01330076)(0.97709924 0.02290076))((0.94102564 0.05897436)(0.94274809 0.05725191)))(((0.9178618 0.0821382)(0.95321637 0.04678363))((0.8700565 0.1299435)(0.8846154 0.1153846))))) ;
}
potential ( K77.00 | K94.00 K95.00 ) 
{
  data = (((0.93078255 0.06921745)(0.95238095 0.04761905))((0.8997901 0.1002099)(0.90239044 0.09760956))) ;
}
potential ( K77.01 | K77.00 K77.02 age ) 
{
  data = ((((0.9998770063 0.0001229937)(0.9994619711 0.0005380289)(0.998583625 0.001416375)(0.995055568 0.004944432))((1.0 0.0)(0.94047619 0.05952381)(0.95798319 0.04201681)(0.96513761 0.03486239)))(((0.9893617 0.0106383)(0.97924188 0.02075812)(0.98101266 0.01898734)(0.97958808 0.02041192))((0.5 0.5)(0.95081967 0.04918033)(0.91935484 0.08064516)(0.92923077 0.07076923)))) ;
}
potential ( K77.02 | K74.02 K77.00 age ) 
{
  data = ((((0.9993232851 0.0006767149)(0.998721626 0.001278374)(0.995674432 0.004325568)(0.97827854 0.02172146))((1.0 0.0)(0.94805195 0.05194805)(0.93678474 0.06321526)(0.8959306 0.1040694)))(((0.94444444 0.05555556)(0.98514851 0.01485149)(0.97032641 0.02967359)(0.8565022 0.1434978))((0.5 0.5)(0.92857143 0.07142857)(0.7037037 0.2962963)(0.7173913 0.2826087)))) ;
}
potential ( K78.00 | K04.00 K77.00 K86.00 age ) 
{
  data = (((((0.995029631 0.004970369)(0.97161662 0.02838338)(0.92584098 0.07415902)(0.8871852 0.1128148))((0.996208807 0.003791193)(0.98592736 0.01407264)(0.95747111 0.04252889)(0.92602389 0.07397611)))(((0.98630137 0.01369863)(0.885486 0.114514)(0.8436681 0.1563319)(0.8261421 0.1738579))((1.0 0.0)(0.8652695 0.1347305)(0.7911715 0.2088285)(0.7710005 0.2289995))))((((0.990667289 0.009332711)(0.95577164 0.04422836)(0.851735 0.148265)(0.8070175 0.1929825))((0.9832636 0.0167364)(0.93112653 0.06887347)(0.8422274 0.1577726)(0.7932862 0.2067138)))(((0.8333333 0.1666667)(0.8478261 0.1521739)(0.4615385 0.5384615)(0.6692308 0.3307692))((0.5 0.5)(0.7631579 0.2368421)(0.7631579 0.2368421)(0.5100671 0.4899329))))) ;
}
potential ( K79.00 | K04.00 K05.00 K78.00 K86.00 ) 
{
  data = (((((0.98744967 0.01255033)(0.99324774 0.00675226))((0.95746663 0.04253337)(0.95907928 0.04092072)))(((0.96992481 0.03007519)(0.9651325 0.0348675))((0.91221374 0.08778626)(0.92990654 0.07009346))))((((0.9617652 0.0382348)(0.95158167 0.04841833))((0.8463687 0.1536313)(0.877193 0.122807)))(((0.91554054 0.08445946)(0.8954545 0.1045455))((0.796875 0.203125)(0.8863636 0.1136364))))) ;
}
potential ( K79.01 | K04.00 K78.00 K79.00 ) 
{
  data = ((((0.997409746 0.002590254)(0.9639485 0.0360515))((0.98856549 0.01143451)(0.92619926 0.07380074)))(((0.98608372 0.01391628)(0.92235294 0.07764706))((0.96675192 0.03324808)(0.91338583 0.08661417)))) ;
}
potential ( K80.00 | K04.00 K05.00 K79.00 ) 
{
  data = ((((0.993411753 0.006588247)(0.97091723 0.02908277))((0.96114709 0.03885291)(0.90526316 0.09473684)))(((0.97486844 0.02513156)(0.92723493 0.07276507))((0.90954774 0.09045226)(0.8169014 0.1830986)))) ;
}
potential ( K80.01 | K04.00 K05.00 K80.00 ) 
{
  data = ((((0.998913383 0.001086617)(0.98684211 0.01315789))((0.98937153 0.01062847)(0.98924731 0.01075269)))(((0.995799643 0.004200357)(0.95910781 0.04089219))((0.97670549 0.02329451)(0.95522388 0.04477612)))) ;
}
potential ( K80.02 | K04.00 K05.00 K80.00 ) 
{
  data = ((((0.998781672 0.001218328)(0.98086124 0.01913876))((0.98844732 0.01155268)(0.95698925 0.04301075)))(((0.995169589 0.004830411)(0.94423792 0.05576208))((0.990016639 0.009983361)(0.92537313 0.07462687)))) ;
}
potential ( K81.00 | K04.00 K86.00 K96.00 age ) 
{
  data = (((((0.9254626 0.0745374)(0.993836315 0.006163685)(0.990684194 0.009315806)(0.99274157 0.00725843))((0.99615519 0.00384481)(0.995980477 0.004019523)(0.996875 0.003125)(0.998220641 0.001779359)))(((0.996325781 0.003674219)(0.995829022 0.004170978)(0.993551854 0.006448146)(0.992531626 0.007468374))((0.994318182 0.005681818)(0.995185695 0.004814305)(0.98974359 0.01025641)(0.98929336 0.01070664))))((((0.994427558 0.005572442)(0.994968131 0.005031869)(0.992199688 0.007800312)(0.99092559 0.00907441))((0.994285714 0.005714286)(0.98814229 0.01185771)(1.0 0.0)(1.0 0.0)))(((0.995412844 0.004587156)(0.994827586 0.005172414)(0.98500577 0.01499423)(0.98330804 0.01669196))((0.95652174 0.04347826)(0.994152047 0.005847953)(0.98591549 0.01408451)(1.0 0.0))))) ;
}
potential ( K82.00 | K77.00 ) 
{
  data = ((0.9994436408 0.0005563592)(0.995983936 0.004016064)) ;
}
potential ( K83.00 | K77.00 K78.00 K81.00 ) 
{
  data = ((((0.993263059 0.006736941)(0.94964029 0.05035971))((0.97982321 0.02017679)(0.8571429 0.1428571)))(((0.97645318 0.02354682)(0.8703704 0.1296296))((0.95184968 0.04815032)(0.8333333 0.1666667)))) ;
}
potential ( K83.01 | K81.00 K83.00 age ) 
{
  data = ((((0.9991696474 0.0008303526)(0.997804291 0.002195709)(0.994383903 0.005616097)(0.991367317 0.008632683))((0.98019802 0.01980198)(0.9408284 0.0591716)(0.90268456 0.09731544)(0.8811189 0.1188811)))(((1.0 0.0)(0.96515679 0.03484321)(0.890625 0.109375)(0.8691099 0.1308901))((1.0 0.0)(0.875 0.125)(0.9047619 0.0952381)(0.88 0.12)))) ;
}
potential ( K83.02 | K77.00 K78.00 K83.00 ) 
{
  data = ((((0.998421396 0.001578604)(0.97116494 0.02883506))((0.99218292 0.00781708)(0.90740741 0.09259259)))(((0.994249726 0.005750274)(0.94505495 0.05494505))((0.98476539 0.01523461)(0.91860465 0.08139535)))) ;
}
potential ( K84.00 | K74.00 K77.00 K78.00 ) 
{
  data = ((((0.990955599 0.009044401)(0.96731183 0.03268817))((0.97140575 0.02859425)(0.95447871 0.04552129)))(((0.9806752 0.0193248)(0.93913043 0.06086957))((0.954323 0.045677)(0.93150685 0.06849315)))) ;
}
potential ( K84.02 | K84.00 age ) 
{
  data = (((0.9993840089 0.0006159911)(0.9993065858 0.0006934142)(0.998258614 0.001741386)(0.996548902 0.003451098))((1.0 0.0)(0.98611111 0.01388889)(0.98284314 0.01715686)(0.94921191 0.05078809))) ;
}
potential ( K84.03 | K77.00 K84.00 ) 
{
  data = (((0.998392955 0.001607045)(0.9875549 0.0124451))((0.991564503 0.008435497)(0.94099379 0.05900621))) ;
}
potential ( K85.00 | K77.00 K95.00 ) 
{
  data = (((0.8379629 0.1620371)(0.8695289 0.1304711))((0.93431328 0.06568672)(0.91683168 0.08316832))) ;
}
potential ( K86.00 | K25.00 K27.00 K77.00 K85.00 K95.00 ) 
{
  data = ((((((0.4646072 0.5353928)(0.7292391 0.2707609))((0.3500954 0.6499046)(0.3593899 0.6406101)))(((0.6956467 0.3043533)(0.5613636 0.4386364))((0.3980583 0.6019417)(0.2972973 0.7027027))))((((0.7746629 0.2253371)(0.7461929 0.2538071))((0.3833333 0.6166667)(0.3913043 0.6086957)))(((0.6442308 0.3557692)(0.2727273 0.7272727))((0.3 0.7)(1.0 0.0)))))(((((0.6542601 0.3457399)(0.6686567 0.3313433))((0.383871 0.616129)(0.381295 0.618705)))(((0.6503497 0.3496503)(0.6666667 0.3333333))((0.3611111 0.6388889)(0.3333333 0.6666667))))((((0.6716418 0.3283582)(0.68 0.32))((0.3529412 0.6470588)(0.2666667 0.7333333)))(((0.6 0.4)(0.5 0.5))((0.0 1.0)(1.0 0.0)))))) ;
}
potential ( K87.00 | K86.00 K89.00 K90.00 age ) 
{
  data = (((((0.992773986 0.007226014)(0.95490686 0.04509314)(0.8999479 0.1000521)(0.8973559 0.1026441))((0.96453901 0.03546099)(0.8419483 0.1580517)(0.8463576 0.1536424)(0.871519 0.128481)))(((0.98630137 0.01369863)(0.91432396 0.08567604)(0.8774319 0.1225681)(0.8986416 0.1013584))((1.0 0.0)(0.8 0.2)(0.699187 0.300813)(0.8675497 0.1324503))))((((0.97093502 0.02906498)(0.93672984 0.06327016)(0.8971331 0.1028669)(0.8620416 0.1379584))((0.7391304 0.2608696)(0.6428571 0.3571429)(0.6165541 0.3834459)(0.7017544 0.2982456)))(((0.8461538 0.1538462)(0.7243108 0.2756892)(0.7048055 0.2951945)(0.7261146 0.2738854))((0.5 0.5)(0.6173913 0.3826087)(0.6690647 0.3309353)(0.6367713 0.3632287))))) ;
}
potential ( K88.00 | K86.00 K96.00 age ) 
{
  data = ((((0.94112769 0.05887231)(0.97968158 0.02031842)(0.97117065 0.02882935)(0.95833636 0.04166364))((0.98550725 0.01449275)(0.98795503 0.01204497)(0.97810219 0.02189781)(0.96314908 0.03685092)))(((0.993111366 0.006888634)(0.991673809 0.008326191)(0.98571882 0.01428118)(0.96966838 0.03033162))((0.98492462 0.01507538)(0.98769231 0.01230769)(0.96493902 0.03506098)(0.9789675 0.0210325)))) ;
}
potential ( K89.00 | K86.00 K90.00 age ) 
{
  data = ((((0.994173052 0.005826948)(0.97249531 0.02750469)(0.94915422 0.05084578)(0.92339097 0.07660903))((0.90384615 0.09615385)(0.8855634 0.1144366)(0.8599089 0.1400911)(0.8395324 0.1604676)))(((0.996448087 0.003551913)(0.98812146 0.01187854)(0.9721301 0.0278699)(0.95251777 0.04748223))((1.0 0.0)(0.8364154 0.1635846)(0.8098495 0.1901505)(0.7931354 0.2068646)))) ;
}
potential ( K90.00 | K77.00 K86.00 K95.00 age ) 
{
  data = (((((0.98622263 0.01377737)(0.95602168 0.04397832)(0.91199194 0.08800806)(0.8492368 0.1507632))((0.998176292 0.001823708)(0.98797716 0.01202284)(0.97671711 0.02328289)(0.90936107 0.09063893)))(((0.994358251 0.005641749)(0.97970372 0.02029628)(0.95674879 0.04325121)(0.93052922 0.06947078))((0.991869919 0.008130081)(0.98415978 0.01584022)(0.96790123 0.03209877)(0.93567251 0.06432749))))((((0.97435897 0.02564103)(0.95674967 0.04325033)(0.93920705 0.06079295)(0.90808729 0.09191271))((1.0 0.0)(1.0 0.0)(0.9516129 0.0483871)(0.93714286 0.06285714)))(((0.8666667 0.1333333)(0.94476744 0.05523256)(0.90982287 0.09017713)(0.8863759 0.1136241))((0.5 0.5)(0.92857143 0.07142857)(0.93181818 0.06818182)(0.8944099 0.1055901))))) ;
}
potential ( K90.01 | K04.00 K86.00 K90.00 ) 
{
  data = ((((0.99535451 0.00464549)(0.98067141 0.01932859))((0.998143792 0.001856208)(0.97743418 0.02256582)))(((0.9996939556 0.0003060444)(0.98333333 0.01666667))((0.9997269997 0.0002730003)(0.97887324 0.02112676)))) ;
}
potential ( K90.02 | K86.00 K90.00 ) 
{
  data = (((0.997736322 0.002263678)(0.98667325 0.01332675))((0.9992593264 0.0007406736)(0.98934911 0.01065089))) ;
}
potential ( K90.03 | K89.00 K90.00 age ) 
{
  data = ((((0.9990063346 0.0009936654)(0.997634347 0.002365653)(0.994967389 0.005032611)(0.99258277 0.00741723))((0.97560976 0.02439024)(0.93412798 0.06587202)(0.93392725 0.06607275)(0.94825462 0.05174538)))(((1.0 0.0)(0.97905759 0.02094241)(0.98843323 0.01156677)(0.97665615 0.02334385))((1.0 0.0)(0.8857143 0.1142857)(0.8969466 0.1030534)(0.9047619 0.0952381)))) ;
}
potential ( K91.00 | K76.00 K87.00 K92.00 K92.01 ) 
{
  data = (((((0.993473321 0.006526679)(0.95947557 0.04052443))((0.95774648 0.04225352)(0.91242938 0.08757062)))(((0.97772805 0.02227195)(0.94373402 0.05626598))((0.8902077 0.1097923)(0.8861789 0.1138211))))((((0.96630728 0.03369272)(0.90217391 0.09782609))((0.8823529 0.1176471)(0.8214286 0.1785714)))(((0.91210375 0.08789625)(0.90243902 0.09756098))((0.8409091 0.1590909)(0.75 0.25))))) ;
}
potential ( K92.00 | K86.00 K87.00 age ) 
{
  data = ((((0.992770893 0.007229107)(0.98074846 0.01925154)(0.96779125 0.03220875)(0.96933852 0.03066148))((1.0 0.0)(0.95416667 0.04583333)(0.95748299 0.04251701)(0.96259843 0.03740157)))(((0.996917904 0.003082096)(0.991737095 0.008262905)(0.97929506 0.02070494)(0.9739592 0.0260408))((0.98245614 0.01754386)(0.95332792 0.04667208)(0.94111675 0.05888325)(0.9492431 0.0507569)))) ;
}
potential ( K92.01 | K87.00 K92.00 age ) 
{
  data = ((((0.9991902834 0.0008097166)(0.98829096 0.01170904)(0.97766214 0.02233786)(0.9772314 0.0227686))((1.0 0.0)(0.8230769 0.1769231)(0.795122 0.204878)(0.8333333 0.1666667)))(((0.995192308 0.004807692)(0.96776793 0.03223207)(0.9466443 0.0533557)(0.95776605 0.04223395))((1.0 0.0)(0.7071823 0.2928177)(0.7710843 0.2289157)(0.7192982 0.2807018)))) ;
}
potential ( K92.02 | K86.00 K92.00 ) 
{
  data = (((0.994957517 0.005042483)(0.98256204 0.01743796))((0.997687416 0.002312584)(0.98865478 0.01134522))) ;
}
potential ( K93.00 | K77.00 K86.00 K94.01 ) 
{
  data = ((((0.990882328 0.009117672)(0.95079787 0.04920213))((0.9955683 0.0044317)(0.95110024 0.04889976)))(((0.989318 0.010682)(0.98275862 0.01724138))((0.98503989 0.01496011)(0.8709677 0.1290323)))) ;
}
potential ( K94.00 ) 
{
  data = ( 0.98216706 0.01783294 );
}
potential ( K94.01 | K07.00 K86.00 K94.00 ) 
{
  data = ((((0.991047929 0.008952071)(0.9112426 0.0887574))((0.995694365 0.004305635)(0.92992701 0.07007299)))(((0.98167278 0.01832722)(0.8671096 0.1328904))((0.97892126 0.02107874)(0.90376569 0.09623431)))) ;
}
potential ( K94.02 | K94.00 ) 
{
  data = ((0.994601238 0.005398762)(0.93064784 0.06935216)) ;
}
potential ( K95.00 | K94.00 K94.02 ) 
{
  data = (((0.92876041 0.07123959)(0.75 0.25))((0.8009817 0.1990183)(0.6646707 0.3353293))) ;
}
potential ( K96.00 | K04.00 K85.00 K86.00 K95.00 age ) 
{
  data = ((((((0.674123 0.325877)(0.8348589 0.1651411)(0.93393139 0.06606861)(0.95986182 0.04013818))((0.90501319 0.09498681)(0.92371419 0.07628581)(0.95180723 0.04819277)(0.93980848 0.06019152)))(((0.95748988 0.04251012)(0.95892363 0.04107637)(0.96499014 0.03500986)(0.96813792 0.03186208))((0.890411 0.109589)(0.93013556 0.06986444)(0.93645485 0.06354515)(0.9512987 0.0487013))))((((0.9417596 0.0582404)(0.94097996 0.05902004)(0.95623452 0.04376548)(0.96735187 0.03264813))((0.8709677 0.1290323)(0.91284404 0.08715596)(0.93617021 0.06382979)(0.95833333 0.04166667)))(((0.93526012 0.06473988)(0.9462963 0.0537037)(0.95425868 0.04574132)(0.9573136 0.0426864))((0.7941176 0.2058824)(0.92084433 0.07915567)(0.97076023 0.02923977)(0.93430657 0.06569343)))))(((((0.9227318 0.0772682)(0.92727944 0.07272056)(0.9462963 0.0537037)(0.93775934 0.06224066))((0.8947368 0.1052632)(0.8828829 0.1171171)(0.8305085 0.1694915)(0.93023256 0.06976744)))(((0.90506329 0.09493671)(0.91018444 0.08981556)(0.93040847 0.06959153)(0.92292871 0.07707129))((0.8888889 0.1111111)(0.9010989 0.0989011)(0.8947368 0.1052632)(0.8783784 0.1216216))))((((0.7954545 0.2045455)(0.90322581 0.09677419)(0.95454545 0.04545455)(0.96610169 0.03389831))((0.75 0.25)(0.875 0.125)(0.8571429 0.1428571)(1.0 0.0)))(((0.8955224 0.1044776)(0.91954023 0.08045977)(0.93229167 0.06770833)(0.94230769 0.05769231))((1.0 0.0)(0.8431373 0.1568627)(0.7857143 0.2142857)(0.94444444 0.05555556)))))) ;
}
potential ( K99.00 | K86.00 K92.00 K99.01 ) 
{
  data = ((((0.98641431 0.01358569)(0.91873589 0.08126411))((0.94776632 0.05223368)(0.7777778 0.2222222)))(((0.991462161 0.008537839)(0.880814 0.119186))((0.94181214 0.05818786)(0.7096774 0.2903226)))) ;
}
potential ( K99.01 | age geslacht ) 
{
  data = (((1.0 0.0)(0.9996674979 0.0003325021)(0.9997083698 0.0002916302))((0.5 0.5)(0.995070257 0.004929743)(0.998504684 0.001495316))((0.5 0.5)(0.97798396 0.02201604)(0.996253406 0.003746594))((1.0 0.0)(0.97732274 0.02267726)(0.995555799 0.004444201))) ;
}
potential ( K99.03 | K86.00 geslacht ) 
{
  data = (((1.0 0.0)(0.997290789 0.002709211)(0.9998901883 0.0001098117))((1.0 0.0)(0.999518983 0.000481017)(9.999494e-01 5.058681e-05))) ;
}
potential ( K99.04 | K07.00 age ) 
{
  data = (((0.9991568297 0.0008431703)(0.998010277 0.001989723)(0.996752976 0.003247024)(0.993348319 0.006651681))((0.997892518 0.002107482)(0.990189939 0.009810061)(0.98992891 0.01007109)(0.98211949 0.01788051))) ;
}
potential ( K99.05 | age ) 
{
  data = ((1.0 0.0)(0.9995526299 0.0004473701)(0.998540039 0.001459961)(0.997803194 0.002196806)) ;
}
potential ( age | K77.00 K85.00 K86.00 K95.00 ) 
{
  data = (((((0.2150451 0.4323865 0.1638246 0.1887438)(0.26602776 0.51007931 0.12392597 0.09996695))((0.05198801 0.50662008 0.24372233 0.19766957)(0.03609155 0.45202465 0.27156690 0.24031690)))(((0.1270080 0.5757394 0.1840564 0.1131962)(0.07743363 0.53097345 0.24115044 0.15044248))((0.07605749 0.57059548 0.21831622 0.13503080)(0.05144291 0.53324969 0.24215809 0.17314931))))((((0.01292722 0.12874092 0.19196033 0.66637152)(0.003875969 0.124031008 0.217054264 0.655038760))((0.00361591 0.11611089 0.22137405 0.65889916)(0.0000000 0.1121951 0.1853659 0.7024390)))(((0.02232143 0.16071429 0.22767857 0.58928571)(0.0000000 0.1428571 0.4285714 0.4285714))((0.01724138 0.15804598 0.20114943 0.62356322)(0.0000000 0.1785714 0.2142857 0.6071429))))) ;
}
potential ( geslacht | K74.00 K86.00 K95.00 age ) 
{
  data = (((((0.001195952 0.379024839 0.619779209)(0.0000000 0.4929465 0.5070535)(0.0000000 0.5379496 0.4620504)(8.653513e-05 4.195223e-01 5.803911e-01))((0.0000000 0.1356448 0.8643552)(0.0000000 0.2603496 0.7396504)(0.0000000 0.2895706 0.7104294)(0.0000000 0.2985075 0.7014925)))(((0.01368301 0.43072976 0.55558723)(0.0000000 0.4790023 0.5209977)(0.0000000 0.4222673 0.5777327)(0.0000000 0.3145984 0.6854016))((0.0000000 0.1512605 0.8487395)(0.0000000 0.2630078 0.7369922)(0.0000000 0.2470277 0.7529723)(0.0000000 0.1730496 0.8269504))))((((0.01190476 0.64880952 0.33928571)(0.000000 0.666388 0.333612)(0.0000000 0.6291611 0.3708389)(0.0000000 0.4705584 0.5294416))((0.0 0.0 1.0)(0.00 0.35 0.65)(0.0000000 0.3773585 0.6226415)(0.0000000 0.2972973 0.7027027)))(((0.03846154 0.61538462 0.34615385)(0.0000000 0.5611875 0.4388125)(0.0000000 0.5063593 0.4936407)(0.0000000 0.3445559 0.6554441))((0.0 0.5 0.5)(0.0000000 0.3766234 0.6233766)(0.0000000 0.2886598 0.7113402)(0.0000000 0.1785714 0.8214286))))) ;
}
