net
{
    node_size = (120 40);
    HR_Node_Label_Style = "0";
    HR_Desc = "An oil wildcatter must decide either to drill or not to drill. He is uncertain whether the hole is dry, wet, or soaking. The wildcatter could take seismic soundings that will help determine the geological structure of the site. The soundings will give a closed reflection pattern (indication of much oil), an open pattern (indication of some oul) or a diffuse pattern (almost no hope of oil). Based on the result of the test, the wildcatter must decide whether or not to drill.";
    HR_OOBN_FitExpand = "1";
    HR_Zoom_ZoomFactor = "100";
    HR_Color_Interface = "21";
    HR_Color_Instance = "0";
    HR_Color_ContinuousChance = "32";
    HR_Compile_MaxMinimalSeparators = "100000";
    HR_Monitor_InitSD = "2";
    HR_Monitor_InitStates = "5";
    HR_Monitor_OpenGraph = "0";
    HR_Monitor_GraphPrecision = "100";
    HR_Monitor_AutoUpdGraph = "0";
    HR_Compile_ApproxEpsilon = "0.00001";
    HR_Compile_Approximate = "0";
    HR_Compile_Compress = "0";
    HR_Compile_TriangMethod = "0";
    HR_Propagate_AutoNormal = "1";
    HR_Propagate_AutoSum = "1";
    HR_Propagate_Auto = "0";
    HR_Font_Italic = "0";
    HR_Font_Weight = "400";
    HR_Font_Size = "-12";
    HR_Font_Name = "Arial";
    HR_Grid_GridShow = "0";
    HR_Grid_GridSnap = "1";
    HR_Grid_Y = "10";
    HR_Grid_X = "10";
    HRUNTIME_Grid_X = "10";
    HRUNTIME_Grid_Y = "10";
    HRUNTIME_Grid_GridSnap = "1";
    HRUNTIME_Grid_GridShow = "0";
    HRUNTIME_Font_Name = "Arial";
    HRUNTIME_Font_Size = "-12";
    HRUNTIME_Font_Weight = "400";
    HRUNTIME_Font_Italic = "0";
    HRUNTIME_Propagate_Auto = "0";
    HRUNTIME_Propagate_AutoSum = "1";
    HRUNTIME_Propagate_AutoNormal = "1";
    HRUNTIME_Compile_TriangMethod = "0";
    HRUNTIME_Compile_Compress = "0";
    HRUNTIME_Compile_Approximate = "0";
    HRUNTIME_Compile_ApproxEpsilon = "0.00001";
    HRUNTIME_Monitor_AutoUpdGraph = "0";
    HRUNTIME_Monitor_GraphPrecision = "100";
    HRUNTIME_Monitor_OpenGraph = "0";
    HR_Groups_GroupColors = "47";
    HR_Groups_GroupNames = "test\t";
    HR_Groups_UserGroupsNo = "0";
    HR_Color_Decision = "17";
    HR_Color_Utility = "36";
    HR_Color_ContinuosChance = "48";
    HR_Color_DiscreteChance = "16";
}

node O
{
    position = (70 240);
    states = ("dr" "wt" "sk");
}

node Seismic
{
    position = (70 140);
    states = ("cl" "op" "di");
}

utility Drillpay
{
    label = "Drillpay";
    position = (250 240);
}

decision Drill
{
    position = (250 140);
    states = ("Drill" "No Drill");
}

utility Testpay
{
    label = "Testpay";
    position = (250 30);
}

decision Test
{
    label = "Test Yes/No";
    position = (70 30);
    states = ("Test" "No test");
}

potential (O)
{
    data = ( 0.5 0.3 0.2 );
}

potential (Seismic | O Test)
{
    data
     = ((( 0.1 0.3 0.6 )	%  O=dr  Test=Test
	 ( 0.333333 0.333333 0.333333 ))	%  O=dr  Test=No test
	(( 0.3 0.4 0.3 )	%  O=wt  Test=Test
	 ( 0.333333 0.333333 0.333333 ))	%  O=wt  Test=No test
	(( 0.5 0.4 0.1 )	%  O=sk  Test=Test
	 ( 0.333333 0.333333 0.333333 )));	%  O=sk  Test=No test
}

potential (Drillpay | O Drill)
{
    data
     = (( -70	%  O=dr  Drill=Drill
	  0 )	%  O=dr  Drill=No Drill
	( 50	%  O=wt  Drill=Drill
	  0 )	%  O=wt  Drill=No Drill
	( 200	%  O=sk  Drill=Drill
	  0 ));	%  O=sk  Drill=No Drill
}

potential (Drill | Seismic) {}

potential (Testpay | Test)
{
    data
     = ( -10	%  Test=Test
	 0 );	%  Test=No test
}

potential (Test) {}
