net
{
    node_size = (116 20);
    HR_Node_Label_Style = "0";
    HR_Desc = "This example shows a Bayesian network, which is part of a series of 30 Strategic Analysis Bayesian networks developed for teaching MBA students competitive analysis, at New York University Stern School of Business.\n\n\"Threat of Entry\" assesses the probable entry strategy of a new entrant, based on the industry characteristics.";
    HR_OOBN_FitExpand = "1";
    HR_Zoom_ZoomFactor = "100";
    HR_Color_Interface = "21";
    HR_Color_Instance = "0";
    HR_Color_ContinuousChance = "32";
    HR_Compile_MaxMinimalSeparators = "100000";
    HR_Color_DiscreteChance = "16";
    HR_Groups_GroupColors = "13";
    HR_Groups_GroupNames = "Copyright\t";
    HR_Groups_UserGroupsNo = "1";
    HR_Color_Decision = "41";
    HR_Color_Utility = "50";
    HR_Color_ContinuosChance = "61";
    HR_Color_DescreteChance = "25";
    HR_Monitor_InitSD = "2";
    HR_Monitor_InitStates = "5";
    HR_Monitor_OpenGraph = "0";
    HR_Monitor_GraphPrecision = "100";
    HR_Monitor_AutoUpdGraph = "0";
    HR_Compile_ApproxEpsilon = "0.00001";
    HR_Compile_Approximate = "0";
    HR_Compile_Compress = "0";
    HR_Compile_TriangMethod = "0";
    HR_Propagate_AutoNormal = "1";
    HR_Propagate_AutoSum = "1";
    HR_Propagate_Auto = "0";
    HR_Font_Italic = "0";
    HR_Font_Weight = "400";
    HR_Font_Size = "-9";
    HR_Font_Name = "Tahoma";
    HR_Grid_GridShow = "0";
    HR_Grid_GridSnap = "1";
    HR_Grid_Y = "10";
    HR_Grid_X = "10";
}

node NYU
{
    label = "(c) Baumard, 1997";
    position = (78 190);
    states = ("Competitive Analysis Belief Network");
    HR_Grp = "0";
    HR_Desc = "This network is part of series published in a CD-Rom, with\r\na book entitled \"Competitivite des Systemes d'Information\"\r\n(Paris: masson, fortchoming 1998).\r\nWeb access : www.masson.fr\r\nIt aims at assessing the the anti-trust threat in a given market. The other networks in the book assess the competitiveness of information systems and technologies.";
    HR_State_0 = "For more info: Philippe.Baumard@dauphine.fr";
}

utility Utility
{
    position = (248 20);
}

node EntryStrategy
{
    position = (348 50);
    states = ("Niche" "Differentiation" "PriceCutting" "AbandonEntry");
}

decision Retaliation
{
    position = (238 170);
    states = ("HighlyExpected" "NotExpected");
}

decision LegalBarriers
{
    position = (348 170);
    states = ("GovRegulation" "QuasiMonopoly" "Few");
}

decision AccessToDistribution
{
    position = (68 70);
    states = ("FreeAccess" "FixedCostsInCarryingNewProducts" "DistributorsPreferenceToEstablishedFirms");
}

decision CustomerLoyalty
{
    position = (348 190);
    states = ("Strong" "Weak");
}

decision BrandAwareness
{
    position = (238 190);
    states = ("Strong" "Weak");
}

node BarriersToEntry
{
    position = (318 120);
    states = ("StrongBarriers" "WeakBarriers");
}

node ThreatOfEntry
{
    position = (198 90);
    states = ("HightThreat" "LowThreat");
}

decision ProductDifferentiation
{
    position = (68 50);
    states = ("VeryHigh" "Moderate" "Low");
}

decision AbsoluteCostAdvantageOfEntrant
{
    position = (68 90);
    states = ("Yes" "No");
}

decision EconomicsOfScale
{
    position = (68 110);
    states = ("Necessary" "Unecessary");
}

decision CapitalRequirements
{
    position = (68 130);
    states = ("Low" "High");
}

potential (NYU)
{
    data = ( 1 );
}

potential (Utility | ThreatOfEntry BarriersToEntry EntryStrategy)
{
    data
     = ((( 8	%  ThreatOfEntry=HightThreat  BarriersToEntry=StrongBarriers  EntryStrategy=Niche
	   2	%  ThreatOfEntry=HightThreat  BarriersToEntry=StrongBarriers  EntryStrategy=Differentiation
	   4	%  ThreatOfEntry=HightThreat  BarriersToEntry=StrongBarriers  EntryStrategy=PriceCutting
	   1 )	%  ThreatOfEntry=HightThreat  BarriersToEntry=StrongBarriers  EntryStrategy=AbandonEntry
	 ( 1	%  ThreatOfEntry=HightThreat  BarriersToEntry=WeakBarriers  EntryStrategy=Niche
	   5	%  ThreatOfEntry=HightThreat  BarriersToEntry=WeakBarriers  EntryStrategy=Differentiation
	   9	%  ThreatOfEntry=HightThreat  BarriersToEntry=WeakBarriers  EntryStrategy=PriceCutting
	   -8 ))	%  ThreatOfEntry=HightThreat  BarriersToEntry=WeakBarriers  EntryStrategy=AbandonEntry
	(( 2	%  ThreatOfEntry=LowThreat  BarriersToEntry=StrongBarriers  EntryStrategy=Niche
	   -4	%  ThreatOfEntry=LowThreat  BarriersToEntry=StrongBarriers  EntryStrategy=Differentiation
	   -9	%  ThreatOfEntry=LowThreat  BarriersToEntry=StrongBarriers  EntryStrategy=PriceCutting
	   8 )	%  ThreatOfEntry=LowThreat  BarriersToEntry=StrongBarriers  EntryStrategy=AbandonEntry
	 ( 4	%  ThreatOfEntry=LowThreat  BarriersToEntry=WeakBarriers  EntryStrategy=Niche
	   3	%  ThreatOfEntry=LowThreat  BarriersToEntry=WeakBarriers  EntryStrategy=Differentiation
	   2	%  ThreatOfEntry=LowThreat  BarriersToEntry=WeakBarriers  EntryStrategy=PriceCutting
	   4 )));	%  ThreatOfEntry=LowThreat  BarriersToEntry=WeakBarriers  EntryStrategy=AbandonEntry
}

potential (EntryStrategy | ProductDifferentiation BarriersToEntry ThreatOfEntry)
{
    data
     = (((( 0.83 0.15 0.01 0.01 )	%  ProductDifferentiation=VeryHigh  BarriersToEntry=StrongBarriers  ThreatOfEntry=HightThreat
	  ( 0.75 0.01 0.01 0.23 ))	%  ProductDifferentiation=VeryHigh  BarriersToEntry=StrongBarriers  ThreatOfEntry=LowThreat
	 (( 0.3 0.6 0.05 0.05 )	%  ProductDifferentiation=VeryHigh  BarriersToEntry=WeakBarriers  ThreatOfEntry=HightThreat
	  ( 0.6 0.3 0.05 0.05 )))	%  ProductDifferentiation=VeryHigh  BarriersToEntry=WeakBarriers  ThreatOfEntry=LowThreat
	((( 0.07 0.59 0.3 0.04 )	%  ProductDifferentiation=Moderate  BarriersToEntry=StrongBarriers  ThreatOfEntry=HightThreat
	  ( 0.22 0.24 0.1 0.44 ))	%  ProductDifferentiation=Moderate  BarriersToEntry=StrongBarriers  ThreatOfEntry=LowThreat
	 (( 0.01 0.49 0.3 0.2 )	%  ProductDifferentiation=Moderate  BarriersToEntry=WeakBarriers  ThreatOfEntry=HightThreat
	  ( 0.0917431 0.504587 0.0825688 0.321101 )))	%  ProductDifferentiation=Moderate  BarriersToEntry=WeakBarriers  ThreatOfEntry=LowThreat
	((( 0.01 0.07 0.8 0.12 )	%  ProductDifferentiation=Low  BarriersToEntry=StrongBarriers  ThreatOfEntry=HightThreat
	  ( 0.00980392 0.00980392 0.0490196 0.931373 ))	%  ProductDifferentiation=Low  BarriersToEntry=StrongBarriers  ThreatOfEntry=LowThreat
	 (( 0.01 0.03 0.95 0.01 )	%  ProductDifferentiation=Low  BarriersToEntry=WeakBarriers  ThreatOfEntry=HightThreat
	  ( 0.01 0.04 0.6 0.35 ))));	%  ProductDifferentiation=Low  BarriersToEntry=WeakBarriers  ThreatOfEntry=LowThreat
}

potential (Retaliation) {}

potential (LegalBarriers | Retaliation) {}

potential (AccessToDistribution | AbsoluteCostAdvantageOfEntrant) {}

potential (CustomerLoyalty | LegalBarriers) {}

potential (BrandAwareness | CustomerLoyalty) {}

potential (BarriersToEntry | LegalBarriers Retaliation CustomerLoyalty BrandAwareness)
{
    data
     = ((((( 0.99 0.01 )	%  LegalBarriers=GovRegulation  Retaliation=HighlyExpected  CustomerLoyalty=Strong  BrandAwareness=Strong
	   ( 0.97 0.03 ))	%  LegalBarriers=GovRegulation  Retaliation=HighlyExpected  CustomerLoyalty=Strong  BrandAwareness=Weak
	  (( 0.95 0.05 )	%  LegalBarriers=GovRegulation  Retaliation=HighlyExpected  CustomerLoyalty=Weak  BrandAwareness=Strong
	   ( 0.9 0.1 )))	%  LegalBarriers=GovRegulation  Retaliation=HighlyExpected  CustomerLoyalty=Weak  BrandAwareness=Weak
	 ((( 0.85 0.15 )	%  LegalBarriers=GovRegulation  Retaliation=NotExpected  CustomerLoyalty=Strong  BrandAwareness=Strong
	   ( 0.8 0.2 ))	%  LegalBarriers=GovRegulation  Retaliation=NotExpected  CustomerLoyalty=Strong  BrandAwareness=Weak
	  (( 0.75 0.25 )	%  LegalBarriers=GovRegulation  Retaliation=NotExpected  CustomerLoyalty=Weak  BrandAwareness=Strong
	   ( 0.7 0.3 ))))	%  LegalBarriers=GovRegulation  Retaliation=NotExpected  CustomerLoyalty=Weak  BrandAwareness=Weak
	(((( 0.65 0.35 )	%  LegalBarriers=QuasiMonopoly  Retaliation=HighlyExpected  CustomerLoyalty=Strong  BrandAwareness=Strong
	   ( 0.6 0.4 ))	%  LegalBarriers=QuasiMonopoly  Retaliation=HighlyExpected  CustomerLoyalty=Strong  BrandAwareness=Weak
	  (( 0.55 0.45 )	%  LegalBarriers=QuasiMonopoly  Retaliation=HighlyExpected  CustomerLoyalty=Weak  BrandAwareness=Strong
	   ( 0.53 0.47 )))	%  LegalBarriers=QuasiMonopoly  Retaliation=HighlyExpected  CustomerLoyalty=Weak  BrandAwareness=Weak
	 ((( 0.47 0.53 )	%  LegalBarriers=QuasiMonopoly  Retaliation=NotExpected  CustomerLoyalty=Strong  BrandAwareness=Strong
	   ( 0.45 0.55 ))	%  LegalBarriers=QuasiMonopoly  Retaliation=NotExpected  CustomerLoyalty=Strong  BrandAwareness=Weak
	  (( 0.4 0.6 )	%  LegalBarriers=QuasiMonopoly  Retaliation=NotExpected  CustomerLoyalty=Weak  BrandAwareness=Strong
	   ( 0.35 0.65 ))))	%  LegalBarriers=QuasiMonopoly  Retaliation=NotExpected  CustomerLoyalty=Weak  BrandAwareness=Weak
	(((( 0.3 0.7 )	%  LegalBarriers=Few  Retaliation=HighlyExpected  CustomerLoyalty=Strong  BrandAwareness=Strong
	   ( 0.25 0.75 ))	%  LegalBarriers=Few  Retaliation=HighlyExpected  CustomerLoyalty=Strong  BrandAwareness=Weak
	  (( 0.2 0.8 )	%  LegalBarriers=Few  Retaliation=HighlyExpected  CustomerLoyalty=Weak  BrandAwareness=Strong
	   ( 0.15 0.85 )))	%  LegalBarriers=Few  Retaliation=HighlyExpected  CustomerLoyalty=Weak  BrandAwareness=Weak
	 ((( 0.1 0.9 )	%  LegalBarriers=Few  Retaliation=NotExpected  CustomerLoyalty=Strong  BrandAwareness=Strong
	   ( 0.05 0.95 ))	%  LegalBarriers=Few  Retaliation=NotExpected  CustomerLoyalty=Strong  BrandAwareness=Weak
	  (( 0.03 0.97 )	%  LegalBarriers=Few  Retaliation=NotExpected  CustomerLoyalty=Weak  BrandAwareness=Strong
	   ( 0.01 0.99 )))));	%  LegalBarriers=Few  Retaliation=NotExpected  CustomerLoyalty=Weak  BrandAwareness=Weak
}

potential (ThreatOfEntry | AccessToDistribution ProductDifferentiation AbsoluteCostAdvantageOfEntrant CapitalRequirements)
{
    data
     = ((((( 0.98 0.02 )	%  AccessToDistribution=FreeAccess  ProductDifferentiation=VeryHigh  AbsoluteCostAdvantageOfEntrant=Yes  CapitalRequirements=Low
	   ( 0.97 0.03 ))	%  AccessToDistribution=FreeAccess  ProductDifferentiation=VeryHigh  AbsoluteCostAdvantageOfEntrant=Yes  CapitalRequirements=High
	  (( 0.94 0.06 )	%  AccessToDistribution=FreeAccess  ProductDifferentiation=VeryHigh  AbsoluteCostAdvantageOfEntrant=No  CapitalRequirements=Low
	   ( 0.91 0.09 )))	%  AccessToDistribution=FreeAccess  ProductDifferentiation=VeryHigh  AbsoluteCostAdvantageOfEntrant=No  CapitalRequirements=High
	 ((( 0.88 0.12 )	%  AccessToDistribution=FreeAccess  ProductDifferentiation=Moderate  AbsoluteCostAdvantageOfEntrant=Yes  CapitalRequirements=Low
	   ( 0.851485 0.148515 ))	%  AccessToDistribution=FreeAccess  ProductDifferentiation=Moderate  AbsoluteCostAdvantageOfEntrant=Yes  CapitalRequirements=High
	  (( 0.821782 0.178218 )	%  AccessToDistribution=FreeAccess  ProductDifferentiation=Moderate  AbsoluteCostAdvantageOfEntrant=No  CapitalRequirements=Low
	   ( 0.8 0.2 )))	%  AccessToDistribution=FreeAccess  ProductDifferentiation=Moderate  AbsoluteCostAdvantageOfEntrant=No  CapitalRequirements=High
	 ((( 0.77 0.23 )	%  AccessToDistribution=FreeAccess  ProductDifferentiation=Low  AbsoluteCostAdvantageOfEntrant=Yes  CapitalRequirements=Low
	   ( 0.74 0.26 ))	%  AccessToDistribution=FreeAccess  ProductDifferentiation=Low  AbsoluteCostAdvantageOfEntrant=Yes  CapitalRequirements=High
	  (( 0.71 0.29 )	%  AccessToDistribution=FreeAccess  ProductDifferentiation=Low  AbsoluteCostAdvantageOfEntrant=No  CapitalRequirements=Low
	   ( 0.68 0.32 ))))	%  AccessToDistribution=FreeAccess  ProductDifferentiation=Low  AbsoluteCostAdvantageOfEntrant=No  CapitalRequirements=High
	(((( 0.65 0.35 )	%  AccessToDistribution=FixedCostsInCarryingNewProducts  ProductDifferentiation=VeryHigh  AbsoluteCostAdvantageOfEntrant=Yes  CapitalRequirements=Low
	   ( 0.62 0.38 ))	%  AccessToDistribution=FixedCostsInCarryingNewProducts  ProductDifferentiation=VeryHigh  AbsoluteCostAdvantageOfEntrant=Yes  CapitalRequirements=High
	  (( 0.59 0.41 )	%  AccessToDistribution=FixedCostsInCarryingNewProducts  ProductDifferentiation=VeryHigh  AbsoluteCostAdvantageOfEntrant=No  CapitalRequirements=Low
	   ( 0.56 0.44 )))	%  AccessToDistribution=FixedCostsInCarryingNewProducts  ProductDifferentiation=VeryHigh  AbsoluteCostAdvantageOfEntrant=No  CapitalRequirements=High
	 ((( 0.53 0.47 )	%  AccessToDistribution=FixedCostsInCarryingNewProducts  ProductDifferentiation=Moderate  AbsoluteCostAdvantageOfEntrant=Yes  CapitalRequirements=Low
	   ( 0.51 0.49 ))	%  AccessToDistribution=FixedCostsInCarryingNewProducts  ProductDifferentiation=Moderate  AbsoluteCostAdvantageOfEntrant=Yes  CapitalRequirements=High
	  (( 0.49 0.51 )	%  AccessToDistribution=FixedCostsInCarryingNewProducts  ProductDifferentiation=Moderate  AbsoluteCostAdvantageOfEntrant=No  CapitalRequirements=Low
	   ( 0.47 0.53 )))	%  AccessToDistribution=FixedCostsInCarryingNewProducts  ProductDifferentiation=Moderate  AbsoluteCostAdvantageOfEntrant=No  CapitalRequirements=High
	 ((( 0.44 0.56 )	%  AccessToDistribution=FixedCostsInCarryingNewProducts  ProductDifferentiation=Low  AbsoluteCostAdvantageOfEntrant=Yes  CapitalRequirements=Low
	   ( 0.41 0.59 ))	%  AccessToDistribution=FixedCostsInCarryingNewProducts  ProductDifferentiation=Low  AbsoluteCostAdvantageOfEntrant=Yes  CapitalRequirements=High
	  (( 0.475 0.525 )	%  AccessToDistribution=FixedCostsInCarryingNewProducts  ProductDifferentiation=Low  AbsoluteCostAdvantageOfEntrant=No  CapitalRequirements=Low
	   ( 0.35 0.65 ))))	%  AccessToDistribution=FixedCostsInCarryingNewProducts  ProductDifferentiation=Low  AbsoluteCostAdvantageOfEntrant=No  CapitalRequirements=High
	(((( 0.32 0.68 )	%  AccessToDistribution=DistributorsPreferenceToEstablishedFirms  ProductDifferentiation=VeryHigh  AbsoluteCostAdvantageOfEntrant=Yes  CapitalRequirements=Low
	   ( 0.29 0.71 ))	%  AccessToDistribution=DistributorsPreferenceToEstablishedFirms  ProductDifferentiation=VeryHigh  AbsoluteCostAdvantageOfEntrant=Yes  CapitalRequirements=High
	  (( 0.26 0.74 )	%  AccessToDistribution=DistributorsPreferenceToEstablishedFirms  ProductDifferentiation=VeryHigh  AbsoluteCostAdvantageOfEntrant=No  CapitalRequirements=Low
	   ( 0.23 0.77 )))	%  AccessToDistribution=DistributorsPreferenceToEstablishedFirms  ProductDifferentiation=VeryHigh  AbsoluteCostAdvantageOfEntrant=No  CapitalRequirements=High
	 ((( 0.2 0.8 )	%  AccessToDistribution=DistributorsPreferenceToEstablishedFirms  ProductDifferentiation=Moderate  AbsoluteCostAdvantageOfEntrant=Yes  CapitalRequirements=Low
	   ( 0.17 0.83 ))	%  AccessToDistribution=DistributorsPreferenceToEstablishedFirms  ProductDifferentiation=Moderate  AbsoluteCostAdvantageOfEntrant=Yes  CapitalRequirements=High
	  (( 0.14 0.86 )	%  AccessToDistribution=DistributorsPreferenceToEstablishedFirms  ProductDifferentiation=Moderate  AbsoluteCostAdvantageOfEntrant=No  CapitalRequirements=Low
	   ( 0.11 0.89 )))	%  AccessToDistribution=DistributorsPreferenceToEstablishedFirms  ProductDifferentiation=Moderate  AbsoluteCostAdvantageOfEntrant=No  CapitalRequirements=High
	 ((( 0.08 0.92 )	%  AccessToDistribution=DistributorsPreferenceToEstablishedFirms  ProductDifferentiation=Low  AbsoluteCostAdvantageOfEntrant=Yes  CapitalRequirements=Low
	   ( 0.05 0.95 ))	%  AccessToDistribution=DistributorsPreferenceToEstablishedFirms  ProductDifferentiation=Low  AbsoluteCostAdvantageOfEntrant=Yes  CapitalRequirements=High
	  (( 0.02 0.98 )	%  AccessToDistribution=DistributorsPreferenceToEstablishedFirms  ProductDifferentiation=Low  AbsoluteCostAdvantageOfEntrant=No  CapitalRequirements=Low
	   ( 0.01 0.99 )))));	%  AccessToDistribution=DistributorsPreferenceToEstablishedFirms  ProductDifferentiation=Low  AbsoluteCostAdvantageOfEntrant=No  CapitalRequirements=High
}

potential (ProductDifferentiation | AccessToDistribution) {}

potential (AbsoluteCostAdvantageOfEntrant | EconomicsOfScale) {}

potential (EconomicsOfScale | CapitalRequirements) {}

potential (CapitalRequirements | BrandAwareness) {}
